,0,1,2,3,4
0,-132.35749382543293,-159.94760252985625,-122.48643730632283,-134.07612232091714,-132.0627572834427
1,-131.976207119661,-157.01140335921949,-120.71221448719027,-133.8270328477748,-132.44064888261974
2,-131.62732425747257,-156.0902842744544,-118.19113043731164,-133.5518504759042,-131.72318892171796
3,-128.65807142363445,-156.52836801536424,-115.5611747427996,-134.40798117025176,-129.22264506885134
4,-127.65604177421736,-155.53555047348308,-112.51452722816923,-133.31393365245478,-127.09947425408399
5,-126.24099250215403,-152.10961053498752,-112.106832377615,-131.57871640635443,-127.77764925711197
6,-125.00937448243377,-152.502596959839,-110.82850976892573,-129.57877329329386,-126.25410525461795
7,-120.90905789256013,-151.91908934161364,-111.49548284021265,-129.08183679128743,-123.11174174933862
8,-121.06107401683741,-151.87018949505307,-112.83448877654968,-128.95854189209646,-122.81749221913344
9,-120.13374094351475,-153.53347191858285,-113.18169088282666,-126.82637932853875,-120.516262905338
10,-118.99450169643853,-152.835335305436,-111.08727455337828,-125.75616397963644,-118.67927867994791
11,-117.74005763998893,-152.12218080652167,-111.624138851394,-123.79615665200456,-117.8160333941074
12,-115.01743774406559,-150.6263205248583,-111.37655624057089,-119.50288083773094,-115.00618883756145
13,-112.32340592951208,-150.63990371476882,-110.557642981134,-116.98952199625073,-113.21269854118607
14,-111.61512198268169,-150.36591526023074,-110.41454013581824,-116.3743987495744,-112.4474149032396
15,-110.59711428965,-149.81063853526547,-110.27630089890317,-115.69930404317823,-112.16393566577653
16,-108.78247328517585,-149.04383384627477,-110.89041876912489,-115.45193044129627,-110.61815495721525
17,-108.1080158082301,-148.8363977221521,-110.01562710957907,-113.75472556175431,-108.39960060538793
18,-108.27731259841157,-148.68400820023717,-108.92253015123546,-112.67282319545231,-106.03757878263255
19,-108.31952478150899,-148.67729816669612,-108.09658259521437,-111.72294000118919,-102.23972073921409
20,-108.29099630605366,-147.86700059142527,-108.52369707769803,-111.94848300244034,-102.38087599247294
21,-102.42286491982124,-146.11968894967873,-107.32220883884447,-111.47561475213855,-98.07182753794785
22,-99.96152303107381,-147.07298095459143,-103.60149052040639,-110.40558520510116,-96.2730579766093
23,-100.32909425376398,-147.26631896692442,-104.09760628597243,-109.41911101933734,-96.62262177804828
24,-98.10221060416612,-146.87520910282353,-103.97224361872205,-108.17889858155606,-95.0365862504273
25,-95.7724480483378,-149.21646034686665,-103.89142961176803,-106.84864715537725,-93.8444417828386
26,-95.15312522738147,-148.57689448544113,-103.47239359304764,-107.10060538991216,-92.02595348571623
27,-94.15198913227289,-147.09302798053344,-103.77416273511895,-106.17483573704055,-92.29423924093419
28,-91.41223928742525,-146.4967721139387,-102.60280829661457,-105.70622898561253,-91.94402191195378
29,-88.58538521747981,-145.47007510745883,-101.81967730266305,-104.96891445241664,-90.972288935999
30,-87.67760546033718,-146.47592573384108,-102.19761386004141,-103.34638664255057,-88.91605697237281
31,-87.35825370232051,-143.32292594173848,-101.95839697238051,-102.20218659628591,-87.73184188621951
32,-89.37206072677456,-143.47981249883364,-100.79080735606944,-98.19209636929813,-87.92180707625936
33,-89.06296185161138,-141.47763243615722,-102.39485121614592,-97.79042099487424,-87.54013819207302
34,-83.01209983962775,-140.4474001452049,-102.50926253108128,-96.76526201060447,-87.044965818132
35,-82.11243253806857,-140.75433393027882,-103.5970707578982,-95.08901787376894,-85.3717891992264
36,-80.45471928139159,-140.09559090534907,-102.86878502286044,-94.38240857627429,-81.92030496744593
37,-78.6168794468597,-138.06702977872047,-102.22299218711973,-93.85452667863515,-80.43930273008021
38,-76.33991270361823,-137.23568005986522,-101.59797957669686,-92.75470943887987,-76.5372026766495
39,-75.48869157171762,-135.60596627572858,-102.22065041098942,-92.16096442341781,-75.91529544036639
40,-72.95972394402678,-135.74753055773164,-101.60929630403609,-92.0205268308382,-74.31814290754754
41,-66.39012553165514,-134.30026927144903,-99.12355854790803,-91.42194222122966,-73.89699863351706
42,-62.78496610614884,-133.1875518883182,-98.71772468058727,-92.67394964337439,-75.12030202461614
43,-62.79894577374457,-133.3889030365804,-99.33648750542474,-90.75533272928143,-75.70111158977656
44,-58.077867286298485,-133.90970126146692,-98.37064382217368,-87.09639829041818,-74.42208476850307
45,-53.68591139327871,-134.62258715806428,-96.4881676782715,-82.15049157234839,-72.66864894091704
46,-50.32795214703743,-135.07917056989,-93.1186801996034,-79.53786927776859,-72.54736962839068
47,-49.88310717149008,-134.66294374033407,-89.97079910178594,-78.18504775479391,-69.52227963375356
48,-49.36747359557252,-134.37760973930799,-89.23706074871201,-75.75598473054072,-67.14517936331052
49,-45.3040679440901,-135.26757261513964,-85.64672237225345,-74.08075459222911,-67.66982171796913
50,-43.4886795140269,-135.12852694369496,-86.8454975692265,-73.91642740418224,-67.17613476353254
51,-41.283655593027014,-134.31143151561255,-86.19965098561623,-73.35532867348026,-67.53184410253421
52,-38.4779309660963,-134.93417097191698,-86.12613209123792,-72.77007921062736,-66.38958251341747
53,-38.88934704226031,-134.3508565057694,-86.14344378076265,-71.51041206353806,-66.8114034031958
54,-39.17967672426093,-131.0033298214769,-81.694838605026,-70.94070103940741,-64.56048114896929
55,-36.91906113030452,-129.84750686788783,-81.54510748669841,-70.42677033602092,-62.39383225517854
56,-37.239412801559425,-129.50618451743142,-80.1811109447448,-69.89456217854905,-62.995850228709386
57,-35.74471143287752,-131.67044811806673,-80.42789263660518,-67.52367709098625,-60.58053882174562
58,-31.827620307265555,-132.1182989396696,-81.79205380673152,-66.87758526753049,-58.79101274199778
59,-32.028592876811636,-131.15638523718832,-82.61494707910676,-66.4999480764652,-58.0218824642136
60,-31.907426216564534,-131.77956771813834,-82.72430750344391,-65.94787338702241,-56.61093727129862
61,-27.027395112883692,-129.45657802091534,-83.13702511505817,-63.26598022529148,-56.2779685520976
62,-23.719449192877327,-127.4267608744463,-82.67401004655429,-59.846295758909406,-55.88573210283006
63,-18.582918298127616,-125.73768854734115,-83.51788029466725,-59.97567102372623,-54.437042771725395
64,-16.377801762820912,-124.9000998800981,-82.94322134916746,-59.42375495439887,-53.964384920370755
65,-15.78892035998054,-124.83165512536041,-83.88967792103382,-59.74459741165816,-51.51801350488788
66,-10.16969337030669,-125.62897146492503,-85.1065190461408,-58.82020845373879,-49.29090962011651
67,-7.684369829974393,-124.80505851998073,-85.62823778308073,-57.106438502341646,-50.4426468858777
68,-4.501773463748088,-123.29361322267194,-83.95209086697568,-56.8281300051992,-49.97670368903947
69,-4.529078762334613,-121.13586982195882,-79.7476318372911,-51.86314548801044,-51.25326409779239
70,-1.388465977546357,-118.32381712611503,-78.2744422875323,-50.301487611706754,-51.55747969757012
71,0.9636651503467937,-119.63828907735991,-81.72717242669187,-50.56163775002967,-50.64631336863298
72,1.9095370970431262,-120.22787979662262,-82.78510116892204,-50.094441378479154,-49.51722006318508
73,3.508106639298976,-119.9749279775913,-83.03445541554674,-48.60164167985923,-49.214148585542596
74,7.353732026590553,-119.9096569458653,-84.88687571512152,-47.99706031989518,-49.11308876150449
75,9.701883359535076,-118.45821492080584,-84.35203288998368,-48.409719495990196,-48.40273857741035
76,7.676691219222991,-118.22978120027678,-84.54210903359021,-49.190496922013836,-47.896833050732404
77,7.53115154652104,-118.12434107428416,-85.29001794970374,-48.68816736672383,-47.077635648720246
78,7.917783151485505,-116.36124263311096,-82.67929889513154,-45.71623153886557,-46.38024553175604
79,9.13626698132269,-116.05963795325566,-82.74460395702414,-43.51686240289618,-42.522170070307766
80,11.567758681903264,-111.12383495103158,-84.84149303007604,-43.81938650514988,-42.31563428781132
81,14.991304169657312,-109.67159227649492,-84.98256827364898,-43.96048137427864,-36.02010387826428
82,16.538379220714233,-106.92096197202208,-83.50090196552517,-43.59536867546974,-34.89046797295278
83,16.277509740201403,-103.53072723697721,-84.1693499329543,-43.55871947452716,-34.892122848114234
84,19.274390515052417,-100.81815715855173,-80.59020735499509,-44.36725484770504,-33.259652688313494
85,20.236870765929723,-97.79113466239636,-82.4776906762247,-44.56256903454116,-27.830967568238634
86,22.507649182915287,-96.07079608902568,-85.02221283934976,-42.70818167365,-23.97438507594117
87,23.13729200284526,-93.2722465275349,-86.25360640599918,-40.0108662449504,-22.409156157802286
88,25.311709414551324,-91.5059927199483,-87.875492122376,-39.79888344972928,-19.859516272497537
89,25.324249298100813,-89.22835579884708,-86.74731440240593,-39.760259488778246,-17.82777942827209
90,27.981086794755647,-85.65569912616691,-86.99699022299492,-39.235045150225076,-12.024579721233868
91,32.0611590562806,-84.96627275575015,-86.67986124803227,-39.1177149925071,-8.019277417466098
92,30.630043661515092,-84.54134218139265,-86.06629394996915,-38.55926759474855,-4.4790857032933715
93,31.63476899193264,-83.88668717740502,-86.55920430958182,-38.02110705183482,0.17545452043554063
94,30.830529359925293,-83.16743821009746,-87.85513791870892,-36.70420371436177,0.9789415865631209
95,30.25372286974376,-82.93318071672229,-87.59059690177874,-36.22990380727052,3.236664308663327
96,29.18137091733997,-81.29839718546094,-88.70939059397884,-35.2580942673998,4.045031145563496
97,29.332603517825213,-81.30975393137989,-87.38078725717679,-34.77084305384203,6.874757711813628
98,29.922092384731222,-79.95877825812066,-88.11028539529049,-34.275985029180696,12.641107888876753
99,32.44070345887885,-80.83660013767314,-89.06892913934574,-33.9387439664146,15.570132764321688
100,34.88527774303377,-80.16046964334241,-89.28380448948296,-33.55691173053974,17.938934686833903
101,38.3313638977302,-79.85308556358224,-89.465745889651,-32.82327136106669,20.48369628725425
102,41.45758704454093,-80.10154380197804,-90.43092876460508,-31.31687021732388,23.927008338181366
103,41.20675485410099,-79.84202111120426,-89.75092525455806,-29.90451390242702,26.203517618218147
104,40.671971008452935,-78.8686917325377,-87.39365890253559,-30.50566554536506,26.88139945468753
105,40.55110237279308,-78.59133081109756,-88.25974411778016,-27.149388674405255,30.437799110421153
106,42.41870412129787,-77.66229438525964,-87.64931509196045,-28.883296196572356,29.389046490321398
107,41.883340447994094,-77.7673593310104,-83.22199528399432,-26.936911316284487,31.16316822072383
108,39.85956971985027,-77.29922114944587,-82.37048977099833,-26.93847244194591,31.286178118869188
109,39.999654093683205,-74.04020603915336,-81.6184381067884,-25.28973144746906,32.51330743038315
110,39.36397793378827,-73.53445550311677,-82.29902499692531,-24.74133587283075,35.451369079948705
111,38.400631263014496,-72.15711530629254,-81.75755750651814,-21.98266405784874,37.94086327717431
112,35.47248693049925,-72.32437782767396,-78.63670406896836,-21.127006844012868,40.816964538935935
113,34.87650513161277,-72.16069362806313,-79.7602924310964,-23.194121352122114,42.90256557604632
114,33.95123568377153,-71.58240360120718,-79.14649394070685,-23.549343919544896,45.62100155282343
115,33.37112975703427,-71.25746817022184,-79.20527419481259,-24.943317208510585,47.14632990135081
116,33.15835602834346,-71.18401193054636,-79.4227740980832,-22.801505471604916,46.86451557994343
117,35.59705509847032,-70.85814007512771,-80.49259800067759,-23.483645294975016,45.66372905533335
118,35.900776379488754,-71.13253588529722,-79.30607831162374,-23.09579141918852,46.77259245418768
119,35.18327150737602,-70.75114916500563,-76.53453999508005,-21.461122565007564,48.5928437363042
120,36.53909853527852,-70.07334156215744,-76.27897919237046,-18.862970633387302,50.918791850868146
121,36.538933069390794,-69.80980850106847,-76.49753686605759,-19.205320443340838,52.12106439795496
122,35.77411751848166,-68.15061715326337,-77.83328260669424,-19.23593168506323,55.04846152599849
123,34.969732872702295,-67.35351160889404,-78.42072569596694,-15.693490099396442,56.89818202681133
124,31.047921597966095,-67.00578052845214,-77.67969559651395,-16.45188196743464,58.84233657979086
125,33.8894234961275,-64.67394880991418,-77.00383570546508,-13.788968457760346,59.171978216075715
126,32.72372795950937,-64.36233778552189,-78.46531256553013,-10.747702330581165,60.25851600449762
127,32.7636705097386,-64.03986565766901,-75.87700634902738,-11.45390206772301,64.22915774933738
128,32.07510953829292,-63.695988706614706,-75.3881108645583,-9.602554893393686,65.80480569755319
129,29.558837804550492,-63.917960961912286,-72.79112030167323,-9.396907276632794,66.98009789702874
130,29.54358304125586,-62.57501929237056,-72.9243661290877,-6.449659878157138,63.907879688923
131,30.217319066744807,-61.92254572812129,-73.26125880513133,-6.450068348243547,64.29521255037582
132,32.54282868773236,-61.21355168995819,-73.485580293218,-4.431987986050224,67.2214493103603
133,32.484587057489215,-60.57921156923714,-70.61830087337023,-4.277185642632776,66.94079205511667
134,30.008906273231577,-60.07811797409884,-67.27009744410427,-1.631569784324126,69.29490007055037
135,31.627237768493,-59.75212358745327,-64.4015412588708,-2.254994541842604,70.8923052738769
136,34.56278468945292,-59.19744742980181,-63.11006196604955,-1.8118124404509186,69.67678012036225
137,33.811752985896625,-58.7023642091503,-62.69188807197224,0.3503486043531919,67.969414751786
138,33.59697773253771,-58.710357213694444,-60.36668004192054,2.2990710155964473,67.13461477428221
139,35.11368507036863,-57.85601124637563,-59.449878611820694,1.7427075778172971,68.99927881497653
140,35.22615392060607,-57.07988389412257,-56.78864496296596,2.1905754084428763,69.1621748278139
141,32.70939281068147,-56.04516638531976,-56.760363467037095,1.5903691203812194,71.66274493130148
142,31.207785685262905,-55.57256235000874,-56.24434471971755,4.641869067267863,74.14409856211327
143,31.729707655612273,-54.87084933382753,-54.956523670862126,6.3402509131038265,77.89458505013305
144,29.52462726454006,-54.16212759121036,-54.087908178493244,9.406599449149697,78.83971901388449
145,27.40469462722911,-51.87680280268283,-54.80346321848875,10.9138304336462,81.69224146647522
146,27.619423272580633,-50.58596638920975,-57.84489883844277,13.344877224397553,81.25506479933085
147,26.89783559632447,-50.44983839848025,-59.241088544241556,12.314517900910712,80.84425855373722
148,28.222598719800494,-49.19207313960558,-59.22398960663524,12.139387369800938,79.1199109281276
149,26.734066878404775,-47.787143160640646,-60.826273333594855,13.055550263454238,78.88630124861417
150,24.46603184264003,-47.34299886078199,-60.572057587608214,13.057970652433456,81.66983553424814
151,24.931261968316416,-47.0141277122709,-59.589833639186466,15.77273650831459,83.936761845592
152,22.089741246137205,-46.280228102683175,-59.33047226118207,14.431727396037404,83.8898601121926
153,24.535217937020693,-46.02878484971601,-58.8475885949109,16.489319208766553,86.6437313022198
154,24.548990381189064,-46.01758766037169,-60.89950156132929,17.70200961843019,83.82360416424612
155,24.55706401701799,-46.21195009741498,-59.46080715943267,18.26166778410071,84.3246020004725
156,27.856176305608123,-46.12319205992866,-56.96386575378547,20.28283413369154,84.40771512556357
157,30.281714727698827,-42.79134918335754,-56.03428482765499,20.22424381539266,81.47453466405263
158,30.01268589630208,-42.05178450405046,-54.65633231263901,19.880073043792333,83.06465301281474
159,31.162914612001604,-41.336114159287874,-53.69908779696359,19.741548186532867,84.92734285657045
160,30.478044802194486,-39.78815453412506,-53.04619021614166,22.54002424592879,86.89360099420637
161,28.342555042073126,-39.791415221844815,-52.450204039278994,21.770559886482587,87.65151311877739
162,25.31103697951104,-39.40015318801944,-51.5422213227253,21.712191327044263,89.42668743942723
163,25.416814818652675,-39.08477163230519,-50.67480213738781,20.029280530848133,91.83811361578084
164,27.28929465214989,-38.33485814990972,-49.7126279335722,21.64370420721176,92.44342684411612
165,27.31508419057205,-38.04682583347261,-48.489356932074735,21.13266508116712,89.31000509810713
166,25.178134118737617,-37.88690916328266,-47.6672636949226,21.092974302992346,89.39690861576565
167,28.207102061568634,-38.16339627160041,-46.77264392873907,20.58532657541642,88.41914381148392
168,26.431498623292377,-37.9982921522721,-44.19198178426742,21.017317298005754,90.83748526420545
169,26.64455820843692,-37.95022012760513,-46.12643368733953,17.56166235195111,89.52761671974767
170,29.420527907118945,-37.81635651378721,-44.26276650231889,19.807489561264678,91.68415555695265
171,29.312405040410862,-36.848894049206656,-42.757769945708006,23.015549624159153,93.69011238951376
172,29.00679689968402,-36.249571835444,-41.54717136357133,22.459959120345275,94.07683204650492
173,28.95256073590563,-35.98249771004734,-40.98064386419189,25.049826014842935,96.93026598617743
174,25.96274678475004,-35.40776653087281,-38.34025893832079,24.278619565160117,98.87280224061207
175,29.19196170456866,-35.459381713905394,-35.47233418704288,27.095118214510247,99.84671327870265
176,32.310764234327024,-35.41621508277498,-33.6035334724187,30.07573195951272,100.85126140984084
177,32.87117118489616,-35.46342298490838,-30.468266975167552,32.76792972348815,102.34437528658447
178,32.11145476940936,-35.23653961017055,-29.687469765766817,31.93662018199893,103.49392633761829
179,34.17599590971157,-35.536657238611504,-26.72925852159974,33.21689513208447,103.10594095207281
180,37.146440416607014,-35.26470967415392,-23.520055182943032,33.288481657226356,105.5238835661238
181,36.539644730151146,-35.402232821500434,-22.578920031277697,35.540122499717924,105.50571198148646
182,36.467632257775264,-35.31721974023761,-24.07324059255018,38.31037349673577,106.59453000568986
183,38.88177176044999,-34.85977587026646,-23.595589141848574,40.05407350197684,107.42772409486628
184,39.21526228662956,-35.152827406560405,-22.54008768229005,41.083292558445585,108.42644949499008
185,40.817930483007,-34.69555757588115,-18.464050818020013,40.79382901162417,110.2354842940687
186,41.43711554766971,-33.54772787984193,-14.942236900946327,43.219787868960736,107.63561626820464
187,43.08070522586529,-33.35634070650515,-10.95365266571479,46.24716566667693,107.33463529441329
188,43.00917801930486,-32.75550776379414,-7.413291241255797,46.222366469965884,107.41346356221383
189,46.377292334327755,-32.62888408121538,-5.015307411817074,45.969338318041174,108.03291927171456
190,45.709807672962576,-32.8251627412371,-1.6462573186816396,45.19796475017206,107.04526523566022
191,43.61548260230897,-32.79305329662745,1.1744054462098064,47.03255218771183,106.12653750629006
192,47.5897810159868,-32.82247636551692,3.001305474784954,49.55843343099517,108.71877913768887
193,51.03021020162893,-32.34321930852778,6.625186363992448,51.90097297898391,107.76789181290384
194,53.64445225987954,-32.37399742821407,6.7493194459236,51.23354179038856,108.69750790666716
195,56.95277634009777,-32.65765406180145,8.547016859732118,53.92518731790992,108.23759691652486
196,60.53483799706431,-32.87741969707765,12.46818976414775,54.76473366775011,110.46478914454627
197,62.829239813811654,-33.215703133162776,15.593013145212176,55.11174129776754,109.84680596749394
198,65.20871579969462,-33.527910939424544,19.137190607789048,54.91107490586961,109.89679774822154
199,64.29315464465051,-32.87077511335382,20.52220801166473,55.414339139493414,109.7834671605585
200,64.66781633582929,-32.959527867354325,20.950428320025622,55.84893073130895,110.51994161884046
201,61.562334290844234,-33.34164398151575,24.227217124791196,55.023195605533836,112.44073307838764
202,59.27464819230873,-32.97359596183377,27.06541074704106,54.47909682907663,112.18329455799969
203,62.248165796175016,-32.44302564637908,29.390089888865713,56.146039111421516,111.5464305615393
204,65.11233813624679,-32.6389847627575,30.13962832285025,56.89489414058935,111.84496897698806
205,67.455638739619,-32.56220715891693,34.083501766441906,53.78195933018067,111.10337479732797
206,67.33899730155684,-32.79282997338271,37.59250571828502,55.00682572327572,114.33960015072942
207,68.43061536361917,-32.58276015165278,37.788441855068584,53.574970193657116,115.05293294557667
208,73.5735207173614,-32.300483006418816,37.4104906595846,57.090220123180536,117.56595845776879
209,75.51761112056752,-32.22120662778226,40.64470962967238,56.35205931614197,118.42379290132325
210,79.00917837913997,-31.873685608780097,43.73828336801311,56.778090278695935,116.45689827103611
211,79.72875680409815,-31.714634783197745,46.45354349267111,57.12422102081932,116.69133465731278
212,83.5735050716859,-31.00506213796562,39.93905550345797,58.08226412750227,116.65908466779749
213,87.1535163295617,-30.862707828233695,43.429786434386045,62.89330379269004,116.26252966401825
214,90.81652705083576,-31.210438817299238,46.269520605752405,63.135108736360095,116.26811316236704
215,94.41509538384264,-30.97023016444155,49.318429491311754,64.10857211955955,117.56308496000415
216,97.57450600756539,-30.74937077583921,53.48542775339718,62.872919629209235,120.66340067138518
217,97.49793782196627,-30.431113079238294,56.016288059764655,65.08384218616666,119.19477434431533
218,100.0414110512756,-30.045104232048658,53.76086807732648,65.20014516974176,120.63735747452372
219,102.67216898823511,-29.939179131149864,53.53826943776041,63.31666380041719,121.19380803011707
220,104.15175483152028,-29.524571566326404,56.8726117032328,59.72412123104397,121.45049075273923
221,103.25614980461633,-29.669108489450768,58.86313854801367,62.111266691578884,122.52748379059612
222,104.68077376343042,-29.5619732058405,61.50898403012227,63.99295373654868,122.48189449074856
223,108.73539919489727,-29.65730649199543,65.26649333866563,60.72250703363744,120.15903765893765
224,112.59065769659811,-29.650798676142962,67.6594820126454,60.7579686327898,120.39376204085565
225,112.52984157015776,-29.497046070737998,70.72981566559119,60.52322960023312,122.44846790721951
226,115.68075640973593,-29.277462485592867,75.8505578058432,58.36066714862321,122.890945829774
227,118.16761033901494,-29.452753693090045,76.7052322850957,62.076966302404536,121.01697711053265
228,119.59641922591473,-29.424007893181997,79.08737529560547,60.707926939316394,121.97312831878291
229,121.49464584678469,-29.673386247328548,80.52568149802931,63.843806381780496,122.68310005800954
230,121.93260083357136,-29.538524307664165,83.98213638637324,60.940616870659184,125.89007048031732
231,124.11058433962826,-29.540807700435025,87.33564693896201,64.27480837603656,128.6198056797847
232,126.91602901999826,-29.589089144599644,90.7491083650538,64.80353215683257,128.5616969436908
233,129.88498432303786,-29.46937805000723,92.72439060336195,67.70247303539183,131.36285985492472
234,132.47114542037573,-29.44046025363127,93.50745638275308,64.45474395209693,131.99960424408374
235,133.69335220682004,-29.60530648480507,93.95230326687772,67.6267947383959,132.84615529261038
236,134.1690975472623,-29.705388543625595,96.64517956731932,70.37005585000905,134.79573125397056
237,137.43911818673533,-29.76722976761749,99.44007983576688,71.33421736780639,138.52951484751947
238,139.60481811832258,-29.831574880842243,98.11621506621472,71.89566462219317,138.46806410292828
239,139.63485042664234,-29.49268901706491,100.54478052730205,75.44801629427647,139.70337828999297
240,140.07109715991484,-29.966449548488757,100.11966505340857,78.0926093216093,141.33233333532672
241,142.5066330720736,-29.808389242643187,103.26644542353982,78.17210839321294,141.60348720401723
242,146.79468018604115,-29.346366183716526,105.65941164006317,78.38387285113336,141.47094948175027
243,149.1801122170527,-29.201980802946913,108.42915717319669,76.54104470805561,141.69321853886777
244,151.70173992898685,-29.109678249418618,111.3142459250705,73.62254555004628,143.9636421901366
245,153.74904680047055,-29.494254298445206,114.90234932428291,74.00355991371636,143.57981108790847
246,153.70027383482673,-29.70843223999472,117.48301132616687,73.53123569880249,146.23870229896718
247,155.43555391234528,-29.57761382808349,121.2408605561177,76.50514483187777,147.05700377331743
248,156.7250782513099,-29.57934808661013,124.09500410259032,76.99654992153474,149.02212024198133
249,157.95450298542113,-29.0243699788718,126.30300893758606,77.60243277438009,152.66177400657506
250,159.95584446015175,-29.186513615576814,129.5016136533276,77.82334068730535,153.6316504916841
251,162.6725356805937,-29.47582397552566,132.39907823675028,78.25132468720194,154.44750222645555
252,166.99487643041587,-29.500121425720593,133.68636202912145,82.16264570836785,156.74826032054204
253,168.30039315226705,-29.016335191250487,135.87159958977367,81.94774353175241,156.61878472371052
254,170.66410326710644,-29.50510503481104,138.6737041500072,80.09734875063111,160.22426709556538
255,171.65819709053093,-29.223608989995988,141.20349097596412,81.52870921118384,160.34842614571562
256,171.1176216448521,-28.786393209935387,142.31032545244076,79.3577315185699,162.31562647843543
257,171.02013314546934,-29.144074805450746,144.84026302301376,82.57295403995926,165.05412067353717
258,170.91987753027678,-29.621108383996233,146.7221078325311,82.9104015168892,164.06916586001017
259,173.41726797421373,-29.517110956377227,149.7225694480368,85.42946670166963,164.90740017468707
260,176.98523727484965,-29.511615116901154,152.29484356718984,83.25050222387236,164.13190758950248
261,178.83517002429366,-29.760600520121162,154.84388036317404,84.7234943345817,165.84758254682936
262,179.83494874532045,-29.60616300492663,158.11213893387645,84.94704438342367,166.24892181578085
263,180.1605480425403,-29.565216323711816,159.62290943917824,88.54562770340907,166.79385745468682
264,180.28002944653184,-29.690908379968604,161.75725415402485,86.25296093871376,168.9193545499202
265,183.65784523312854,-29.069025582163952,164.1360062532219,87.90301848053669,172.68484677523801
266,186.1553932079834,-28.8119022363653,167.00268203451105,90.923334750728,173.33219510410342
267,185.60854487651292,-28.961432241490883,169.7141979504809,91.81818470103435,176.9903597966461
268,187.96574233595754,-28.59077889863434,169.47549188752248,91.53988453781648,177.55357859929916
269,190.37332307834353,-28.36434737452553,171.86954960170598,94.80086140969512,181.90311950831503
270,187.10866056191853,-28.47248685377106,172.51879671155075,92.79700314522968,182.4774314231195
271,187.28598482320353,-28.197383572816562,174.69601713328055,90.3591407198058,182.59202736020225
272,190.23153764367794,-27.891528464161993,177.5882275464662,92.02722906373663,184.2541741915049
273,190.16764234072866,-27.73239334761031,180.19978077167758,89.14788402976654,182.62122419523268
274,192.8331195070114,-27.636893363311156,181.5309853636121,89.38946144307569,182.532579857546
275,192.95866418888158,-27.221904327622834,180.18860807620115,87.45299800132716,179.797492728629
276,193.1570558216821,-27.380908610727303,181.1882253057768,88.21785009912128,180.507233815585
277,195.95625229211822,-26.894040988811426,181.4830119566258,87.3429089156511,181.40092392925808
278,199.83575987975055,-27.05583582710774,181.4892716658196,90.95953490641355,182.90525447642386
279,199.12164022127706,-27.07009411540906,181.49149710699953,90.63820757629692,183.68569700522823
280,198.67803705876824,-26.79771359116364,180.6913039887368,93.15793554704798,183.8396846334377
281,199.1744862093711,-26.94355896614523,183.3084796058029,91.36242789561466,185.38061275544243
282,199.82574334331534,-26.858135060482297,186.0092713637309,91.43962581588768,185.92520368628863
283,200.39546576484514,-26.94734790387045,188.89766156110124,91.91253256838823,186.85529575427663
284,199.66737470041832,-26.91386583679855,188.75488358962775,94.09648851738935,187.40481365332883
285,200.5454463542392,-27.29679973760788,188.94570479724803,97.42919739135296,184.14285508981422
286,200.3059519719106,-27.81674840203758,188.7237854843304,97.18184977891262,186.49198566422612
287,200.44818482584526,-27.704400783871407,189.07732460683906,96.81925225567085,187.1888378969769
288,200.44826042451825,-27.543460679578878,190.11100816537078,98.18042364694792,187.05283571134112
289,199.63530180974513,-27.690640583223477,191.078999298159,100.68169236518919,185.92857617549882
290,199.8210741884117,-27.43311981596755,191.78787940235347,103.13904711166221,186.70284642184964
291,202.03331955015906,-27.0951353643939,192.2832201088681,104.34657074340952,188.47881805049693
292,202.24640056694676,-27.2952090703457,194.05185560155562,104.02527948698778,188.3692707515654
293,202.47255280503592,-27.443612535167514,193.82461853518143,103.42965620138222,189.4441861100952
294,202.95428913186245,-27.57336686637789,196.52626149976138,104.35936363150937,190.5753817152734
295,197.43497315332738,-26.942749531880867,198.0300902665531,103.62329376711772,191.44690353218735
296,197.86976642087538,-26.416639033445644,198.01916713192549,101.22572473393376,191.67441564774512
297,198.71728652274237,-25.654651479299343,198.29992167845705,103.31209949518751,192.46636612227977
298,198.72687346808848,-25.783548657980035,198.55408546991202,106.28411366487437,192.81118400058998
299,199.6706929405218,-25.671489092071884,200.86747537547694,108.55992165075358,191.71043005748197
300,199.39713345635272,-25.368154393393425,203.7634961477202,110.2350074455857,191.3986320220208
301,202.6529267122574,-24.939461258068345,204.0681669824808,113.86489337128016,190.79395967691212
302,204.69934435614897,-24.786311409366487,204.55905390445207,116.77686732620192,191.05974393696295
303,204.1805705442717,-24.895279825772267,204.80917978219316,117.44390590135109,192.19325290059442
304,205.32478939333166,-25.075505295172526,204.63139039099482,119.94600131756111,194.40908786084708
305,205.74610523969088,-25.317494399306735,204.50645236411478,121.3644320707753,194.4258467310817
306,206.5384284382507,-24.99335316099569,204.13692199320033,124.19431697800759,194.3708988709207
307,205.92593294693316,-25.18242714017454,203.6257788772418,126.50292262822285,195.0974929393656
308,205.8905036907141,-25.59643009881769,207.3926157498827,126.29380992546757,192.43131471400756
309,206.67663122687193,-25.91255597990278,206.9693775821111,128.03802922294673,192.90072639424181
310,206.44225346412327,-26.173251978208867,206.70300730646397,130.16199711621212,195.14575333808108
311,208.96836606364792,-25.882229503438467,207.52749081366102,130.68133558978064,195.7014540189576
312,209.23448429544615,-25.932525249901346,211.9332166184249,131.39480178128466,196.04575694775693
313,209.61932339179282,-25.544924682943634,212.42607734278963,131.08699146414318,196.96157109750362
314,209.39494007912123,-25.181752621965206,212.761184011308,134.51565650192273,197.53634044981277
315,210.13815356540985,-25.497097482281152,213.02240962786476,135.02305661321475,197.92829664580563
316,208.09803055366774,-25.87107294123359,210.07887240524616,137.41904889198483,198.07393383593924
317,208.53400946502154,-26.29579072828512,211.3189820126106,138.3526456396225,200.50975522989765
318,208.34256468351032,-26.400667891315212,214.7819815018382,140.23851285871405,198.33766035643163
319,208.90586962909435,-25.91880927012599,215.21239186166463,142.8712311889679,198.56571456474555
320,208.7591414282566,-25.850873346379203,213.53505014065973,147.06904878278462,198.82952227694403
321,209.46169895255844,-25.433025744137577,213.95447371974214,147.15695551357427,196.5839831370396
322,210.9400999173254,-25.16189618563667,213.95629472719557,148.25338198158127,196.96241328167173
323,211.37198121717583,-24.73997583541558,213.5274975040642,146.69866289996347,197.92457619391757
324,211.74481190773807,-25.10044153525882,213.6331095314428,149.37187521366587,195.8741138677064
325,212.0413938126742,-25.45676103351465,213.91701776816652,149.22210852421082,195.84427252367885
326,212.396947619006,-25.362232978007196,213.61879404472373,152.15126193044236,193.63433637145442
327,212.64751009929884,-24.896886597356193,213.61093172046006,151.53163484627518,196.13804624783032
328,211.71077480901616,-24.795645657846748,214.03993686158032,151.90967290625522,193.24759870961046
329,212.6566355448692,-24.52726155486568,213.55718196950798,151.02265730045264,193.379618015915
330,209.7568609736754,-24.712812902058808,212.6178945879815,153.63723723956028,192.10407482381717
331,210.1538325100584,-24.707457500744972,212.41154429432854,151.59629428404048,192.48588499813803
332,210.14582534190006,-24.531689929942967,212.4625760876673,151.40803604691408,193.39346773434593
333,210.14688817445418,-24.650817682981742,213.42609451856686,151.97171218091933,193.20931746878077
334,210.80170418828652,-24.414789960014684,213.40956646209014,154.96868948745646,193.59759313051475
335,210.6915799038642,-24.270697845994697,213.53208861657734,154.62157885230673,190.7814901339201
336,210.2680032457567,-24.27202054768541,213.30170728687924,155.38872261696545,191.02895060454074
337,210.2732284864557,-24.617247085338395,212.8753476274876,155.05043431814525,190.88862369659694
338,208.19723149145227,-24.14327510475895,214.50297775544198,152.7167411998676,188.99704705563568
339,208.6839759685312,-24.488364951247753,214.562323564146,151.89359562213446,188.80439591806444
340,207.95244797506305,-23.614010380994717,214.588447601079,152.01716826080076,189.0590753912203
341,207.51562117797042,-23.73836828563984,214.16309365927046,154.84731975312422,188.92451105933677
342,207.75222596512285,-23.559189473956632,214.46694274501223,155.43166446403598,189.36755996380873
343,207.21233477633086,-22.950377252674574,214.6064134079343,158.33071288447508,189.04424476846089
344,207.12455655488932,-22.97136510418305,214.94951789408893,160.80172073258677,189.04450894127496
345,207.48530366590313,-22.884701184238562,215.45165991848,160.10118290979716,186.44989248292993
346,207.85217635133168,-22.721125708006888,215.7889593569644,160.97457939272414,186.99634628271338
347,207.24172998570933,-23.032763397183068,215.74203464574504,161.6864476353004,184.9781486330586
348,207.32794650056738,-22.59143073355328,215.08845355260712,162.79444194417255,185.04301681930974
349,207.28735804007275,-22.297995303603628,214.35865607747277,163.89528897850585,182.81031581117426
350,205.15166839897185,-22.35966324894152,214.03375714885317,166.75270080504757,182.73535189877762
351,199.83750008490313,-22.216794792667166,214.27687290996477,165.58251696060336,180.0028488394446
352,199.52188324487486,-22.388608409767265,216.14547228134484,165.594435544309,180.1430533457196
353,198.6688305690894,-22.4470906851189,217.07822779947102,166.34405196268094,180.73294926078594
354,199.05678887926834,-21.878693093100424,216.6621306450004,169.42576633971004,177.93570895566748
355,198.16821075816276,-21.70438911626132,216.94751292477417,169.24537452168872,178.47992019311775
356,198.41155854090658,-21.850808308709315,216.56077424955004,169.76522490669356,179.26588248962668
357,199.44074758113004,-21.846741978761255,216.45340296496929,167.580510868813,177.6327112565386
358,198.93439090683333,-21.710634530330367,214.46657330984132,169.85712807085574,179.47043434649936
359,199.0086143377869,-21.558950769641484,214.1508465244059,167.63694474455727,179.5465523496451
360,199.89989681339196,-21.58135302298243,214.44206122801717,170.03701238205747,180.32766385130094
361,200.56285923827645,-21.65680118352275,213.44800155753015,168.90847550445358,178.4198632709383
362,202.82273475187594,-21.769927802582714,210.6284731026642,171.3842797730719,175.876313613252
363,200.21808061190538,-22.005383920766125,211.03771503443582,169.47363895378945,175.33076105156132
364,200.65106545302544,-21.629632218688922,208.52728022291026,172.92923294269286,174.9996841980539
365,200.52132883202034,-21.96257789343098,207.9680112566895,174.31446463790692,174.82381736469807
366,200.41956001037735,-21.919154630038307,207.60340180205102,174.58594064058244,171.8977179557404
367,201.28518129885344,-21.421388732554885,207.2891996470453,177.3002781926252,172.22313280148956
368,202.0805973280896,-21.743141805906113,207.86343493226252,179.3779307829773,169.69844528247097
369,202.40713103915425,-21.477687882880247,207.69776370740095,178.98465735470924,167.38398978510867
370,206.1687183650329,-20.85910330898419,204.2238187826103,178.31100414186406,167.03392015418294
371,208.6098680421403,-20.895370851580616,204.28468094881407,180.31387765332576,164.66561009128546
372,207.81556810201914,-20.943966654383445,200.3916304952701,181.8506620243045,164.4526564579542
373,209.07495183594693,-20.687823248444516,196.87503734963877,184.7205003402968,163.7917269995064
374,208.6655390606337,-20.873387515695896,196.7063733574865,188.17725231457112,161.89290247384085
375,208.01717466005147,-21.217986127848004,198.25151117494312,188.13204303109487,165.7318302609695
376,205.5750142938641,-21.09324172509487,198.4015907460351,188.4449870933529,163.58323662420162
377,204.86290540440078,-20.706022684848016,197.90864945174133,189.1613183092367,163.2603121404119
378,204.99957665191684,-21.194670939524386,197.2697155601516,188.16108851953118,163.31881633726417
379,205.73019740394184,-20.939538262779077,197.32486956933187,189.09669938328224,161.05432486260435
380,205.84018458098953,-20.78662075138389,194.63754775619708,189.4049560873145,158.1073106542894
381,206.07498053615032,-20.898657811141288,194.60492605524325,191.64730074561857,158.5707970707604
382,205.86559189116386,-21.15426676817354,193.86796980688126,191.14780723699153,159.05377124148782
383,205.90839423037363,-21.290749751124427,193.61891032815467,191.64486821693282,159.17160413147496
384,206.4296451404439,-20.558273685894793,193.28842689671316,189.1926261832939,159.297518491937
385,205.79384373223448,-20.28725162016392,193.80819828994575,188.91767573947854,163.03757310371603
386,206.56745534525245,-20.20407157421292,194.18124012700918,188.90521889490984,160.47809845542747
387,204.8511917719456,-20.324765208600798,193.4078367587937,189.13463517220788,160.59972626481118
388,205.3109807469287,-20.004367919006206,193.09862568062286,190.73282008401412,160.95360759829643
389,204.75637532554398,-19.77156663177747,192.87919916821903,191.25661470203687,158.7280461049142
390,204.23723596308014,-20.01031837050541,191.9669578628244,189.6997947413487,158.35534128402466
391,203.88351037044217,-20.50467666180629,188.82044856801832,189.0729289062441,158.3847936515724
392,202.94825188455275,-20.071783781971384,188.9553163897328,188.84128483332438,155.80995178761071
393,200.8777949105758,-20.086325924028717,189.00896934308145,189.26837019130141,156.11718754197688
394,200.24923640617948,-19.920578497615082,188.8272100639207,190.06300057651865,156.19472038939048
395,205.82999214472198,-19.885353840776396,186.56118961141922,190.46139134077862,156.39346678192075
396,205.4290395635376,-20.199464738274546,186.9397505597826,194.03108568855794,156.0840681056677
397,204.69853453626803,-20.611880316078274,186.34545144781873,194.39130088237795,155.63786443411095
398,201.92534242491809,-20.07420428019161,186.1168024674524,194.1004408012507,155.41789256924727
399,201.2701566819333,-20.24078953192152,186.08722964952912,194.57700775343062,156.9840942177877
400,201.62797034926535,-20.548934685756926,186.26979189441758,195.6450407976425,156.85099352904814
401,199.67220570773588,-20.53111329574746,185.85466521648158,195.6287953195533,157.3220092856044
402,199.13272599061548,-20.471887629275958,185.56582285546375,195.5731358893412,156.45236917472346
403,197.05820828028283,-20.436350601059065,183.3556727803535,195.7543082576129,153.32091275056533
404,197.05309489045823,-20.627389568751756,183.60239548978063,196.23244026694599,153.14257447966693
405,197.44345377799772,-19.909993471834817,183.4552369066897,198.09786908194755,154.0372601789099
406,194.14045112384602,-19.575602998645458,183.93303942339907,199.19041708829147,151.4736639816115
407,194.63712142769208,-18.857601324544124,181.0841463247864,199.80130688197664,151.52057019736182
408,192.27321197008902,-18.26649005183667,177.2245836416023,199.68819194817362,154.4289092568767
409,192.40971342283723,-17.448392042407512,174.5698828861016,199.47371326936047,154.4333142095775
410,190.1584148260541,-17.328191409975126,174.23821190922436,199.10215137843832,153.81812238179955
411,186.32948644396558,-17.627715403162163,171.5220533616142,198.86917708124867,153.660942694538
412,183.08880671760437,-17.77704744590914,173.31640152658417,197.61974911428882,153.45101430714715
413,179.36675662929517,-17.765055133969486,173.2708094240957,197.59527944914694,153.35963291986585
414,177.22248682328365,-18.230023325930425,173.26721243513126,196.96322850037765,150.58812862778274
415,175.78708117827344,-18.168370903543643,173.03001755934744,199.87114187915347,150.3018407193935
416,177.55462673592737,-17.88115916613447,176.29643787215824,199.89015869016305,149.84721362853548
417,174.40169570881176,-17.695832943803065,175.9279665233292,200.5220716558479,152.00250340467875
418,174.85819869937998,-17.820212558778202,173.93399893326477,201.24065994631033,154.3547932261078
419,173.71431948057077,-17.546195919704083,173.59802358904528,201.78397679044718,154.2716828613331
420,173.6177902098025,-17.737579703458255,174.72491891768547,202.39639716925532,154.4716571786079
421,170.95918217425276,-17.810953741572124,175.0490921367571,203.09043178261348,156.70722200343494
422,171.20082304809577,-18.048516797727867,174.54775102575306,203.3451269194401,156.3850424256309
423,168.04050331646783,-18.311426855715553,174.12484049727473,206.42314277863954,158.58733159321469
424,168.27626766806773,-17.815958377788153,173.8335053330132,206.76791518661852,160.85313065722917
425,167.8051022345,-17.80513952150129,170.6686517891447,206.3394936005935,161.2769460071605
426,168.23903581756423,-17.583483556040093,170.86907963796716,202.1158862842778,163.65590918929703
427,167.143217593354,-17.643748073208542,167.7660205796372,202.31451210226155,164.05861663810757
428,168.63274789703394,-17.240622811788043,167.75211435153795,204.91693816521766,166.61730724634782
429,168.04687137712062,-16.9348783679507,164.97200293344724,206.31169189923494,166.8961907202856
430,172.38962384134436,-16.719286130766285,164.88933760562523,206.3512161776534,169.11041483672153
431,167.45400157137976,-16.322090220892058,164.92589668987893,208.80282164237374,168.74564324319428
432,165.0944573717053,-16.114478274475957,165.3731146644452,209.78311474158056,168.013997096992
433,163.32763779579892,-15.530344602887629,165.27271029295036,209.64552043934356,168.23205476513496
434,163.17268417706504,-15.487556599799616,165.11428867591366,209.49678830250534,168.10339331161902
435,163.0852184065238,-15.004309910983823,165.38792348622104,207.19250881270335,170.8531659212675
436,162.76460855805965,-12.469164366398486,164.9494183185525,207.02738082384167,168.31446657327066
437,162.5960649012076,-11.97228529313507,165.00258954837736,207.11798802427188,168.42339450447264
438,165.4603076217424,-12.02137814777117,165.12756533557976,210.74323309216135,170.9600319615947
439,164.87159047137075,-12.015890894421052,164.8995133032751,211.93295157004766,171.1716521172318
440,165.2970963389775,-12.572350398808236,165.35265772038804,212.17075683434086,171.6833785163826
441,166.29928486654302,-10.703735426234035,166.2006111275515,212.26881071653736,171.67414400130446
442,166.758541753411,-8.841064819545577,165.55406488693254,212.6633978585935,170.4639109421435
443,167.4567295011093,-9.104692457110668,165.1786497705941,212.9323149899159,170.99749976412045
444,167.60051809249632,-7.5679128419487816,165.00154885948555,213.70767361580883,170.97938447219494
445,168.43888684102197,-7.7273919711510155,164.7654134208096,215.29601969907696,173.39959146973763
446,167.6398313878552,-8.176718823938439,165.38394269800597,214.77540665339868,173.1146266877251
447,168.17157447913112,-7.202912312452006,165.81229527590187,214.92677885429774,175.39009281562926
448,167.82958284033356,-4.763604521429404,166.7309282312667,214.9310148120845,175.52191324622999
449,166.77003778627721,-2.574138809741177,167.30820333880473,215.26597011609513,175.27481271033014
450,169.50370066021208,-2.345032934603841,167.50275790070043,215.2057607511397,175.73802909644536
451,175.29928012513747,-2.217252434586152,167.44277808749965,216.321321441044,175.25190162021613
452,174.15193938846983,-1.4503352270691507,167.55865199514253,216.94726715593973,175.2277191205254
453,173.51215718236136,0.4861172270770545,164.38372297011213,217.13361256192837,175.24773499378134
454,173.33142223498243,1.3665733122574197,164.02778429762486,217.15348973889493,175.08618968641852
455,173.20845594689564,1.219299264112474,163.96378130352744,217.83363085311498,174.62527953623754
456,173.53042929427687,2.825726503908641,164.04206912939466,220.34654506011736,174.4041505048044
457,173.07459951388023,4.568270414888325,164.07407091417227,222.85760696127272,177.0556779522045
458,174.58142018256945,5.5991009058012216,166.8843116501988,223.06928000183999,176.76345652541286
459,173.83964451342376,7.899718784375864,167.3349791169088,225.85389829950608,176.6001637518533
460,173.9772187635359,10.554912113493103,166.97384937720938,225.905486154472,176.65394276582575
461,173.26649660536094,10.62514726985305,167.3675346597381,229.20551470316556,178.8591393260923
462,172.28837541310423,10.458490909621394,170.00091768984012,225.3809919367134,178.8459548410562
463,174.25324455832418,12.983915171912283,169.98671480603662,228.41320618919121,178.87555699927384
464,174.1787315247899,12.679760147526933,172.27167632411343,228.26092601042208,179.00995121443165
465,174.31304104418567,13.003552851938965,172.75730133896525,228.36757726148733,173.2903812602152
466,174.83231973817902,14.614887312295846,170.06496742764503,228.20445880827015,176.5171917591773
467,174.8846808953893,16.89241740145124,170.16035142664091,227.92775208606304,176.51028616205
468,174.4543184743294,19.67812940441299,170.09110378778067,228.52137807264629,176.02780461803434
469,174.75745998290014,20.370181398747526,170.3442802729168,228.7967154058086,179.11059105428112
470,173.57713922874262,20.361177183085726,173.82425663965242,232.28242665445444,178.9526419651089
471,173.05781521039344,23.111546961220437,174.13727993585272,231.87042150453908,181.6649908396773
472,173.78931505312332,25.54551451898742,177.85514858856328,232.08015128232438,181.97269459833961
473,173.72901735253666,25.212069426021117,181.72016614226715,232.5754311835922,184.1407689933334
474,174.4179920824399,26.55394163667187,181.93585915309592,231.75534550320754,186.74665864719975
475,174.27952821034785,26.753389400199765,181.95126714291368,234.69663717102466,186.61214579895386
476,176.01306501136034,29.023721148840806,181.9648052326978,233.50073156505655,189.07919400852873
477,173.11087052346792,29.072931622685296,181.96648026899314,233.45817768245956,186.52578966616727
478,172.79530450709115,29.581007426237264,182.51621868233215,234.47677156656454,186.26402070793236
479,173.34352793120627,32.19994222681535,182.63550179786438,234.37090209433055,188.58905160873763
480,173.26345203757893,32.213346999187486,186.59482715853838,234.52524668061756,191.57290960461495
481,172.83550880747188,32.815181233242406,186.70391529367447,235.56452717077974,191.7518596123411
482,172.57651122992874,34.869236645431684,187.13481929183777,236.44664436398043,191.5799312024875
483,173.1334323930433,36.33932773587418,187.57300574745204,233.88691353997015,191.7575696359957
484,173.3129524633888,37.955360390041534,188.0392983797478,236.38814581762662,191.97671550995972
485,171.5227810378087,40.32734939190203,187.87539482731106,236.43391279526597,191.94724468663145
486,170.33029905797682,42.61581319808783,187.96213342170293,237.12489111627465,194.43519631657807
487,171.04840637559425,42.51123959021762,188.67802610551374,237.2971809651155,194.28011163734473
488,171.07760718430657,43.894128284781,189.0851864976504,237.03699655664835,194.28075385676138
489,171.54689938061213,43.950678835479955,188.65552961732214,237.09910918776689,197.5116685483641
490,172.59415730895373,45.97488765109091,189.2567057886755,239.42952975991153,197.34841998676828
491,172.79549170166692,48.398891050717815,192.78357155429222,240.61754538363363,197.52497828036263
492,172.9831230173056,49.59920729435999,192.37282313592758,241.41726674191818,200.25323149518255
493,175.20911180882678,49.76521531275607,192.9502138414043,241.55200159728298,200.21456828915672
494,175.3027089891035,51.72531056221438,193.26290194561568,238.8625180909213,197.95340122298924
495,175.498530149908,52.63412567497794,195.2524779528407,239.26607578425353,197.55436688715886
496,175.84125081589693,54.77542898015534,194.9513926118736,238.9542303241904,192.26492843695152
497,176.31602918211058,56.22129538960728,195.44577020483416,239.35489367723625,192.5023377578469
498,179.37130232090433,56.65715420642921,195.66022686666184,239.749129388201,193.47665359315718
499,180.4031291694417,58.69368197282363,195.64504144897936,239.06616599671443,193.8125993186741
500,180.32112822847634,60.074781752408526,195.5853712530542,239.10138546397377,193.8561159749045
501,181.82749880861536,61.66850732133952,196.10983306332008,238.708171529577,193.32766184202188
502,182.96284571032515,61.599687465678464,196.4539712791397,238.60278789360237,189.03816086802246
503,185.26782620705052,64.4162054117926,198.7466762817599,238.9088454213434,191.97937139660283
504,184.89013468183657,66.11215106735735,198.25361113136006,239.17933204940414,191.8804691893184
505,184.02195884288835,68.52957614823339,198.41927116240774,239.10627917371335,191.65968467866566
506,187.94179975847175,68.41119035596496,195.53939737284705,238.6412760813628,191.3963207457019
507,187.28774769365333,68.58672452735006,198.26613403530462,238.70210731694155,191.26058750650907
508,188.03487487038535,68.30866179164119,202.04990527589027,238.88388654376664,191.5428881336042
509,187.6628796433283,69.10432568472845,204.85127385013814,238.82340853688808,191.594771636105
510,189.6944453137826,70.56735205169149,205.2428441319788,239.66521682531112,187.2395033614286
511,192.92467189827866,72.02345647822185,207.91193842011424,239.85729130807707,187.12956994206164
512,196.0778235946242,74.59188271008522,208.06188840007178,241.31832386808162,187.33887921108322
513,199.04083026442385,76.49228891353228,208.38104332529576,241.38309594604254,187.60965388537628
514,200.9183347809497,79.64579373513004,208.22847930006404,241.85658412224103,190.0048648077035
515,201.0430250680477,82.40337052557288,208.51927258440656,241.42194201080173,189.99598520034607
516,200.97375445461984,83.23831330077142,208.6844405769377,241.88736632191507,190.03673573466116
517,203.22496569225513,84.29289689171752,208.69015378823397,241.88483582758244,190.7958579734478
518,202.62882085808883,85.7296636162901,210.78967697638276,241.65146106719487,188.4354634571438
519,201.84517504158455,88.27125427429768,211.62688904167487,241.5578346410538,188.8439422744207
520,199.7523910255444,91.00100179279617,211.70841735592484,241.44772701944083,188.34775707587937
521,200.49601076725818,90.36549099998987,211.65322630301998,239.3951316087856,188.13054807190582
522,199.0168742573822,92.878806542223,212.19590347193505,239.40375848456134,188.4119887274034
523,201.63557758841577,93.78471598731598,212.94491858948564,241.61597663521488,188.840768541129
524,201.50207100773153,95.18703646697426,212.72809852440324,241.68813926364103,189.11387330085847
525,201.7687544332678,97.8616204376563,215.75122462256175,242.33555328775094,188.7473139849896
526,200.22716389232647,99.68294031545635,215.76162822327157,246.66453964531857,189.31624229543223
527,200.82409508222594,100.86454815722887,218.94694207859462,247.04664490774906,189.43407054375098
528,200.6341321685459,102.9690524112913,219.10976583691703,247.1841348664814,190.1519891103227
529,200.81361336787631,105.43203118633595,222.52488272981714,246.8236663540495,190.2415650718462
530,201.90404253582744,107.83690167187929,222.7738377861848,247.28092133654638,190.20435256078053
531,206.0201226545278,109.32059683422263,222.97483745682246,245.0783293191688,190.37351426713226
532,206.3817025934086,110.21012527731142,222.86349267498974,244.62379711235997,190.48306921110765
533,208.45606141018726,109.1427905124442,223.11543883410755,244.8558366455365,190.892883034755
534,208.29677974770482,110.72077108399002,223.49918636408174,245.54931005276393,191.31194751920486
535,208.44604910685294,112.14001646584592,223.42989338686704,248.08403538468573,191.57112286773702
536,208.3958272773194,111.7633235628417,224.34500482213767,248.60204716585642,194.40442476508474
537,208.6576419380337,114.1831497420783,224.43411058641846,248.77319169611926,194.6532135746056
538,208.58901684468424,116.22159611253772,224.79828281567237,247.41074624208522,194.66168626294623
539,209.3134653343016,118.7802022289295,225.3787968190284,247.1275257471965,194.3457606061419
540,209.07445372477642,115.0149159122612,224.9596001054868,247.3048257249928,193.8906321971045
541,208.20522449431073,115.2239761975989,224.3034970582122,247.34687846814205,194.18569988904244
542,207.63658349739504,115.80463995448012,224.91696527026613,246.9939232101399,195.42379264386693
543,207.97972472557765,118.49107956843284,225.53270920387777,244.6410662976279,192.5459557162701
544,207.78268560311324,117.09069976949999,226.05654732787255,244.8847904682073,192.8517261453986
545,206.72576163678258,116.88293673830522,225.95347064212925,244.9583335692764,192.747657407065
546,206.94779780624867,119.34537470529534,225.820529896091,245.4539362869425,193.22978587723958
547,206.54381293931957,118.13740815948847,225.61862327440096,245.7379865085537,193.8577573326039
548,206.56310347021582,118.349677496373,225.6045248808177,243.3738588811027,188.7026348055641
549,208.0088190236291,118.58471388518221,225.48133437902018,243.5466824735499,190.95339585631163
550,207.62410730338925,121.37697220657077,225.94140912826697,243.82079069123202,190.77867509529548
551,207.65560447740575,124.2328184844714,225.62783782348885,243.58695986374826,191.49771781293606
552,208.447924097313,126.22774016114582,225.37528371913,240.73080685383644,192.08665328259957
553,208.99593288177982,125.96808803986507,228.3408422487297,241.00800554538952,191.8449484753232
554,209.68989982861353,124.45352792488082,228.6998343746942,241.24817516026272,192.2521338191265
555,210.48509618504133,127.14257248466981,228.88388925356287,241.71850501073175,192.71691635514748
556,209.92665844940083,127.37127530430871,229.119540787946,241.8754002523999,187.46431203157042
557,209.98808224647502,128.24398028642517,229.15068111904145,241.80530314485546,187.73362198317383
558,209.2836888564649,127.11542917643179,229.29801074012747,242.06866526924813,187.95480868473686
559,205.51643098680455,127.38107474188939,229.04907419948384,242.01032894244042,188.04322829639625
560,204.74770690393646,127.31906916189114,229.66289528443943,242.02307324200228,188.01818659934128
561,204.9033364193891,127.03932500092195,230.33091157993707,241.75470478583674,187.69704764411435
562,205.16598438489314,129.55092702063354,230.46632349928208,246.15477548458782,190.11767327140177
563,202.96672282082483,130.28955366048507,230.80048699774017,246.16941457258153,190.23328685222145
564,203.01499053972933,132.99363201312772,231.30108782661227,245.5411496865974,190.39969153579682
565,202.0436497782534,134.87872465468345,229.3672292277267,245.7343137975677,196.10030736060344
566,200.90881196927776,135.74414231716693,232.13739068799515,245.6022340830863,196.4861514031637
567,198.8427355016363,135.6648579679852,230.86547575017588,245.8982169584076,196.7397285153769
568,198.81657940903028,134.00447970259518,231.132735236406,246.1318704452458,199.84249064825408
569,199.14663589400436,132.70724921952058,232.02457983276324,246.20130991702948,199.63251458579126
570,199.1959596693306,131.7086994265092,231.84095193944322,246.20944755824118,200.44070626597838
571,199.51158836603952,131.54237409964688,232.17703594732987,247.10453468380587,200.7153324480859
572,199.28296606362304,131.61127468814965,232.34424707785035,246.97456057327634,200.48571163300704
573,198.37318824301823,134.0633313609642,232.12847889220288,244.24075459307252,200.93007425469438
574,197.9326642254716,135.10336126325825,231.79624559213943,245.10967915384413,200.44211951291257
575,198.52561146766385,137.53653907318647,231.69568195672568,245.4453136145602,200.4882140601223
576,198.9573230404536,138.5189699749105,231.6087047401774,246.07899340893604,200.69136161991028
577,202.57409378483786,141.0177476784503,232.09694285560033,244.35206985258782,203.95294392046685
578,202.44881703806823,143.62774443194309,232.16946331311522,244.3058217343615,204.02191477854973
579,202.43272486104718,140.89173366108344,232.01667217827898,242.16239941784153,204.11546087614926
580,203.30274066540053,143.64763433687978,231.89752762681118,239.31910458265367,203.4485246338414
581,204.28739294050945,142.9109645644784,231.49461124212385,239.45130853200982,203.06681198927163
582,205.26093877303708,144.3832339093163,231.6081951839292,239.2431213360136,202.98225385755816
583,204.5087263057211,146.01294020203187,231.60659052499267,242.19022172343605,203.20427290657747
584,204.36389592081326,145.7876945742365,231.5359937405866,242.22101992106764,203.32459918530952
585,206.85593229662084,143.5080189989091,231.413931129967,242.38779868275174,203.72887204329334
586,207.96333069122738,144.46282928232307,230.97116564602857,239.70306268022506,204.35515766779045
587,209.51576842831193,143.97575829175472,230.3980580498019,239.27215166312956,204.76725395032125
588,209.8036768980755,145.10861385180593,230.24894021171497,237.471427771983,204.7601558879392
589,210.41861231593504,147.82234556609825,230.55997093559213,237.8925754884868,204.7458940530356
590,210.0403969574696,148.36998925636055,230.42781556333333,237.82338562479487,205.6557036782906
591,210.45227019891635,148.74034104019339,230.5772951944286,237.2718365596836,205.3213807796276
592,210.87675740517997,148.89170367936995,231.21229995984555,237.0720932052443,205.5877275182911
593,211.03809846202884,148.90749622155124,230.7149874696409,237.68006227545084,205.85487888994382
594,212.10528878927363,148.3793462357956,230.57404944093025,235.60365863254086,207.61548781246736
595,212.14646481947722,149.67715056715554,230.8105932813195,235.67597734885317,208.31520713614603
596,212.38290641745877,150.81792674377417,231.30854743281486,235.83813431213247,209.09981809639328
597,212.75425373553193,149.50274419952734,231.28238958308808,235.53189858819664,209.24588925851566
598,211.97899612539354,151.41030898153514,230.77792441267115,235.07692415105453,209.36560475197362
599,211.57260548151535,151.6610641265423,231.0731515770671,235.52836456008637,209.57621084733898
600,211.66803788223461,150.57705738132856,231.65601651680547,234.4306595072086,209.70739377437133
601,212.16500318810805,151.0687181595393,231.35308279336343,234.88371335919715,208.55753782926647
602,212.07800950154092,152.57553242015476,231.63209394531307,235.25354519956738,213.95932230051704
603,211.846789581365,152.50072346297335,228.50692932548452,235.4171297655707,213.8886502011813
604,211.71678078322012,153.52613338215994,229.36192987268998,235.5053768481201,214.11646646291558
605,212.02618719346862,153.32882483305076,229.09200313654256,235.2787930782766,214.194910997585
606,211.59015362529186,153.29697003557706,231.57230128841002,235.4689913917387,217.628451625217
607,211.60687622607875,155.42942127157218,231.86473125318182,235.09699831296754,217.9659824046954
608,213.3377383877552,158.6714253658236,232.28686583760225,233.1895207360528,217.93393486788145
609,214.02469571124692,159.26913103091,232.8708157323079,233.04640820660717,217.9891946462914
610,213.0752186057607,160.40580445190682,232.6251295408636,232.99578498012139,222.72520702397756
611,213.57353344752053,161.2128697062256,232.43755301616147,232.76793406644782,222.20588158018373
612,214.01189429576988,161.1599912279495,232.60153795993108,232.86323132833581,222.09015856950984
613,214.07479656904485,161.53828078703873,232.13073747042586,233.44398144816662,221.80093317272613
614,214.41060168444477,160.7702123496583,232.32060284041697,233.32736167702248,222.07871279448418
615,215.0044462506524,161.3127562278362,232.56322106576735,233.51086001455718,222.3181325027594
616,215.3183886856055,162.60996417523094,232.28761281005583,232.83526061363656,222.99866526785874
617,215.67884889320095,161.7329255840342,232.49102130397662,232.2590619330938,223.41252115914966
618,215.19520476794673,159.8442279923558,232.40623124376515,232.331749365068,225.7553210403343
619,217.09696613323047,158.69207687340557,231.70651954080978,229.72705400346777,225.91810410957132
620,220.1071258933182,158.39437535996598,231.59307487972143,230.16089562314764,226.36907574217673
621,221.67296372866542,161.9151679985561,231.3545049390507,232.06283687664944,226.75813377450416
622,222.77545649500388,161.519497374953,231.0439564890302,232.095296232428,226.57067753917633
623,222.93486947292257,160.8387364478194,231.10927501695204,231.62019364175364,226.62919565095072
624,222.8159150851613,160.63997868202355,231.5824433371563,231.624614629057,226.67510352123017
625,222.89912231861928,158.75733726765978,231.73873437323454,232.01197660355544,227.377862549112
626,223.18293777750918,155.06995857104698,231.57692247094644,231.82171580494546,227.79608691019638
627,224.0878855409379,153.55755950972934,230.13395006254018,231.60891146008203,228.101312766583
628,224.06909651519567,153.83870154731295,227.82032785744715,231.4691031412727,227.4819765883427
629,224.16110619313085,153.80638374855332,227.39741102691158,231.7996977857161,227.74784875270066
630,223.82181381283806,153.91451202141604,227.62255721870915,232.14894579879092,227.4042271803424
631,224.87117820545814,154.82726430590208,227.6473984490784,234.13587791481237,227.19787571473466
632,226.65430018883882,155.71604552006067,227.54095032269043,234.35848750862218,227.068423337393
633,226.77379589249765,156.78776297677467,227.64133434405957,233.99014582719352,226.82558261085376
634,226.79714840393976,157.74912954988926,227.6963794655117,233.57936018718,226.7553683889211
635,226.91776918736832,158.14258354168012,227.58596724678284,233.6893871721898,226.7175863767972
636,224.3293341998776,158.550842214207,227.48113034902588,233.56982849953982,226.97175267445164
637,224.4740602016774,153.40695379559867,227.61312613363535,233.50620502184623,227.18147941771804
638,224.4823271221541,154.25889238864397,227.63393997077105,234.32892085067968,227.27343929380396
639,224.99396131662033,151.85107860196922,227.2201042010982,233.9691639628593,227.88118033962982
640,225.649175859605,156.10757945494709,227.9502461779133,233.8019898959922,228.1183170634932
641,226.44492081911886,156.96900495240322,228.16423937453092,233.8401499146825,228.31336257945412
642,226.62204736913904,154.53835355487467,228.0233294916503,233.71120893172107,228.41969478709768
643,223.83606167455505,150.52632446867992,227.87368295149224,236.0770792020034,231.60053795627485
644,224.69395139661768,153.25453145524148,227.8979137507969,235.85542423063504,231.839871741217
645,225.3567012112753,156.12595867972723,225.4019307886864,235.93269624048128,232.65172456604068
646,226.36097489027964,154.0989763018528,224.77058973394037,235.92496028675174,232.5943207468915
647,227.05977169741263,157.13406213683754,224.55469252065498,235.4364469139924,232.31093370499448
648,227.1503939475874,156.7319459354345,220.86038604727932,239.38123482318733,237.66373492871193
649,227.24029627206505,153.68318310738292,221.13626178610536,239.2255933412108,237.45750825160886
650,227.34686643772133,149.90556792781825,220.6527516994435,238.92221431591247,237.654734511062
651,226.2922616516485,149.67373051290485,220.6820722408282,238.90578393617076,240.72946873490494
652,226.8559907486202,146.83489439140496,220.8584521135495,241.39014075244154,240.25307854621863
653,227.65117681517816,148.1406887245942,221.27179465071825,238.1615742271586,240.71312062063666
654,226.98698596916395,150.8804092614883,221.13204587273881,238.15351244661463,242.8758009715583
655,226.2889307526705,151.59271718546282,221.1177842337699,238.1488463862836,242.97651380116704
656,227.28919586257928,152.44157184109343,221.67756182653116,237.59151707386107,248.54229607006332
657,228.30603393427893,152.88830259976655,221.96858079250669,237.70201704795315,247.96445776851868
658,228.46912198312583,152.10769664308043,222.2858621434725,237.95431276545122,248.08033361145365
659,232.5752733001301,152.27634864330597,222.75266645002594,237.86744868627542,247.7492137179136
660,233.09165971976887,152.21002087591623,222.10219012386267,237.39135835959533,247.84873225611295
661,234.0855763238522,152.27091114814016,221.9051477026095,237.18113431100267,248.54991741631235
662,234.7384835719874,149.22003257103697,221.6733177382256,237.0385036831286,248.66476500437668
663,237.65476915189578,148.5953623412541,221.9229599064075,236.63313257395606,249.11322897085637
664,238.0560836520621,148.98379944316778,222.13335253350016,236.9637988026921,248.65584584192237
665,238.68807444300518,149.38041709182912,224.56784332302414,236.9011954251552,248.56870610918915
666,239.9629120522452,149.37595931798546,224.65114794711621,236.82479216306382,248.51358805243024
667,242.4877073513319,149.7801029502075,226.45240169678135,236.89477896418654,248.28726228869309
668,242.8356021577618,148.3664692045939,225.96437446711295,236.5765097487387,248.02880711915697
669,239.74927645730315,150.91376910833515,225.47777444862794,236.9446858057897,248.3459297652513
670,240.71426348525503,154.23754636814942,225.71655931794015,236.63229380099668,248.1765020719753
671,241.26503859011015,154.1562263503087,225.50966935319013,236.00981949365192,248.11472290206214
672,242.18823950494186,153.77575292691733,225.85106606814497,235.95479219388227,248.38604559062864
673,242.63656959272967,153.19494904270002,226.09765840260926,238.54444104903143,248.2172316027976
674,243.12254215426037,153.54240792966147,227.00380975902374,238.1920487503937,248.81889193238013
675,243.22745452453975,150.74044387824483,227.03332450899012,237.88218565149532,248.93486908776194
676,243.47495241434044,150.37590458781386,226.94893395477925,238.1303162039881,247.55060135765947
677,243.4789625930489,149.49389149168314,226.87550817991695,240.22406639476503,247.47052862659768
678,243.97337306703153,149.05705932171432,227.08088259750772,240.08524934721243,247.57358275039877
679,244.3989547181085,152.0671062182044,227.19574217921442,242.5396386575732,247.4601354378665
680,244.1549129406346,148.07007869608745,224.7684826832263,246.0801249683813,248.38977901427006
681,243.9255318106754,150.6847719134479,225.0817228552477,245.13190584971116,248.26855700778168
682,243.48649731089932,149.90613122805814,222.00615245205196,245.15920478306595,247.15690451325753
683,243.9976141352529,149.41069312555558,218.67013405128654,245.00803955781467,246.75132155875988
684,244.38634430549936,150.25276508368125,218.51563613269107,244.87235366566,246.75734257500878
685,244.43100259844985,153.2778236827685,218.94645389292683,245.1422011108817,246.68475469665526
686,244.46785745580942,153.36147728634697,218.8434977391853,244.6415016469279,246.8935507394442
687,244.60572254591014,153.85112536722323,219.1197560553312,244.63788312140693,246.59642107255175
688,244.64426308304917,153.44960215075307,219.32173130242145,247.01640052632877,247.01424602554806
689,244.78100258162652,153.05414658573943,219.27239167255664,246.7199435737404,244.64494489783033
690,245.29851772859786,152.6469569606212,219.5792345037172,246.6653589449475,244.23695912561692
691,245.16495606119142,152.76700175547955,219.36540273683514,245.9867453235454,244.1482515462337
692,245.28156879185238,154.13515095603745,219.3021396503202,246.11766140153082,244.16765958698954
693,245.6496601540524,156.26256537797926,219.86904114154137,242.83841317354208,244.1189883112109
694,245.3850499140691,157.5471266711913,220.0506373220361,247.91787677663658,244.93701285677716
695,245.62848767339474,157.76246804088294,220.36343933226868,247.83993838933367,244.92006298826166
696,245.53300976153244,157.13221414743393,220.51422704234818,247.6891070195499,249.75117787260794
697,245.8574751515158,159.49569675386448,220.83419981042292,247.33206686275165,250.31072282145874
698,246.6554852181511,159.27150198890325,221.26943220477486,247.98097165417767,250.09569986120698
699,246.5509333716299,159.3888486413871,221.44122472621987,248.06646961096115,250.30263375337267
700,246.70096386988814,161.61061712170172,221.06428674105922,249.02908288662667,250.68398509128903
701,245.70043471207296,161.91528896967887,221.7216261867922,248.52319395590027,252.3946857253706
702,245.68942407216622,162.9843303264852,218.4192756947311,248.44613750470864,252.06656949082
703,246.56920575133975,162.65680398146523,221.42334043097236,247.97350925490346,251.9588764598342
704,247.5785170975965,163.31864834299907,218.39553384571215,246.96694529934214,251.61703773631677
705,248.34893572053883,163.3690865724403,218.74143968469184,247.40158185061998,251.40298206349195
706,248.5587346516857,165.199541962018,218.7373344120964,246.98627626378595,250.7982178635749
707,249.1642923313465,165.22853607732793,218.75850271469437,247.24869592504717,250.47310419031055
708,249.38407583701516,165.1652704474868,218.32111509328982,246.6832722992998,250.63296675536444
709,249.46752224387208,165.92807061921488,217.97300233342565,246.97029599311605,250.64850202833532
710,250.60654130409105,165.37604967337577,215.41996961776545,247.18172112122738,250.65173360254158
711,250.82207587839065,165.85704650967529,215.08803605446982,247.07498727222807,251.25453885748604
712,250.76495943026472,165.66958981478703,215.0550428838508,247.38343932319535,251.5838721801956
713,251.47012665953338,163.7264909200675,215.16274430810645,247.11347165079872,252.138119228873
714,252.08480036728383,164.01722039633097,215.02939359408822,246.9902007867951,252.17953447748587
715,252.47646963091137,163.50894643146256,214.8363916631235,247.20363152173005,252.1889817615956
716,252.86437303740385,163.87668611124872,214.2831119099713,247.5111713727444,252.1990702166607
717,253.17660675690394,166.33027071971654,214.27518863918314,248.037054387806,251.88649570012495
718,254.73919721949304,169.46687052649634,214.47355773781362,248.0615296729741,252.42542119073278
719,255.26972108569655,170.50684515495294,212.7190174607523,251.16524032660544,252.42219825389554
720,254.90126917273662,170.4494700966186,213.03613299793182,250.7283127896881,252.67883245923903
721,255.23991494918707,169.72187948744215,213.09685523756153,250.4563753304993,252.51681427137962
722,255.8221214116825,167.09536026612386,213.12784736512432,250.16618846184406,252.4055667395648
723,256.19040972035,169.7265702963453,213.1432211199789,250.1033679697286,252.25488556447675
724,256.5606381639464,171.52928155671958,213.06559318613014,250.40616459460603,252.51691965274895
725,256.7731016868367,173.17350728454795,212.93771614760473,250.51196760533384,252.05296973037878
726,258.15534861228355,174.6387136631895,210.714453245929,250.3584178023631,252.041853406217
727,258.0224013535462,177.38407565584447,212.4885037371925,250.09710068120341,251.6805215325033
728,258.1126597023143,176.97904506964235,214.72539800864422,249.88107636983318,252.25917978456096
729,258.52790796719614,176.8299787774249,214.93480617696486,249.93762385433598,251.86455675367984
730,259.4177764621213,176.44028473123174,215.06519826979832,249.66140237177967,252.30672799657432
731,258.99137420575886,176.76779795163856,215.23393910269377,249.7549482085077,252.49279748029375
732,259.55495771083145,177.1285862025544,215.71484373075367,249.464531398893,253.00296234192868
733,259.3406454918329,176.28131750208047,215.78849395615106,249.82315066605497,253.35640655242514
734,259.6402066736118,176.36044521639684,215.70168214242523,250.3729487757959,253.4521111178623
735,259.21602837676744,176.5437221687216,215.4716947140686,249.854935048753,253.4832575332795
736,262.68836957684437,176.57660594606244,213.04688083518525,250.01352191631537,253.3634647545595
737,262.406401442737,181.4905166302615,212.9515913220436,249.38328783934412,253.03748183952968
738,262.9703339293919,180.95389641974336,213.01799329064605,249.7682820846522,253.26207836234013
739,262.5944292973353,183.2949228239906,213.47713779588233,247.3266751231291,253.39110973177182
740,262.5326358691414,185.62413560923164,213.09661088940732,242.3279261454624,253.02496888543942
741,262.4905003587162,185.71008731281955,213.40367232593687,241.96689219015502,252.84805331051973
742,262.55974433073413,188.25248203627788,211.21003422950673,242.01777023322518,253.21533427477414
743,264.99015981878233,191.98113379429967,211.38386526197576,241.99716646593592,252.93892216797138
744,264.88767878737605,191.8377787379667,211.10023950368927,242.13141326916545,252.61483969222056
745,264.8898159254506,192.3493709465861,213.12961829691406,241.74074910055268,252.10820025366726
746,264.47528736003113,195.06577944191787,213.71357530881454,241.5257581347969,252.5676320233953
747,264.07561152543,195.11813055927124,208.74436723146732,241.45840559130934,252.30159849568628
748,264.2548086762831,196.00487342281863,212.43264481489916,241.39844807859473,252.25594903262947
749,263.97261167173747,199.17076991668182,212.66247417044812,241.46851890146468,252.62489743222505
750,264.08662447589415,202.88514838714772,212.7784703184147,241.34368324450753,252.8340553423898
751,264.95720616722934,201.83247915180905,213.0508189042605,241.3398342990028,252.55744542549434
752,264.36368962730154,204.80846236043334,213.25058638707776,241.18629830977406,252.62845958068937
753,264.31118450145823,204.3006314045488,212.38650508674567,244.4307917071488,252.6197012170021
754,264.5513045348226,204.52702710188086,212.85627426063053,244.3171115793826,252.80531689739823
755,265.40345564065296,204.42700623146615,212.88527109814655,244.52722686076075,252.99746033497212
756,264.69729747361345,203.88855871273935,212.49132880554473,244.5321665060424,253.2202313059133
757,264.24895307777416,200.8604928344544,209.79673042982344,244.32448795915963,253.40988907208703
758,264.69757550315967,201.50612359093716,209.48975038165207,243.72935989286833,253.72528742519967
759,262.84482017179437,201.79549500418543,209.19798609317203,244.07591020920282,254.4051529097365
760,263.0513212305243,202.44616851509406,206.31685979190462,244.0566384346963,253.93552441863497
761,263.2415770725989,205.26405063499934,206.54092434990775,243.94082938939118,253.82165309047832
762,263.46472601813815,208.40855266122017,207.0830915422569,242.5666364542696,253.92041408372094
763,263.4457968006373,208.72374596047956,206.9581063603876,242.6701865431317,253.6780842346446
764,263.0593832288937,208.74189631931634,206.46484273154337,242.97788504081615,254.18457201946867
765,263.0641062832144,208.5772087566547,206.3754143442526,243.14022776952004,254.28275100414925
766,263.25680218765285,207.97485082912118,206.55819882870375,243.34462658499652,254.098518594086
767,259.90629450457664,207.80413010004872,205.97071579872042,243.29937169669418,254.54974401151537
768,260.0608134090855,211.07187982948523,206.17641778892292,243.8316700474729,254.88234328388708
769,262.87030533795917,210.78536793817727,206.02441314455027,242.99374149209493,254.6069758682357
770,262.5294487303173,210.3597196562787,205.6883450714721,243.1406622107813,254.85397732352456
771,262.9291745462089,211.07764496771244,205.87453465486527,244.0028102341005,254.8428050820775
772,262.4428473067859,211.08029689026938,205.3756643624809,244.3392434591713,255.0603884707484
773,262.4775347122546,211.9559036317692,205.35034182809807,244.54080180163743,254.9195249237208
774,262.63262155778614,211.92026307006876,201.53608848592546,244.88525975718548,254.80024016580757
775,262.9881741651444,215.0631198384576,201.69189759596543,244.9409604208469,254.82799348244043
776,262.9882071530191,214.85209437879448,201.8645970069287,244.39849745668343,256.44777663210544
777,263.17865584033547,215.76921056689767,201.82383765066737,244.7282968085097,256.1721592811826
778,262.9654401954404,215.93256085853946,196.79747136868917,245.1681836051093,256.5806815380032
779,262.5469835905238,216.31932795628111,193.8428955824863,245.10203867076262,257.1419293839516
780,262.8408104604664,220.52346342427074,196.5611960551334,244.91425327770273,257.07149902708574
781,262.9019972814135,221.16022958841958,196.80941014662042,245.80664210015624,257.2316059003594
782,262.74603702457915,221.7249353374913,200.25261432211937,245.63313921440465,258.544018894137
783,263.0875981993845,221.70916367605568,203.44192323863302,245.77859043723046,258.95576384228707
784,263.07233053502057,221.43104024887714,203.58206881403913,245.59462451355975,258.5824075912173
785,263.03216890929923,220.76821946217365,203.6497215864386,245.79755036327802,258.13433605288475
786,262.9644245072257,217.20744058245467,203.89824182753804,248.90068844108865,257.71471786355136
787,262.5236487235487,215.9835604484454,204.48445215870805,248.246633590184,258.03465662462736
788,262.8784246551183,215.58171098492602,202.39997742808296,247.80724657143713,258.10657630774216
789,262.7796001122913,215.3731692562923,200.08442890604067,248.07298332900754,261.06843779713466
790,262.5957940783664,215.90368402230277,199.58451274803687,248.39860969509888,261.21919093753024
791,262.3683828760637,215.49134807336952,199.85714542711395,249.3227345307201,261.72932357253643
792,262.89042985388454,215.64706411735892,200.15132927593112,247.34700390666023,261.46065638188594
793,262.7218116633037,215.9635397469134,197.14649032992344,250.4187708180363,261.3099174121736
794,262.7728979006411,216.03266740446062,197.1411345104642,250.6367196479241,261.152698731296
795,262.37646336503525,216.1958904386278,196.80291219736236,250.9124527093718,261.5370554312837
796,262.46293436947894,214.90971954378688,196.31837087308998,251.25266524394556,261.6141224210344
797,262.61160536748355,212.36889029108298,196.06233886436794,251.16189543788292,261.14511003982096
798,262.71503683477226,212.93448866447835,195.8615407950582,251.38907493398486,261.16329943454116
799,263.70263710930857,213.12299693515698,195.98744401439765,251.4608368638359,260.9081847713425
800,263.6009581039093,210.34217001601309,195.94926956099195,251.25272660075967,261.1034522582904
801,264.62681668022736,207.38423520554755,195.83324664670258,251.48949473564102,261.24461232918634
802,264.7199317785491,207.24979502248942,199.10956557334805,250.85550002444376,261.5982352771936
803,264.6346399454871,206.6335574531907,198.9841503278962,251.1582245522154,262.10549246177357
804,264.25828364745377,206.3300521509146,201.34609950915055,251.37993328258614,258.4757200794938
805,264.0940945338932,204.3222029005382,200.9656074394015,250.692949334206,258.55824232541653
806,264.42827517119406,204.9856399057105,201.42689155270193,250.9975787335003,258.50221385784096
807,264.6750585912398,205.279284870188,201.81263316326968,250.78607323442913,258.81392769948167
808,264.62278902615833,204.5654617649854,202.23602214542356,253.49673045467992,259.3315107665948
809,264.17340397819885,204.54869645096403,202.70237134375418,253.8190879129794,259.51976554610246
810,264.4489998411801,205.05634190494038,205.9149102612573,253.87980633511813,259.88806248650917
811,264.8096905621344,203.0930187135314,206.53126425644857,254.47059582648927,260.2048635326508
812,264.72580828275915,203.24069945787662,207.07195412633007,253.08693264232025,259.9726719263351
813,264.79946847373736,205.4118079373514,207.21922342321375,253.27335556340222,259.871705408432
814,264.40187787437316,205.47937726463763,206.56615148700362,253.45696538548654,260.3215889652127
815,264.40006395638227,202.1545755642402,206.37968928613884,252.7534865964408,260.57767943574845
816,264.66996122479765,202.3322741405831,206.82814354899241,252.09924575943649,260.25906719592035
817,265.0193927892153,202.4147732582407,206.67687172856105,247.711526287789,260.3634871317244
818,264.4915345989246,199.5825480565923,206.91336093141337,247.786616138211,260.16286228711675
819,264.2014039247698,199.35369383841575,206.0097778197095,247.62399027632503,259.9670362297975
820,263.80331631411786,199.68001742504947,206.29914328732477,247.35346445483034,259.44415324804396
821,264.1333965772294,200.0037739144028,206.4784782233289,247.56328064934286,259.3110324967446
822,263.9679841926873,203.4644697403104,206.61275657891707,248.06540943809873,259.326339217723
823,263.88284510720086,203.37714771687686,206.57281697451836,248.19885629571675,259.6408359733614
824,264.06430225979204,202.98717494968304,206.89770260369312,247.32996381839897,259.44842586066136
825,264.3710306409172,203.3451923372237,204.12807805894607,246.95934788725685,259.11078299069015
826,264.3871000597881,206.02313864966698,206.26306628812233,246.90218494312168,259.17183940105417
827,264.80645166590443,205.87644709861954,203.51025205344393,244.91485942466363,259.2072244128856
828,264.3935633257772,206.28020216405915,203.42328069986968,245.3727809192145,259.0249531295467
829,264.8330368632693,207.01329239602686,203.06677666599913,244.93668683918546,258.90786693612057
830,264.3552171702168,207.1494859103282,202.95125045188047,245.23584417188772,259.30985595356515
831,264.4253475258444,206.48245758277625,202.986727834449,245.27374751973494,259.9128570601258
832,264.7487548038001,206.4241278177417,202.97569444510606,245.58853543200982,259.7239776177346
833,264.5006236454664,209.32001315074757,202.7684238793755,245.39721119247278,259.7077963216301
834,264.9523026024314,209.18790698607853,202.90891698410934,244.95319256801199,259.83694356182167
835,265.4302250635619,209.43811660135606,202.80439578204795,245.58052431073364,259.4897525431994
836,265.34401057137666,208.9377511236163,203.06408598293712,245.40182464683815,259.60672396102063
837,265.2016093984476,208.773246522152,200.82280056669714,246.1003984662788,260.11168033197157
838,264.969908156649,208.82144310414003,198.23801779512362,245.2446000850424,260.3188449619745
839,265.25383487299723,204.6908613246629,197.99564820643926,247.90750887939373,260.29544205631595
840,265.6162039571525,204.3567812800714,197.9972744465138,252.84289131845307,260.70904369790367
841,266.1089783748646,204.0495665342321,197.72128230488332,253.3472212953388,260.617206238165
842,266.02902447352153,204.35331826532976,200.0425794641147,253.46000768588428,260.71242721858675
843,266.15961443107204,205.05818060504956,200.38541094453038,253.41680398355166,260.96790328307287
844,266.02488490957444,205.30340561737574,200.25779600094475,252.76582594999573,260.74319321897485
845,265.7744377977477,205.50101162772617,200.7036624943972,252.97339926591695,260.96381281229037
846,266.07842566771154,205.16397178819682,200.64410137713986,253.1681564948471,260.6649574549111
847,266.3552745976447,205.63892095477345,206.11230946302973,253.26077097264923,260.81266716125754
848,266.26843672657213,205.04939604066882,206.37288767900571,253.10588607746067,260.97571774505525
849,266.3243606346698,204.67557051539276,206.41758052042272,249.23150894047234,261.0891650819805
850,266.59912002574214,204.77614342957037,206.224724188325,249.1296601726359,260.6506965874898
851,267.05135421524045,205.86845985576997,206.42807812217407,249.2248049123531,260.9136783337792
852,267.79525467890454,205.66112233050416,203.61156173464025,249.39242360025335,261.1328697047475
853,268.0166932679406,205.9186935942691,204.2988079355251,249.13495411849405,260.90206461701155
854,268.3751967006131,206.33873789323385,204.54120059412054,249.6253839803841,261.3952918310288
855,267.786686411277,203.397103213528,204.73331407312358,249.3001920367189,261.35189405060896
856,268.2749783364941,203.9296887266207,204.43867182038412,249.3491086746175,261.0656933028777
857,268.5640004974004,206.78107145134098,207.2406112961351,249.53337827533142,260.95890706894215
858,268.7382140365078,210.03640632857173,207.32781743092733,250.36379570490644,260.5701475769471
859,271.2353329159652,206.6233245828232,207.45091859958492,250.53815580132547,260.41698744264494
860,271.2690587933752,206.11456241218193,210.94592229815268,250.65240706446536,260.83174222028504
861,270.68607906286957,206.15403095853998,210.85272072766193,251.00815889612997,260.8426278937191
862,270.42781366407416,203.76236874145243,210.859868750268,252.0082971491252,261.043170515035
863,270.7388061586096,200.82249370485317,211.09601409340814,252.06014951504324,261.4540968979989
864,271.2384180220832,200.67683099953112,211.37314467424932,252.00056533261727,260.0478114572269
865,271.6199864495791,201.1014382956325,210.93600462818796,251.69197215199702,260.4021359174992
866,271.53644346509753,201.49285126815343,211.2585918749657,251.16948696186336,260.79522077507585
867,274.2808819843842,201.8254843453721,211.28191071820234,251.02812028815265,260.4705227132063
868,274.15984237740093,201.6624638336387,211.31657873082958,250.45228648474597,260.62736233653783
869,273.90564812343695,202.26598410044838,211.51787940153298,250.64470593293572,260.70435230515164
870,274.0702149056921,202.4519534670202,212.04707262035768,250.4315049091627,260.59857284295794
871,273.45337123369904,201.7418149907906,211.82974940242576,250.55152627874628,260.3626449572856
872,273.6722560376035,202.05055032307646,211.9840867742146,250.33339925019192,260.42429431624475
873,274.2240013290776,202.07338709469371,211.55191736976434,250.30710576643986,260.6801120409325
874,274.2357092836195,201.79429622614666,215.118633654906,249.8495275138607,260.9210669164931
875,274.22946067470787,201.97547387401085,214.9896176621447,246.9571626115769,261.03016572674255
876,274.1076195212732,199.10739473494053,214.8635509039059,246.96056609225028,260.99933602329065
877,273.7518116540721,198.79650674730928,214.95054776418948,246.6024996961848,261.1896793331565
878,274.0469628236786,198.71047466544258,219.57019806591808,246.54184482495725,261.0790771375804
879,274.5161101055384,198.2934053947247,222.72124271664015,246.44930132952973,260.733615260804
880,274.4792888895543,197.84048720751383,222.58029254530564,246.1514913474265,260.4471067408756
881,274.55678023895763,197.6517386522506,222.7255033592369,242.52532960515543,260.63229794913826
882,274.74551752048325,196.73308465148952,222.21214776250088,242.81166642859932,260.64097753703686
883,274.8282997478731,197.1652332537508,222.36361694805055,240.16241702937796,260.46806873135586
884,275.0230015630331,196.89881761244928,222.37049598100108,239.91285156143798,261.044464074483
885,274.99739302867664,196.93728066082872,222.48421874166579,239.40347888688441,261.4732059315272
886,275.05943898943593,200.33876515727533,222.44084043832726,239.04916738679955,261.51541705264214
887,275.4317196644106,204.05405784521278,222.11752156466736,240.36975992172546,261.7160764222283
888,275.6438640548884,204.9832559200708,224.32546544742044,240.69044353692135,261.78089712272003
889,275.9670662638482,205.57295154995475,226.7259601544353,240.2218340560798,261.454741548045
890,276.10370700681983,206.2182932354768,227.39156070022884,239.94106094282634,261.59369221495945
891,276.6510604224855,206.75655759479338,227.0353040532724,239.69792704243704,261.6469877022907
892,276.92144854340967,206.3492396182206,226.61365689111503,241.95302258584195,261.55753312686755
893,276.7252957273028,206.2926745422965,229.08483424072648,241.82061108019548,261.8407342037313
894,276.60466929698504,206.21660143395547,229.09786753186455,241.48517291867793,261.83185037929485
895,276.9305897885784,205.98961297295594,229.30886864650108,241.24245827818106,261.3335186029047
896,277.1480094389046,206.75092872700262,230.18000776886583,241.28155654134497,261.5708876050265
897,276.8811865748568,209.7557174409151,229.94726353909843,241.51111067943341,261.75789060036254
898,276.1896548273863,209.58629584674532,230.13172072259513,241.34042857190906,261.5424837596422
899,276.10459851947985,209.39792043163908,228.61805530756644,241.03429040304084,261.90128439482
900,275.8808647590392,212.7364520168859,228.7526978479906,238.9520711124963,261.9316717175375
901,276.1361999906281,215.55244854720644,228.63162437347225,238.96689984948912,261.97715404368495
902,276.0240276428322,215.2689780129887,228.170837366641,239.63445398889647,261.57722089509485
903,276.3433532336145,216.01654513793383,228.17357874806817,239.30834174151164,261.4390885338036
904,276.4835596938758,216.2567861624037,227.42974538190705,239.46877125341834,265.27565508873175
905,274.39045724341884,218.82558618544962,228.0418580304315,239.812770839941,265.3784420649649
906,274.0449402352906,214.80506707126366,227.7780849201121,239.6846671505618,265.6804228382787
907,273.9683218433064,214.83447383674178,227.4415870150728,237.36532959356947,265.9394994322333
908,274.12922821983057,215.22650197208839,227.32038139848194,237.28575941126599,265.51302699269064
909,274.37922675793726,214.94560166454778,227.07052115469875,237.42574881211715,265.8692091448704
910,274.246554920244,211.26857069741473,227.11263620550585,237.54213714942577,265.6136849726488
911,273.9932698481552,213.45708858486003,226.5708321295701,237.5659320124616,265.7058630536241
912,274.0288878738665,213.3029839570195,226.37374585376062,238.717843949912,266.10077066350203
913,273.90188931501825,210.88986857709898,226.85799852346278,238.17439070958014,265.9862024133603
914,273.89736585186404,210.75442531984407,227.99214830944723,238.17212186588685,265.8650008942546
915,273.7164613902663,214.41257082686457,228.02842639767823,238.76798629657773,265.75270723936376
916,273.59980514516786,213.9202746104529,228.0562762468332,239.26140706219365,266.11182093190126
917,273.4886788295573,214.2465586560906,228.212067809256,243.5670935631103,266.0861128415513
918,273.6919316685903,216.72671542212845,228.0930063641289,243.76624338268087,265.9916889337947
919,270.9436678019907,216.25704862085743,230.67523473415721,243.6834921202354,266.02771671264475
920,271.3736935997205,215.8216845337053,230.60726837671453,243.8701523641013,266.2417283057853
921,271.0319941797205,215.8950638274535,230.4230275149539,241.10306426224528,266.28208469628845
922,270.8558148717941,215.36873898973798,230.50915691734974,240.8755103991927,266.7754498288201
923,270.6149007442385,215.1943830601702,230.8628581762297,240.78072813479739,266.7231075269563
924,270.8022004793724,215.3913923360412,230.32814952346178,241.5469762068511,266.70053841754185
925,270.6005032763871,215.68448178483942,233.12693414063392,241.38637393843058,267.25262541978367
926,270.45056951916786,216.2146983696122,233.4483167826653,241.76399191882226,267.14085758124725
927,269.9586188847258,214.21019153620114,236.05070180425818,243.80997884388879,267.1855796326803
928,268.42293567825004,214.4703634761419,235.8801616519963,243.86420666197492,267.1522199039809
929,268.2620400086012,213.98104082539504,236.10304551197234,243.96154695083106,267.2496059565433
930,268.6859553092494,214.20882850917803,236.33061562210733,243.92474275201,267.17366669012415
931,269.11001696884904,214.8409334402863,236.33574286588882,244.0019911894026,266.8455983303713
932,268.98319593435076,215.3991789911058,236.13810823315103,243.89011305366122,267.25687073424245
933,269.2088750537701,215.26240806556874,236.51298488685146,244.0654545515737,267.49833890850766
934,269.0174913463081,214.69635622243237,236.48447029264423,244.19776760662089,267.419046031801
935,269.52095719491086,215.2408021062275,236.52157624059146,243.83377431624996,267.9697086333806
936,269.68655638044,215.8891328482462,238.62850241412085,243.6683825328099,267.92677303872546
937,269.62698677825125,216.78699562533473,241.02746018169262,243.44101092509808,267.49522298974
938,269.63014146702164,216.4348449587864,243.62360717985237,244.14537033281312,267.30831808097037
939,269.66544901117663,220.58959109801827,244.06285864209607,244.29207426086484,267.39092965056807
940,269.36220354637607,221.2615067214642,244.1799711063935,244.2639956371925,267.57322581152687
941,268.7371236007018,221.46518599099602,244.06078955294504,244.2934702072162,267.8975346502375
942,268.726635148416,221.24867866413553,243.96173520261422,244.29198243551804,267.8279825065489
943,268.3525241637768,220.9983783855022,243.1893660662958,244.3576042249224,268.08478187438305
944,268.48139853306674,221.22913622186286,243.46714583522774,245.19480763607214,268.71181779844204
945,269.00400234213,221.1648479390238,243.6378967222158,245.13813463065998,268.735753170677
946,268.69568273645075,221.75088868374974,243.6797325067142,245.27156844290758,268.90234089011346
947,268.6588571049248,221.97168995946288,243.39699914861347,245.65087676211755,269.0623104595266
948,268.871942651481,222.39367202796097,243.55526341528218,245.9856920332587,269.02135534587757
949,269.27208634577084,223.00489305274584,243.73300847923497,250.0039328407133,269.07097841673175
950,269.49593857668236,222.62395557613658,243.6805021603763,250.18249470378225,269.36607222473054
951,269.1955894715319,222.17301435302772,243.62494116566802,250.15391475211266,269.1176949072932
952,268.87876862041236,222.7159592067461,246.27830288435655,250.1996905940645,268.9340466344573
953,266.064377364818,222.3144968443955,245.9963941158371,250.11694586701782,269.16736704023543
954,266.06286366613455,222.26198917398276,246.06216940301385,247.42101086227572,269.15236895045285
955,266.3286956572195,225.15770389545273,245.5865279214644,247.69607236202722,269.0381340935661
956,266.1375747399977,225.35694582344365,245.8467620244805,247.87000210234524,269.45856357386623
957,265.9138447934452,225.64169881499726,245.86963813055797,247.53807628972717,269.4582619510187
958,265.6963737171889,225.76300311280792,245.92836266676008,246.79721077565068,269.57479564412256
959,265.8941132946894,229.4987021702726,246.36105589904935,246.3880808184363,269.40119401079215
960,265.680869231768,229.954517508984,245.79581846679446,246.9026333963336,269.73131783566794
961,266.0373203097339,230.29841221227835,246.0823150349817,246.60256067927344,270.0873600414259
962,265.9107497788249,232.87049720647715,245.78155922610867,246.97079750932818,269.8995472165556
963,263.21788926760837,235.84988802291664,245.4875290084796,244.6631617575183,269.7385547926074
964,262.80098664772663,236.24122834329648,245.6529023885156,244.51312276164822,271.4133800869811
965,262.4135590937839,236.14283013294934,246.08284365475075,245.02435328576442,271.7791018375738
966,262.65708018079096,236.35249510253522,245.7478262264157,244.91605148183805,271.46503365143644
967,262.81429484429077,236.25707761591323,246.01337611929898,245.25613109489444,272.0587782357054
968,262.84642376856175,235.77799316398512,246.01168126956966,245.69643584373114,271.90070585419744
969,263.0337751974205,235.94160094396327,246.29427646822728,245.97479789073662,271.82371658124566
970,263.3471573929712,236.47215797441976,246.1457444754671,245.9133445796065,271.6674608018735
971,263.46873362859543,236.87803919046743,246.2063477922654,245.54849805687033,272.0270470901721
972,263.5000954370516,237.32260157400026,246.16551796204604,245.6174822156184,272.3043485830258
973,263.3629061412097,237.76078785873625,246.14218519463958,245.31200556273612,272.2077391055477
974,263.6657668370376,237.85344059556607,246.50247939244153,245.84246997863227,271.82040675774687
975,263.6662208604884,237.05418078834376,245.8273571192423,248.56656961199963,271.5382112946898
976,263.84968955405026,240.12144692442595,246.06075824057058,249.28418160837896,271.6288565524874
977,264.02610964871474,240.73525233829034,246.2902644049252,249.4334227719585,271.5815339076099
978,264.2318964449636,241.4065989857012,246.79122317848564,249.41785985691473,271.44775211872536
979,263.63800607389436,240.52142895441528,246.6504966662877,249.93784460749092,271.26940373287505
980,261.26411590607194,240.98729150583276,246.76757096303965,250.15839918712263,272.0674585723337
981,261.3551249412549,240.92917778294515,246.84047781808658,253.4168232450842,272.5135179445249
982,261.088105564336,241.95334555623336,247.12922888325372,253.10337019568473,272.6508286074375
983,260.690287389138,242.20650229292653,246.66030138357067,255.37720731220804,272.5712050758916
984,260.56162768767933,242.60640007356895,246.55059707310116,255.65772393292616,272.5572591762357
985,260.80024229661745,242.8745370975028,246.54994482669915,256.18773549756384,272.11453648961674
986,260.9019158209857,243.22289876360048,246.55035833489146,256.24372209839674,272.2012043770003
987,260.7339247420445,243.31052162761844,246.769796390241,255.89639923873025,272.1813007367216
988,260.6860930142459,243.1636826446078,246.60415796637673,255.67009018636054,271.99369043907996
989,260.81019839709677,242.82419048571512,246.79869460552933,255.90870649231562,272.10552826293133
990,260.80591734892704,242.40137841126554,244.27541391989806,256.11901303065133,272.3982869385698
991,260.63972921933896,242.70903397499242,243.97284561673206,257.009205115919,272.05309937095944
992,260.06669643681175,243.0037967970851,244.57540612114155,256.77677585980166,272.40089252544965
993,259.82388633927417,243.64943002368273,244.8373842608046,256.79912748360465,269.9164917825651
994,259.8351507986943,243.71098228440403,244.90563849145497,256.8762158841201,270.00449363631924
995,259.8490374914252,241.22417309435903,244.5262043618385,256.948759943708,269.99361018806917
996,259.46441912017815,242.45652413851053,243.88166150051487,256.55310414598057,269.9467054490166
997,259.31489935929187,242.6988825556739,244.17434926246554,257.1125655316465,270.2907918162946
998,259.57483827653846,239.50226063686023,244.25243509007296,257.4258807218667,270.66890983893626
999,259.41060286729527,239.3681773662794,245.3933538976722,257.73401769198176,270.50675226333794
1000,258.7339463189457,238.929017172843,245.69772390549744,259.9786688304782,270.54907576485704
1001,258.72942829568683,239.4415901436888,245.64175867846134,260.26291291419216,270.3616937516186
1002,258.5221546228463,240.1132576697414,242.07127511309477,260.48054703170595,270.4089316473761
1003,258.18895720490485,240.15638265324185,242.2982376900569,261.0807658308851,270.5901996877554
1004,257.89303903379124,239.78545841465785,242.92021310678345,261.5995496597104,270.6120185766825
1005,260.3699533755482,239.75856742186974,242.88071226447738,261.82580838557755,270.6710017104259
1006,260.7081888014868,243.9497046088993,243.0872711035563,261.81427746517454,270.8637400485648
1007,260.5573552340275,243.8877469449789,242.55058948482863,264.25874008553274,270.86663994186137
1008,260.44150470934517,241.92901922174227,242.7227127088323,264.2828282789125,270.904541728194
1009,260.3630198561343,242.39321729226623,243.05272007965203,263.9619549344395,270.3724345235272
1010,257.9708265862165,245.97118253633485,242.93126454957854,263.8982174048807,267.9849379340605
1011,258.1428350219345,245.94056666621384,242.78625434074172,263.994633084364,267.8106964172362
1012,255.9120139333236,243.76538360147654,242.75208642598392,263.651510137156,267.6331145135285
1013,255.8353804497131,245.91837125683776,242.7081951149891,264.1879154519951,267.91146573583495
1014,256.1067841331837,246.22867170043213,242.80623845701956,263.966559535009,267.9559089355991
1015,256.34277293701484,243.05817772999401,242.71616852622202,264.0745253156209,267.9303883775165
1016,256.32184698732715,241.94369869992568,242.7406285567019,264.3188468027587,267.5233594526682
1017,256.4758627026641,242.02478094452636,243.0802658063937,264.43974639910164,267.3437181519551
1018,256.2549581151698,242.86763910836245,243.29553626421372,264.3494345728583,267.65781973357593
1019,258.7366439892099,243.9179007010902,243.3280529100488,264.059088498753,267.7690925565754
1020,256.42375653278276,244.42289499535644,240.49694373781082,264.1732485397105,267.9480831500044
1021,256.7654262369977,244.56039180115272,240.672633366165,266.82390217447875,268.12206004792455
1022,257.13158941325935,243.83789690178477,240.9620891978588,266.9740805117838,267.77519057787123
1023,257.55020563364246,244.33139840527073,240.71482987784304,267.1491746549067,267.6123070682201
1024,257.1214015714237,244.38979618865454,241.24556076065628,267.1688444456016,267.64765163477375
