,0,1,2,3,4
0,-112.12166809262536,-112.03393509314465,-134.62523118290616,-154.76183466609226,-134.83707771462593
1,-108.95789055730334,-111.90596072148031,-133.83111583411784,-154.27271316817138,-132.13516756060548
2,-108.132989890349,-111.56582351537341,-133.3581806117575,-151.07087677609707,-131.35718475515844
3,-107.8881301252953,-112.86469190820402,-130.51863828492543,-149.59832439222725,-128.50473832071827
4,-106.66974512116249,-112.40465361913007,-127.71790560719883,-148.3318074546609,-125.1490504838253
5,-106.73852775065609,-111.66208397900549,-127.59299342692344,-145.76108466899393,-124.9508346081432
6,-105.97836403723569,-111.09501889830517,-126.00424312028231,-144.70952351253447,-124.74929328250519
7,-103.4127631952649,-109.89917911039284,-124.78286281567027,-142.99987113172267,-122.33070890373669
8,-101.4797909727988,-109.83295929013279,-121.11602143809674,-139.10954259656643,-118.59454176809946
9,-100.73590578948526,-109.69123765575625,-119.32578196328903,-139.2363493707186,-116.26013574322808
10,-100.33973827965511,-106.37624414024249,-118.38544695140158,-140.18454928454597,-114.75094570540122
11,-100.86719642856171,-105.04615904326658,-115.78480058804301,-139.7234352647714,-114.46518883425975
12,-101.70849052549373,-104.5077764678092,-113.67553794109594,-139.17647597525882,-113.33645432806661
13,-102.32800834407676,-104.03927903736516,-113.0746950473365,-136.4234809284432,-112.71072618801061
14,-102.50484561719958,-101.64201540629567,-113.13360990758189,-132.41539938730403,-112.16292304733399
15,-100.47102986772457,-99.20713673587981,-112.20361615819203,-130.9144583959015,-111.43319103067614
16,-98.02970725853741,-98.45925845037827,-109.91610771156299,-130.86800902443056,-110.67112678915079
17,-95.88079999609403,-98.44719211087124,-109.35009839782796,-127.33159075169243,-107.85433349664851
18,-93.0060820711206,-97.13402563710106,-107.62486288628213,-125.20047988143706,-106.9141026842236
19,-91.38809760726612,-95.48852031073189,-107.47410152217704,-122.70927857501805,-106.24613885239938
20,-90.75108493310822,-95.56762490901112,-107.26057670602607,-121.50790036560744,-103.79253576595173
21,-90.2597673378737,-94.59209217593174,-107.49968979402566,-120.71168584734771,-104.33036259934748
22,-89.82772078970454,-93.48160129234363,-107.63411925533828,-121.12813894481042,-104.57951370730316
23,-88.80394340694738,-90.70430166047048,-106.94214120949387,-119.37669539783478,-105.41601848801261
24,-84.9587513580563,-90.1489435662863,-105.21139650021085,-118.7761180812019,-105.10807546279598
25,-84.60100945358525,-88.8755038145748,-104.26435941871452,-118.27661355200664,-104.62722919601583
26,-79.3480441327682,-88.75159955281826,-103.54031829444973,-117.47163192636833,-102.75753352481007
27,-81.45207389040084,-88.18282522087684,-102.26955158454393,-115.24462709264795,-101.96907295631628
28,-76.44676142937676,-87.89162164216692,-100.53670202133189,-113.77756978896689,-100.28869869130482
29,-73.60765515187661,-87.05352009839142,-100.52502099976864,-113.43050532115602,-98.04807201941507
30,-69.65075619508177,-84.90047296019954,-98.71976219538121,-111.38763441842362,-97.576630915541
31,-69.01096572681259,-85.04793010755195,-98.69203988387453,-109.10903520043405,-95.285417771177
32,-64.66570004757747,-85.44661441977854,-94.93533158045095,-108.7812230958672,-93.22493133457036
33,-66.72948744716771,-85.3014200901656,-94.06871424331902,-104.5351915947291,-92.67060785683424
34,-63.114791570374685,-84.69880189282016,-93.3585553206627,-100.84127086326818,-91.58540246153116
35,-60.821563219109784,-83.23661587392925,-93.81999497031237,-99.81654564705684,-89.82703525319104
36,-58.23757374093348,-82.84152928617785,-89.49925899602016,-97.99439349777941,-89.59023972129614
37,-57.42252062997326,-81.92985603964007,-86.99523805600424,-95.81569638889903,-89.78737420328497
38,-56.632857430434306,-81.33696630899922,-80.5564598207381,-94.16273882152393,-89.90494758804078
39,-57.24811017220957,-80.48089490000882,-79.75331754372,-91.85923892390753,-89.80608950159586
40,-55.57185621058157,-79.92389639722758,-79.18944807967746,-91.08232290104426,-90.02618698382183
41,-53.89199933551019,-79.45582400510256,-77.36247145808204,-89.22936402706559,-89.22530452578461
42,-53.3325151149214,-75.88719150015235,-75.53708536493407,-89.61680119326338,-87.91371957324768
43,-52.42942350994576,-74.54770415966206,-74.7198375515943,-87.27403568821386,-87.23256376033748
44,-51.16116166453228,-74.58460192552312,-73.82944243571545,-84.45104400548009,-85.71855435977048
45,-50.66981551467425,-73.1437692325986,-70.77846873780851,-81.88379904872839,-85.45877775248337
46,-50.75576992601039,-72.41580367766905,-70.8985735950058,-79.82288153490452,-84.48841490106629
47,-51.31899814067317,-71.83548312493231,-69.50379881301318,-79.81923134408774,-83.45622515030978
48,-51.350598259162574,-74.41969876215575,-64.6577329481034,-77.70205799736668,-83.08642106375106
49,-50.57746678261362,-72.50466949230159,-62.28953126987656,-75.26047873448888,-81.1987020793296
50,-51.770076378632204,-72.32086191631787,-59.31570064441061,-74.60211116223607,-79.13934334850839
51,-52.546604872243734,-72.09386045967273,-58.7742266448054,-74.565542403508,-79.38641061100608
52,-52.21321234526593,-70.59803539249918,-58.46163467664873,-72.11915410847426,-79.67719805559567
53,-51.01299995144821,-69.00947431337076,-54.07298012578236,-71.9877242341833,-79.88480845457465
54,-51.554356818614366,-68.4356670834251,-51.096229705066264,-70.84392882644192,-79.5885920326212
55,-52.35410679424828,-68.68673174122999,-49.60017789439742,-68.2323905824185,-79.90316497504483
56,-51.897806665359276,-69.76943398298505,-47.613711805452056,-67.65213708358198,-78.8106737887885
57,-52.560690082652926,-67.03828518601382,-46.39409208409862,-66.14927188600944,-77.57349332216607
58,-51.772481850251395,-66.38647201207507,-44.66595429365702,-65.6824121500457,-75.87724466916912
59,-50.97989638760897,-67.67124481958793,-41.90819494500153,-64.41302234822601,-71.54701928608901
60,-46.189227239856535,-69.08425704415885,-39.77098958175113,-61.26020331624421,-70.41605631983978
61,-46.16746601049849,-71.46594910720518,-37.79582252984746,-60.03377353970275,-68.19560338777393
62,-42.64350372999662,-69.48003276625037,-37.506838397324685,-58.51783258988898,-68.84451858892079
63,-42.30158161593083,-67.47583421782905,-35.191570223669004,-56.40581198289062,-65.2019110948929
64,-42.08285160644604,-64.75692172942405,-33.389393576072735,-57.09264263833265,-64.08446138525902
65,-39.803216222685876,-61.70659350507889,-33.22942682601272,-56.51257463389433,-62.06635149629105
66,-41.13130675177704,-60.16989815907459,-33.205768705655586,-53.88824684775963,-61.7143025713598
67,-39.05679760426645,-58.60892072710939,-32.61466172575833,-53.41511444984574,-62.04593236200869
68,-37.99253757742124,-57.37932180947155,-31.45396189547278,-52.798316233191336,-60.08811553815639
69,-38.624278691993986,-58.80867485837058,-32.39196573901301,-52.05343885523937,-60.54159142333116
70,-39.83235476814799,-58.96120744360258,-32.09225357356662,-51.753454803333554,-59.799924814054464
71,-37.041736069407136,-58.63616557717517,-32.48625876288825,-51.695909988271005,-57.43917192911986
72,-32.52871570341784,-54.42521099240041,-29.714686283684106,-51.086709759784384,-56.11189419244813
73,-35.03713523473501,-54.90883075770889,-29.732991333451036,-49.75879432006604,-52.66732759315337
74,-33.732423217648716,-55.66722623398244,-29.6041679907758,-49.939406339036566,-52.75007095715313
75,-34.78929532015347,-53.05974776803484,-28.90882677602201,-48.99104654918314,-51.5238433340977
76,-33.55015523961571,-49.27717617040655,-28.610702178366584,-48.82069661758753,-50.88338432373303
77,-33.55037864355647,-47.466870973401775,-28.59222334770162,-46.03482315555474,-49.62479911353385
78,-34.8860208106699,-47.02041429451496,-28.871378347344052,-43.07631098007019,-49.686255958532676
79,-32.55784741184788,-45.783139410499004,-28.994225573771377,-42.26902177927484,-49.866981388140296
80,-33.042976182041386,-46.767048291528646,-28.94263902329359,-41.05472200972096,-49.35634032326827
81,-30.105750660303723,-48.06280074574829,-28.430682545994756,-41.43977936184474,-52.69350494177306
82,-30.339203454078916,-46.99014141378835,-28.52256513161063,-39.785086992514486,-52.47142714806766
83,-30.34197144788237,-45.042933620924465,-26.25039970448466,-37.60457632199919,-51.901767530534016
84,-30.706000373556837,-43.32304313028696,-26.98211021482997,-36.85948751081346,-51.66901163053035
85,-28.06726299989387,-42.826304515788976,-27.82232047762854,-36.02875310221912,-50.886725491051195
86,-26.84017963699936,-44.42755347851186,-27.10023249142078,-35.3688109971674,-48.01055867638742
87,-25.10702079974295,-43.440645632903276,-28.366175705355353,-34.799784953544446,-46.40692175243748
88,-22.902162251651635,-44.04743602735672,-28.59490095655457,-31.549767142258236,-49.390222997024736
89,-19.845293657930387,-44.0110602725758,-29.296096572520636,-30.552903563493473,-48.49899799388732
90,-19.067736360752964,-44.91376417674957,-29.5515119221489,-30.28152981280743,-45.83859841571375
91,-16.71683050975688,-44.371684664555794,-30.405680965438695,-28.082641024488243,-45.65662575329227
92,-13.711856482410852,-43.390267861479494,-30.616879798205932,-27.309490486329015,-45.68664407711344
93,-11.83135906053044,-43.45894824440101,-30.91111573539112,-24.10847140396217,-46.39078024725898
94,-7.22745441259181,-42.20975823285964,-31.498564929586387,-22.3832605899152,-45.5316356760868
95,-4.910798582178065,-40.995843097701936,-31.818401074677364,-22.524540148978563,-45.16411568555589
96,-2.370853273784693,-40.28256139680077,-31.30246325743514,-22.03618268832487,-45.169683729020875
97,-0.3733146327982501,-41.21109228513971,-30.926357855491148,-21.33104023672939,-46.05381433565998
98,2.7790777963123556,-39.92947934810626,-31.08376571857615,-20.40822358053823,-47.13882505841263
99,4.206112214365416,-39.59808757493352,-31.137064882258382,-20.28930614226817,-47.18007722647413
100,4.232293709459667,-39.70750040683055,-31.932981200262383,-20.215423707291798,-47.94169499820266
101,6.635585275655095,-39.19064876351299,-32.32865208377212,-20.183267800068833,-47.74145451620787
102,9.902380038837665,-38.658748405609856,-32.56029048238516,-20.33524223517765,-45.52405671668017
103,12.161606000728698,-38.217841850833494,-32.68871881970672,-20.222303379432322,-47.29581639672009
104,14.125740600804527,-37.99883543683194,-35.0479564339723,-19.882499952214964,-45.36843093019691
105,17.579454351075146,-37.0379413296016,-34.49194166421975,-18.939153713391708,-46.524820414963926
106,19.26808744255788,-38.08762151721389,-34.7633360792346,-18.97537275722821,-43.42015622174346
107,21.86227766445958,-37.670111231595435,-34.59545455179191,-19.757026046768587,-46.0574303670146
108,24.96423449788344,-37.58468139691217,-32.24726495006698,-20.34837210944883,-46.688370614143395
109,27.015711576439568,-36.60350892405856,-32.55951876270165,-19.841497623883836,-46.80227456025498
110,30.140378315492512,-35.584413484706815,-29.774493210140818,-19.409688763999696,-50.33209680811646
111,32.84698090513941,-35.05205777916044,-30.02769593071453,-19.525368269072548,-47.61995046819006
112,35.00217661511617,-34.887085558528035,-30.140691693763333,-19.597323384151935,-45.4148778843273
113,38.67146687341464,-34.13990287622897,-29.88703935714379,-20.060451764583334,-43.00124409253243
114,41.24173566292141,-32.17497239819946,-27.482334153020194,-17.07206158936522,-44.15900623414952
115,42.606641226956796,-32.69448413152638,-27.785228855755012,-16.19484134548439,-42.62211763217
116,44.551494323990184,-33.29226379607278,-28.12979934003361,-15.39717839288884,-39.89197122247017
117,47.734054507819785,-32.893456603150504,-28.157927872967893,-15.17162165284203,-39.611729756938736
118,50.28004227426256,-31.528852973099966,-27.59133633847682,-14.851728001863359,-39.81017577409195
119,52.831328222827,-29.74769950908764,-25.608931983478172,-15.736438442837594,-37.954330942163196
120,56.338579941554165,-27.70023699409835,-24.54175425874998,-15.478148647389476,-34.39371460042035
121,58.690348505289364,-27.487381232161525,-21.0553913011228,-15.258164402188884,-32.930756143832085
122,61.59492933644186,-29.554662403087555,-19.775826586649938,-13.952838977631934,-32.53486066527774
123,64.05526322905114,-29.978999075036405,-17.38482178796518,-13.966475969717962,-29.76707847573828
124,64.78714317639486,-27.83676585230959,-16.72386304563562,-13.769143911098242,-29.37737675463455
125,67.75270722862857,-28.414425282229672,-17.260612828439086,-12.954153581919945,-26.168887588975032
126,67.98366644567862,-26.061916006221345,-17.26178821316403,-12.767114999950495,-26.259273389769287
127,72.83542213084318,-26.034398030262484,-17.4488406460688,-12.77575228928871,-25.723709614463537
128,73.51160127357802,-25.684528454494725,-15.274627158718488,-12.761658455637184,-25.7829132347486
129,76.59619166576148,-26.494661354209835,-11.802536486399626,-11.992630444860776,-23.708739824474083
130,78.33665670348337,-26.685262918714578,-9.685293625750962,-11.273314830169308,-23.68482214520226
131,80.58926119680835,-27.053114446766347,-6.8788683517740195,-11.491064173229308,-24.351024562463632
132,80.19522101882079,-27.506120183507083,-5.339091140823916,-11.277379773515163,-24.050499798371167
133,84.95225694934334,-24.908863548144726,-1.8619365396177097,-11.719196643716383,-25.777322459665328
134,85.64688765733304,-24.388847843299637,-1.369010406285007,-13.472517875394189,-24.399868884264283
135,86.68299293880551,-21.554602445990458,-0.7108950133719781,-13.247738495119442,-21.637517280645806
136,89.26699453489503,-22.24108505122118,1.0485626701837563,-12.734399571109485,-19.529205379462333
137,93.13701610710334,-22.121223545825544,1.0282816120374256,-12.65835733921675,-18.17270021946384
138,95.15236319988668,-23.083935853375852,2.0047784802423707,-12.60227413210663,-16.984465182363028
139,98.39987326130442,-22.720231696755924,4.313005922541114,-12.43414652176067,-16.90425606637273
140,101.50543485720863,-22.274048999890724,5.406728066864291,-12.310030591323951,-16.283423011974136
141,102.30618139277277,-22.752573406026034,7.551376381164151,-12.51244315384239,-15.386290751633032
142,106.04153526936224,-26.105470657696287,7.963712088909842,-11.996265026860554,-14.977272074277542
143,109.36309366865368,-24.205610611454503,7.869412672427473,-11.398353560628443,-14.349744912243821
144,111.9630376878355,-24.279201045114274,10.000016780084945,-11.411227127114735,-12.98576722357665
145,114.9870176323068,-24.19474247660728,10.449611517790865,-11.891720731186272,-13.011401094986308
146,118.83841921402126,-23.756947336998664,12.148735580508067,-12.154867302236838,-12.581919206892486
147,122.34852719685257,-21.996262993270356,12.004811095618551,-11.909972068216463,-12.500416725711222
148,126.53661214351035,-18.826526178776085,13.328572312055373,-11.988183868773532,-13.451919749937668
149,128.25442816427568,-21.64433628042018,15.538837459101355,-11.958213460359017,-14.43595505470531
150,132.73522066207317,-21.486128515272277,17.17963394364442,-11.440330974801332,-14.625803131650343
151,136.36419806564547,-19.486377291316657,20.861802974054253,-11.769309345115923,-13.422606501875471
152,140.37967925123633,-18.00972863913902,23.22852608261493,-11.922621810881454,-12.874600684206603
153,143.985575583407,-18.088857693513503,24.79032701629074,-11.112021047121594,-12.874682056543547
154,147.07119768487675,-17.9456031842193,25.523579292866167,-11.276668083702443,-12.621013110114607
155,150.22985531001441,-17.779598809250164,27.2984726601672,-11.153701703422998,-12.38352015749123
156,153.12323902759874,-16.902232586791385,27.99770132265022,-11.112252465228378,-12.451033381206479
157,156.39489812161287,-21.4199381065437,27.539063569238525,-11.232251114971763,-12.105610403577066
158,158.50815477632366,-18.422948389738284,27.853641214410544,-10.73927209659363,-12.139386853705394
159,161.60577009702274,-18.459638413487998,29.99888132261221,-11.021246983909004,-11.64551951810143
160,162.6951548106908,-18.31444714833848,32.29962462938122,-10.955602422784093,-11.725736221535273
161,165.48947559023804,-17.76287088352676,32.25167652664867,-11.098924583361605,-10.102863923302657
162,165.6132115887837,-20.072348794073847,32.53510530567483,-11.3218328283591,-9.690739905775683
163,166.76480652843665,-19.91740941510939,34.04814775508503,-11.940244298035331,-9.516641805457168
164,169.2166655348336,-22.062242561834086,36.25391180915447,-12.235656965222374,-9.378761889135772
165,170.09067736878941,-22.269916910648888,39.6092281190466,-12.59074355050344,-7.412086775046143
166,172.94396125133434,-22.09221073652267,41.49228777624634,-13.009106005136855,-11.95450148209198
167,173.13452304062136,-24.52530130256573,44.0443618799945,-12.738704387346113,-11.397631798828328
168,174.10718346931918,-24.347211938500976,47.06073421044442,-12.936141387933173,-11.954358717760336
169,177.90301946155887,-23.838104744189195,49.57074119622137,-12.57244859694904,-12.289049843066932
170,182.03528652174865,-22.09602218549674,52.55886814791931,-11.327565371618682,-11.74643332257449
171,182.17431046839855,-19.69929120081,55.871645742160105,-11.014871899566463,-11.822180343409768
172,183.03694195863784,-21.580920646446557,58.91498560903864,-10.646295810177582,-11.796114616266623
173,186.08100065409343,-19.91976986507357,61.70021082433273,-11.172598853993911,-12.124598238521093
174,187.50434036990177,-16.821808288277165,62.46488787338834,-9.660627396038421,-11.741435462326294
175,190.74691118750553,-17.594112195019715,64.34791006169438,-11.56420666935962,-12.503064126155577
176,189.04335696805822,-18.759542848048046,67.40190262582013,-9.29356985845298,-12.724093002076001
177,191.93405459920308,-18.279493722732756,69.60685330038297,-7.684715698707586,-12.030642521227655
178,194.9761561330869,-15.950797197474959,72.66818387927005,-6.701532720805021,-10.204233343586703
179,195.2296824947451,-15.174738565499842,69.83059908129701,-6.335564037580631,-9.902241524363296
180,197.92029325463994,-12.554428265841414,72.83768813102513,-5.702324893331247,-9.497697037371786
181,197.91076543421661,-10.593355755681722,74.58894939322877,-5.636172436236535,-9.889182862205189
182,197.70586886740008,-10.94047963681284,78.06066268956411,-4.542076465124932,-9.692509699779665
183,200.40072368808268,-10.866282220940956,76.24663182709814,-2.2524186157769255,-8.386841810359025
184,202.6985744138334,-8.817158454102122,78.85302781601271,-1.6721997673804756,-7.074087863881856
185,202.929057762752,-9.313643197139125,81.42484144637737,-0.9312474095677504,-4.9549057901445135
186,205.2025035710462,-8.237423839203519,80.67268345948736,0.21591267476464673,-5.086305653940832
187,205.38163014488376,-8.028192266448434,81.39672921032147,1.2958038861444297,-2.85013756374781
188,206.43556806727295,-6.949838152048854,83.4205798942271,4.344635493453874,-1.0580379416447354
189,208.7046304235612,-4.384130435287018,85.53271715899915,5.7825218452585725,-2.0015915848004586
190,208.972579963875,-1.334974942658785,85.71803338033178,6.279016720012782,-1.9367203641409987
191,208.67126184131573,1.5258592737597645,86.81895129754912,6.961433535516164,-0.3817879235783688
192,209.2975637528158,2.4768778212533906,87.130615582243,7.308792912702136,2.344316907875392
193,210.14700163193268,5.574631215248314,87.57532529446354,7.957741630882777,2.3557202192039735
194,210.1492537518001,7.818942018447679,90.11843833446777,9.941596592482243,1.8058558787302195
195,209.46371356420593,9.704120315112876,86.9790051694374,10.143813483762575,2.1723972302254766
196,209.6794932694973,10.475508276223998,90.27673990647307,11.299188930344899,1.8800455120601354
197,210.5569914126956,10.188369019570654,92.63615204355979,12.053230910686946,1.5557003828165727
198,209.9390196826568,12.032005101754422,94.76411866060862,11.982915955256612,4.861173527739749
199,208.55735403886226,12.613301063278143,97.65013453426329,13.137606170006443,5.173010625916952
200,211.17782072758112,12.832792536968931,100.07773791240886,13.929767097202184,4.667401912162344
201,210.75316599238485,13.232716681083481,100.46278689671875,14.611805027208252,6.910379176217768
202,207.25740210443396,13.341392483004547,100.70172723929761,17.520121682409545,4.733764162781444
203,207.76043536368093,13.897376939496155,103.80476809093437,19.96305897733619,9.610882714541999
204,207.9648384889964,14.23556601754854,106.67024016294832,19.75905892596727,7.5234499928673415
205,204.8922120009582,14.177522789328295,108.60120757829101,21.66731298751497,11.212454312450276
206,206.04682776933024,15.52806899846214,111.13850979053669,23.03332247637685,11.138386204254084
207,206.10506708673125,14.668604885707223,113.67078088967008,25.425363202972015,16.64504578390315
208,205.3503301541025,14.886140148220045,113.5964872315813,28.219135498202846,18.74338497010121
209,202.7223915319614,16.078181317439785,116.29847349146434,30.27051845526511,21.837402338380436
210,202.85189180173688,17.90967533038716,116.42314756659778,30.265802022452345,28.16335838160322
211,203.2446109564527,19.885420428113683,118.99985373310899,33.36162446189176,28.44157891151321
212,203.6731483401344,20.110765124084246,121.78023009527794,35.889566186807265,29.430794086908723
213,204.07442471129104,19.95666590139998,123.86214971596796,38.95406460398472,29.404391445442347
214,204.23755914610285,18.26167994508093,123.41082847460522,39.112018542375026,33.26377573507384
215,204.9110029883827,20.847588673984983,126.65184876153651,38.14808612129528,34.74700655033812
216,204.95125390004497,21.214506799223226,129.61743790703093,40.36572813960311,32.45673296238003
217,204.66773861316952,21.38928694582611,132.2008585484209,43.10691777742607,34.70819432301038
218,204.6458323193946,20.19825901907428,133.80103588037414,45.38889005719051,38.609057073396166
219,204.74477287707873,19.480393326460266,134.68617298692155,48.444078541764945,39.92202390306825
220,204.06506139328567,20.190686170350187,137.2836310761996,51.61115829968698,40.63692667400055
221,201.74840289025312,22.519501454997563,136.19140226553634,51.54286225189192,42.791374723985484
222,200.7776126296684,26.964775347959666,137.53503046092425,51.579002934064164,46.371824115982854
223,201.09695143659377,28.95591136492269,137.79203599721814,53.86003204312428,47.44701187220503
224,203.34761847659178,28.057670590913986,139.6760347199422,53.443857185820185,49.965125572066206
225,203.36930192692515,31.148035717453112,141.79673826150872,55.7365503624038,50.27171720780725
226,203.95916470970522,31.14495022825375,144.5532468335822,59.02668699752355,53.05150437865982
227,204.05880817271557,33.77921366892767,141.788724885391,61.524874362212614,53.023331185770374
228,203.40716798852387,36.0224156835669,142.14743965750552,63.695834023733724,56.36099203055269
229,202.86401922981977,39.43233505104776,141.08593816063203,66.30834133791649,56.879351293833686
230,203.81169524462177,40.0081622506007,141.350677433824,66.16850623685158,59.37053489808753
231,202.2800490587989,41.89263320684873,140.6106914828704,69.28824546001798,63.08203170386005
232,202.7433281874554,45.08939915149537,141.5152966057924,72.21041465144405,66.05285842220896
233,203.01875134869374,45.299812182624535,140.85597195265947,72.52216870609628,71.26867755047921
234,202.65223945196533,47.37681620542747,143.14166121167762,76.3067458271939,73.38729122960885
235,202.35633399845526,47.06871981789428,145.49967105958768,79.16733781313275,74.47460536232558
236,202.85013662506933,50.27955183039419,146.6089358143935,81.96491046362922,75.08238065342906
237,202.9020078197217,52.44161165189615,148.5718411177463,84.69742780769695,77.418166146381
238,203.68345202645634,55.8308238662892,149.66212108699364,87.2154329249709,79.85665136202326
239,203.4047316940479,58.03227305716743,150.34142188339646,89.89402266104298,82.74758706533657
240,203.74639359163527,60.68514212810679,150.79073976031611,92.82617587532403,85.8683593083557
241,204.17963239700256,63.76131470823876,151.3794739819436,95.71208550141417,88.25088095560925
242,200.8652611196988,67.74743786285005,152.17184605271305,98.6225940050505,88.52356878919005
243,199.96185210963102,67.87210171270387,154.1998777904321,101.452437525512,88.5266312847049
244,200.43753565605803,71.36212364614425,152.6487951438485,104.27419609585132,90.42680506146132
245,200.7416627267684,73.94205593878277,155.27089358380846,106.62967844123209,92.50534878332569
246,200.69954870193772,75.18207013287493,156.77169376849383,109.26695183968623,95.5477898180289
247,200.79581311307382,76.25251834834515,158.1652821882437,112.27725953468327,98.15292818406346
248,199.8648044740199,78.69560448351244,159.4256674778022,114.43368150180054,102.91759450259248
249,200.49294273899,80.93406046216266,160.53700956503633,117.21493148571199,105.857134349949
250,200.81228741058126,84.00722094330365,160.51487366136192,119.3071803621186,108.17230338404136
251,198.47556648838543,84.40968417264332,161.3867492325028,122.0193602169696,110.52085611861358
252,198.16449186476694,85.40492736171143,161.2004629576705,124.47273716785595,113.40067270954314
253,198.11639348847825,88.11942897662378,162.22975536428845,127.12963339367057,113.71370923351664
254,198.1147755194999,91.12929802030274,163.88787733951617,129.1805634902831,116.09947641786704
255,198.63983587022932,94.43142969202071,162.70523718063868,131.76839727380707,117.05687957031097
256,198.90249053613098,96.37904759230369,165.34710500214803,134.2238946150784,119.67953699865295
257,199.60531270238332,101.41294203350091,168.9895035788439,137.06232686935192,122.00719676006585
258,200.37608895169697,101.6584669487798,169.5583934809915,139.42630593483796,123.76719473667559
259,200.33422307249003,104.69951023312915,167.90445902673844,142.2813993224056,126.7642682876239
260,197.52104644683695,108.9857234063161,168.1136019947209,145.02408995209345,129.1331332434295
261,197.94321343138122,112.88702354899053,171.66779807114176,148.13698818528593,128.9408778722498
262,199.10568470986775,115.61762243259739,173.26461408174785,150.5806545603194,130.5048145220367
263,198.7267465020751,118.34176406125484,173.50797906349337,149.6074064269976,133.23077314602918
264,198.28572422918128,120.66622541977814,174.29087410652315,152.05892826297907,133.41765914950727
265,198.79976406688763,121.21166354803205,172.64410609409532,154.5572770172764,134.6895516486005
266,197.19618043426402,123.76691045298938,173.3566821692932,157.1784654568079,141.00830503534715
267,197.1370468300598,126.81748808408831,171.63858594675406,159.54472273662853,142.73478225828418
268,197.5726172760273,129.52228473550767,171.99303599014803,162.73341215495282,145.79790547373878
269,197.75824524131164,129.67307576221774,170.80736087715673,165.39261118468235,148.42312022164344
270,195.5772688375785,131.33256405912587,168.50991586442487,168.13029805235635,150.48768970417416
271,195.1009361549926,131.2728951319727,167.85406023933515,170.41999267943365,153.15913018124823
272,195.86678047062426,133.32209745499426,166.11422389160623,172.93986905803257,155.37052190206165
273,195.92303578755778,132.3836611252805,165.88329740524426,175.6577886976445,155.68910557582646
274,193.89427094615476,131.28776672335138,166.77089828957685,172.9341319558414,158.01668777954308
275,191.74743414876318,132.0112814265548,164.7535869693779,177.30064558266014,160.99108184216385
276,192.02886380323434,134.3140755635894,163.17383199639045,175.2749840804416,163.7157255555512
277,192.06542781981477,136.98519538640264,161.50863555327808,176.18977640790604,166.25216712727243
278,192.66628535446623,138.72350682494738,161.87231626970186,178.4576025049194,167.50255753080017
279,193.0694640704931,141.07138463546005,166.758558485815,180.49886780899644,169.59205109654758
280,193.19549282025574,142.1325731356712,166.47320990777524,182.5859586762568,172.49426654000425
281,193.96674586190028,143.7065930295553,166.68295745239698,182.74954604880168,174.57851470600974
282,195.09398447586705,144.2209561058553,165.9182959728397,184.14052602643045,176.676584036867
283,193.62094657708764,147.0436590073792,168.25688533552554,184.92488509908827,177.68720433415896
284,193.88158656129318,147.6692060469107,166.99286997833016,186.89219725246272,178.70225183519995
285,191.1548756386008,150.9415468327106,165.01302095965727,188.64001605264494,179.29039616311235
286,189.33696955018618,153.70069782460948,164.97942866200228,190.5054519999423,182.1015035463084
287,190.37476847015452,156.72311036628915,165.1128849974116,192.21425611618142,182.61096015585733
288,189.0676452689314,159.12523094078017,163.0500137780789,191.96260928143158,183.94183021576492
289,188.76987152752787,159.94831609832337,162.2489036360004,193.24012783132855,187.89332926573857
290,186.6806682028204,158.36523167677072,161.7783415369272,192.5523231662953,188.30920913949907
291,186.56414131241058,158.57241911588216,162.16682396107478,194.23573690163445,189.4768939047003
292,185.85466663053003,159.77022616901593,162.50384643832365,196.40104369980406,189.65337606762492
293,185.19084470118793,160.58690839440652,164.6594962535008,198.62693691511222,191.86185890878548
294,185.37559001834805,160.9977274214064,163.0235754596132,199.7765529384278,194.78022567101863
295,185.7349393140305,161.45839834891035,168.44549714033522,202.22646031738043,197.37933955930737
296,185.64995735885532,163.4614925949287,167.83783997995448,203.1263774754411,199.92942337035612
297,185.69152220372737,166.92091265619337,168.23054910393068,204.64127535209033,202.9408655499259
298,185.38753413725976,167.44545511408657,166.09829349111243,205.88111373604806,203.42587616514257
299,187.57111145744994,169.63620298779367,161.2644065268427,207.07145773061512,205.6523924556617
300,187.46444095475002,171.7575142423312,161.4942349352086,208.81586893579765,209.35960468865932
301,188.4417387387202,174.3485588598138,164.06070682365382,210.87787536380168,207.09852193258882
302,190.8354673243213,177.31707471434436,165.84029370429394,210.73802911674483,207.28701100359794
303,190.93703292119193,180.11003300475693,165.37326777101697,210.60361798065333,207.83520283808255
304,191.08039959058456,183.0943576209428,166.8909038784577,211.89402881971523,208.4861511074419
305,194.4587304535483,185.7992346976006,166.94491307181943,212.39517873933397,206.803544749405
306,191.8206863526401,188.17258770553187,166.94329379781308,211.17349406110887,204.21118521369416
307,191.5825976339047,191.56346031879482,166.8032396429855,211.52715131426802,203.96800219196055
308,192.24425035651032,194.416043705685,167.33520858531642,211.4514880675559,204.92897637430983
309,195.4682771847904,195.27194945080092,166.73805763350006,212.56882312846722,205.3664133231722
310,195.37746792295454,196.4747820809236,166.0008722635774,215.56850073358237,205.20712762117827
311,195.50315933032618,194.39788412607038,165.33808628329112,215.17399656699538,204.56440850028528
312,196.24776888366878,197.0144675144479,164.31191939442076,215.46197947483438,201.47951210884028
313,196.21189059215078,199.44571097731435,164.5824728188579,215.21690002271677,199.25020646667116
314,195.70251892765305,200.94048449630154,165.08928757896203,215.3542238183245,196.5778491699446
315,195.87561361868092,201.98581971909786,163.0630545588166,218.1501770443292,194.1432304519329
316,196.6985824336381,204.06853032359754,162.8504554567554,218.3190149097258,194.03935372352342
317,196.07209393691053,206.37172270486653,162.1145182990045,217.7129971249626,194.7084193559554
318,193.29977457722336,206.56279102904764,162.17692900554644,218.2823619198186,194.64568856787207
319,189.414763785791,207.54051967458471,160.21715879588976,218.33720488686765,194.49045107815493
320,190.1264643793298,208.15301317672092,159.53474125736975,218.3053650296003,194.30717039601205
321,189.17902515868838,208.54389803123962,156.71903526532668,221.04109663321188,194.5451399574913
322,190.36486274400653,209.0062060074129,157.74428644037417,223.0875034455159,194.66512320725383
323,188.41633529879257,210.18545022201926,156.99565631748052,223.6524735753128,194.26453580137706
324,188.15518393001247,212.23488954210887,156.3798281691378,226.59121836255585,194.2722898658694
325,188.59743650546844,213.1311120676732,157.27150570852453,226.5356057926681,194.01094813840777
326,188.37331073221634,210.78999335423146,155.1179874110775,226.19152402155967,194.39649448951187
327,188.31032254005396,210.7142109584919,157.80757750536867,226.54832683129496,197.19359205817685
328,188.91863713878425,211.4059478193909,157.29177189677762,226.7690184242154,196.86174238882856
329,189.63113579688823,211.3280162025575,157.94829787839976,227.1016299179498,197.27950826019384
330,185.30196156090105,211.03668022651058,156.51786668012005,223.9018918896661,197.7612890361604
331,187.63188622490637,211.68760987982824,156.85503926501138,223.91114675448614,198.08054137668015
332,187.99892827390605,211.91365874488045,156.48030009499655,223.68750677165463,198.1703308801715
333,188.08742904744332,211.85333979411604,156.37773435356343,226.73506633596438,197.87792396066914
334,188.04562641895194,211.98203987022112,157.0719177053027,226.72830894543392,198.0322218158666
335,188.34475189272496,211.59843007662192,155.71301055673948,226.88594865418617,198.43230171832678
336,188.46152244813428,212.5150982816291,155.607065913804,227.2357788157512,198.38244372587968
337,189.14586320103598,213.3318410312613,153.92284963374235,227.36107414313096,198.40916519139358
338,189.22304878710622,213.41884546017934,152.8423602903887,227.39582177251776,198.23783675034167
339,189.27794529504214,214.35474846098884,151.97010599480268,226.04124350527073,197.8926021221104
340,188.92417116370524,214.74391318754127,152.37169925586375,226.0319876362217,198.20034775743395
341,189.4668606899587,214.77103049768527,152.84917710854555,226.03737743241393,198.22101244075188
342,193.00224706486782,215.07267029934528,153.22315498300534,225.68569995382518,201.08938638720988
343,193.3821070921526,215.62627327617,149.53642629092016,225.57070945099113,202.78382018600948
344,193.60162670789853,215.58574601330042,151.6368184612353,225.21382653152793,202.78851949839975
345,193.9687044435525,216.3274246936969,150.87452898083703,225.80798340918747,203.9723751751062
346,192.0137269411923,216.7237785238662,151.34760547566347,226.11919546700085,204.20675733518405
347,191.97923124232696,217.11875664758333,148.04328454417427,225.72817519287855,203.6507744202418
348,192.85427231814108,217.43299782682817,147.54345999201206,226.2028567194745,203.71426265413473
349,193.41390813949337,215.70286782852443,144.54399968543805,226.01457008856337,204.23198614106997
350,193.20954960996593,215.83826295561713,145.27330564185704,226.07280759739558,204.6384787746756
351,195.26119056234702,216.08833905449376,145.66892102486608,226.2541977836785,204.59348597496916
352,196.27387993835796,215.22759659550488,143.65913094634143,226.40638289807717,204.4190774942416
353,196.5464774505583,215.30289692488233,140.68037842529438,226.04880409963334,207.72083585424295
354,194.83601655507584,215.5343493644597,141.22322605799056,226.42885807761087,208.29289733309125
355,195.13486448286005,215.64466469809813,141.3488667617535,226.50300944030494,210.65852876953312
356,195.24120970515492,216.05726342180503,141.12483419889497,226.41887912842242,210.9467259541972
357,195.5207109298729,215.85731726213442,137.90342901224963,224.28552597829662,211.59357743365825
358,194.58900575152634,216.2623636399819,137.69207890079372,224.41788047063798,212.48545869342345
359,195.13163802416832,215.82021638942024,137.21050102603823,224.47002743501204,209.7261943848667
360,198.197063325709,215.93713844732966,135.0914866643038,224.25287689050467,209.79475367338506
361,198.00476929512126,216.71841929752816,131.68522990598504,223.96533695952527,211.15919400494857
362,198.00975677694336,217.04538730634985,132.23540780172655,224.12478820666038,211.97226523272525
363,198.86487558234072,217.4739920950808,132.8825548469849,227.99880900068902,211.98910585006547
364,199.36709197958996,217.96659005613773,132.5676238847677,228.5057105817476,214.4892328263578
365,199.51994208768392,217.54183838818815,134.4189410177608,225.94703261965276,214.32858658636604
366,202.23728118246996,217.7743524639352,135.20756119869984,226.11966081364824,214.32890237531427
367,202.37077348744984,216.62652576382186,138.13720947095987,225.95263435465301,215.25925521868263
368,202.36138099331464,216.5364772295234,137.90067907573223,225.6071477810686,215.357658313497
369,202.59352604805164,218.8479523698694,140.1754804905509,225.7324587333386,215.8053386126308
370,202.62787704669438,218.3520090875232,142.92177000435785,226.06095427971525,216.20873624249668
371,202.4816088965714,218.84663590269946,143.2087529451121,225.75027344157306,216.35597999227411
372,202.65865610547164,219.95804123672656,142.43400315170913,225.5200921094213,216.34022834596476
373,203.14252209779005,222.7205002714385,140.16256329269777,226.06216963464868,218.8386434992121
374,205.75332917146122,223.53818970039413,141.63675391728185,230.02003259139963,219.7687079701119
375,207.89930809488203,223.72989092783908,141.92183709495484,230.4401736871462,220.7403056506487
376,210.2090492655196,223.6498326352178,141.96177114845773,233.24743646957006,220.2981782628055
377,210.40754174458934,224.15979929728564,144.4636026033409,233.54147006973864,219.8683156752809
378,210.36282613835544,224.21182473347727,142.61289759217135,233.86108888317028,219.5751535712082
379,210.38237489388783,223.91121897987406,143.30933421291329,234.18367540903623,220.36803592864987
380,210.90716855872432,224.01814689478255,142.47797255943263,234.69432473077705,220.1150628971183
381,210.6189147639219,223.58233121202932,143.46790177555795,234.67981607529384,222.24222910689275
382,210.4347089107176,225.4199248899775,143.41480984510267,234.95944793643474,223.09268194638804
383,212.34471842740078,224.5767355906661,144.17056871490828,232.99652279660123,223.27692092330784
384,210.00420177694886,224.46969380505638,146.1476981889655,233.19618291578843,223.19949559270518
385,210.75692855810883,224.46572049932473,148.94992827317736,233.0347348982939,223.06929406867133
386,213.09876044039572,224.14360614035647,152.2413403075287,232.9575591660605,223.01269832453684
387,212.66880970108582,224.51744408273134,155.05460452481418,233.2435253182632,223.54766656836702
388,213.99005730690934,223.95830267606524,158.5602741607856,233.62539963798744,223.60258472829565
389,214.36968980014407,223.8239612235028,161.15993323692527,232.22186992174292,223.55924448613428
390,216.96199319957157,225.93901439377515,164.8436198724431,235.10210798426604,223.21614692905794
391,217.63988539797845,225.91100442898568,166.35862488586596,235.5452746354373,223.11511488074197
392,218.55825399986045,226.633682432595,168.07798226369422,235.95088597796766,223.38652945886872
393,219.71237137518673,226.39359563402795,168.13469885284357,235.62659813158768,221.75249311469267
394,217.25546020845258,226.75935204772793,170.29507977797178,235.7266467298524,219.0429074733004
395,217.3985386807518,226.37602116373782,170.6837839546581,235.7554569025885,219.4427260688783
396,217.64148955389064,226.17756793500558,170.94715868590018,235.93107830762642,220.02788996162167
397,217.67650926719813,226.7100320271469,170.03404381424886,235.94236477972524,220.29597152338064
398,218.60894663098682,227.297217546997,172.04941580753734,236.78050626425522,219.96752302938924
399,219.23622915200409,227.43371116279897,176.51482536438832,236.5734128833246,220.39595028848763
400,219.1493388755216,227.16069575249807,177.27648596822058,236.42104434746784,220.34978816837867
401,218.83075440500596,227.3736885090982,174.97117291529355,236.50422184566898,223.45244007508026
402,217.0211772809455,227.81120903521003,175.6541525408267,236.58028298565338,226.11620645462878
403,217.19026114982972,228.28444849818166,173.61906831517538,236.62959262626694,225.77962183114013
404,217.71120265138873,227.8264388722063,174.5068865548027,238.20002949056573,228.3672974363534
405,217.71324233891426,227.8160837652045,174.89945629471146,237.97561645892083,230.89520815670122
406,220.25746930310186,227.65051869317213,175.17627544159032,240.750694053061,233.4123181881079
407,220.53556751693625,227.69277781311987,175.69252470442933,238.54430423657908,234.2077539826738
408,219.78859976399758,227.26424111355252,170.2808968119046,238.82180312763234,233.9939732510476
409,220.02283167511553,227.29147350533358,171.04961338861673,238.43596494325925,234.4962224965557
410,220.0838545430262,226.31986152954826,171.34164040798,238.2971949206923,234.37693797670866
411,217.50415920655928,225.4014995526251,169.99420309601038,238.19943023753206,234.8353105156296
412,217.45105069102814,226.1160641896014,171.39929777858535,238.48704478651038,237.9262759245449
413,215.24747415569817,225.83485408826255,171.65446154134688,236.2727565573308,240.6350083563483
414,213.36022458716837,227.02124759738967,171.93944683394562,236.3250794214265,243.45494011280817
415,213.65647344659206,224.47511636738034,174.87703344498598,236.93844301770295,242.12009897848276
416,214.29704785045888,225.3695930055106,172.20200187849971,237.09154818396496,244.735265406524
417,214.9587357887561,225.42960821332287,170.9609299616849,238.08907068842421,244.77536867509403
418,218.25868712670047,227.64559131925395,171.7913174251537,238.09142758191035,244.98781289674437
419,221.81002086541062,228.47712365565943,173.23711918890098,238.35691144684978,245.02974817915208
420,221.60032124657246,228.2431828687021,173.1241166404735,238.66899654563596,245.03834527708634
421,224.9159698603089,228.39829472859932,176.68941217417367,238.29722701864333,243.48552243363804
422,224.80686130883183,228.05454614024603,176.47035381347644,238.63877925574954,243.5659132272298
423,227.1537144810457,228.23697445226276,176.94050967279097,238.27198493490891,243.76904656814713
424,227.26170825862053,227.98546133184817,177.0984608795908,238.72066980420254,243.71492076924144
425,227.21373257530115,228.04944097743265,176.91014734758133,239.05913870705314,243.816389558581
426,226.86857447283677,231.0765161020312,179.33464308082486,239.1719329182553,242.56156669248546
427,227.4380806606276,231.79527337974974,181.42419244381688,239.34355761104018,242.41213029970922
428,227.60362243098132,232.1799444306043,181.87217358791156,239.40574672198917,242.20596606621598
429,227.64189324357642,231.88348006646729,179.23739682198692,237.00695301385556,242.01408907169636
430,231.5173206501161,235.22055299519613,180.6430512500994,243.2342264480195,241.67322717019485
431,231.5842341733351,234.59575879095553,180.74309347612362,243.0963413933265,241.7496120818052
432,231.12254510260647,234.35042486297422,181.50540336041087,243.38477309212797,242.1112451748313
433,231.16065656851896,234.53233346598273,182.71915586658156,243.39796592745657,242.28584298964924
434,231.5722782347575,235.0569090450311,180.62977654894192,243.69696933338253,242.18408936617715
435,231.9052122352283,236.0388941077628,181.4414784653845,243.68242780111723,239.7623191978086
436,229.190888878392,235.5913923875074,181.57377583374418,243.43777532187804,240.1357588402095
437,229.38828626367888,235.64293712379717,183.9681386105783,243.68959967763462,240.10220775592865
438,229.68185910385432,236.3181940768201,184.7980557456879,240.65914447551472,239.98940232434157
439,229.79069089167166,236.301419985506,185.54648343958132,241.89879847295782,239.833905900039
440,230.54399668622202,236.25633385588333,186.08878405981355,241.79636195821513,239.7778044322601
441,231.23769637478523,236.23230270688222,185.57926984083645,241.58352180250546,239.33632150288892
442,231.57595917238672,235.94313393920947,186.0393452697913,241.8775136683065,236.09003839849476
443,231.93877087821124,236.0562756271378,190.54620914998554,241.58347976442315,236.60625132587916
444,231.85640856053726,236.09641908566746,190.3936116802899,241.79353167392023,237.02759935772298
445,231.38194160726988,236.3429743147443,191.14006985408315,241.33749940411263,236.49035293011298
446,233.34295700970884,235.8503145308088,187.827344305949,240.92203407365133,236.19134259927858
447,233.78933349294664,236.17889636773882,190.55805464770765,241.03833923843237,236.71711381681789
448,233.8084944068769,236.7104131732148,191.10447662394407,241.46452748277778,236.64923119894397
449,233.29772598722516,239.60566732036554,193.8837905022491,241.56922764103498,236.47330726131153
450,233.34436624718833,239.71789748229406,194.31441048315992,241.78409304874788,236.86518438977566
451,233.35116039622832,240.2079129426063,193.06599896335928,241.69277707723865,237.03313760372524
452,232.89516840657382,241.78882096116882,196.43086297441525,242.11327648506173,237.0738581189289
453,230.16112096236662,242.47466356191322,199.19114448901055,242.0350433808431,234.4014845675079
454,232.96639149228602,242.31287229933147,198.25758200607396,241.94965871970155,233.98508392413672
455,232.72660285033606,242.86630512878546,201.0608524904544,242.1899282695912,233.44942448303595
456,232.27332711576088,242.57269549195186,200.5479778979213,242.35077905601105,233.52360173371656
457,231.98703520611878,243.17980912252114,202.50476727227718,244.33126756368904,233.55733783940283
458,232.73319390376003,243.1758892929122,202.80041944810225,244.44695082143735,233.5595155484447
459,233.27357724391533,243.8362166424584,205.81201128811674,244.3033029472309,236.47795580863362
460,233.26815924887342,244.7002873680363,208.07386192512183,244.5734414225951,237.2535392350105
461,233.3809375077915,244.37159610517057,211.03261663782584,244.3749553512837,236.57173043628026
462,233.03464814340518,244.4635778354252,211.04313027515622,240.3965622054184,236.7948854982364
463,228.33410384454214,244.17782488893658,210.79661549771782,240.04724089351276,236.80322535341796
464,229.1811141667102,244.04940359549312,208.1377832223626,240.17597317397028,236.42088481132367
465,226.2856666955538,243.92729569232878,208.23995734495068,242.7714484906637,236.69395098285608
466,226.07693263417764,244.18813438185109,208.1726989317921,243.0203200937885,234.38874062549178
467,226.57474022721016,244.62415005361868,208.25673736084028,243.164301482801,234.42951114846096
468,225.98528856040787,244.9893988660457,207.36672859180354,243.39424463619946,234.53466253713185
469,225.26980191368528,244.8577305695849,207.13659213153477,243.1630860029849,234.33644918976677
470,227.51120233073095,245.0807573660082,206.57020561933172,243.26118446082836,234.24782768546225
471,227.8447432778847,245.45760448481022,207.08727704150334,243.7054251768532,234.4028990802483
472,227.87014182469053,244.85837590469558,210.40079993465318,244.16280087715688,234.75274280686202
473,227.49921034037024,244.73856043305122,211.2027828422306,244.0058512555787,235.4225095303677
474,227.72903844393213,245.11108972645314,211.858573146091,243.85106055210093,234.6481935622939
475,226.72755302829094,245.74653278444853,214.17895609509594,243.32579779866634,231.63703466088032
476,226.48784853712533,246.1142405310199,215.66385614098516,239.77085000008717,232.1223676259957
477,226.19307037037825,245.7452802819516,215.9146130057086,239.56801718896327,232.40151606069918
478,224.00900276072556,239.48953000162675,217.93080819579234,239.6455904010207,231.9081310908451
479,223.9249681669131,239.95725607027936,217.48148601158132,239.35844412002035,231.76207868395332
480,220.9490850126198,239.5756763928126,218.48658212943627,239.22355892278873,232.00073580831344
481,220.79572270893425,240.33463705343326,218.1507075596351,241.92062955470655,232.53559019311749
482,218.2463469092298,240.9720225440828,218.2818803463341,241.88302466944893,232.1271540231108
483,215.7442522183667,234.3874416897058,218.54020446159618,244.22303594809736,231.59021835265827
484,218.17289808016227,234.74798990093615,219.17499896277334,244.85206932184667,231.3223411153123
485,219.45371406211984,235.19421457037245,215.6431667420542,244.74139631346654,231.08993586563832
486,219.8458902734179,236.0971857895098,215.47906943954672,244.95107368101165,231.12056677630818
487,217.53141885218588,235.4953070590108,215.4796187221656,244.4491350736229,230.44304999167528
488,217.45750524613402,236.50775242063685,215.44133938824135,244.58064104404454,229.800704060329
489,217.20467454621286,236.4912438355324,214.7449402730367,245.43463061865975,229.59395431570522
490,217.3674898786148,236.5863212963449,214.38463980335277,244.55359668270634,229.97258739256102
491,217.4715338157795,237.00665311794216,214.97603969559634,244.51994210370123,229.95770224286076
492,217.40735743274908,236.49060610323494,215.27139421290028,244.11501721077562,228.89625489225037
493,217.10388537749427,236.75482691489952,215.85555306931627,244.17783309230657,230.8575626433251
494,219.84324712856522,237.0240615653662,215.95869612246108,244.05161460889423,233.80852804736102
495,219.37310801983418,238.0028342199172,215.65062932207329,243.85522786663427,232.59409699152235
496,218.96144328485724,238.62973425456596,215.68707481998214,244.21047937886112,232.53854126049316
497,218.83593363795063,238.96432019030718,215.98004627292565,242.41322069997287,231.90949866881957
498,217.9988506384204,238.69110838296834,216.6495139675713,242.99445663251413,230.54718197249116
499,218.00857263991725,239.33911979337702,216.40907894288878,243.85525457660276,230.20444530587855
500,218.8529850783845,239.90464894303622,213.90960369935402,242.3854177179639,230.49341255333613
501,219.01296110574836,240.16158344675944,216.458182482663,239.87920479108735,225.9320638968171
502,221.86833774652135,239.85250498132922,217.17508931045643,239.96753519660425,225.61698201201406
503,222.0414479901586,239.6953897742019,219.60324277556654,239.87245480633143,225.51499085948507
504,221.82612830870366,239.55409693220972,219.4784552685426,239.79106127509257,225.55125397109853
505,221.76755758342972,240.15748102585846,219.85125494540117,239.62356105932741,225.521538842414
506,221.40638494915515,241.06524533679251,219.20245014682916,239.48326829166888,226.11427259814957
507,221.38694474018266,240.64874327742734,218.7321981129413,241.44078432019086,225.84862115075666
508,221.95240901451777,241.2976816836389,224.87503605197867,241.6043509518532,223.0620912832466
509,221.92857373997845,241.38495134860554,224.69823209822022,242.1344688876339,222.732137621206
510,221.51948373802563,242.08473940725537,224.8425272986456,242.18203205101744,222.97451648395102
511,224.12591602489155,245.50160761214352,226.73417641778877,241.7746178847215,222.53604843801133
512,223.92147771091942,245.28527020115467,225.99926969814337,241.58508856908637,219.79290189463595
513,226.3258242853477,245.9081593901528,225.4393399193046,244.33594776572252,219.68275553244678
514,229.15046582573422,245.64865243361328,225.47955347780342,243.95533366168993,220.19145270943892
515,229.1319387225647,247.93127329257678,224.8794665052884,244.02929948944836,224.15309396715094
516,228.92409573424098,248.2597653022156,227.53340882743404,244.08131305268398,224.2259464687835
517,229.10289262063012,248.7819777498592,229.07134211196833,243.81776858803045,223.7520911341706
518,228.92298108689943,249.19760048211305,229.37650131147169,243.67082616050152,223.80323609526062
519,229.58583453449006,249.534188206204,227.4185847032253,243.26950117516108,223.51041371267237
520,229.64918425143523,249.77043702874744,228.23775527000674,243.3354748104873,224.19267883435757
521,230.53204465919345,249.89786617457085,228.49414284135892,243.47559870389844,225.6701733101427
522,230.3827415983826,250.71590091192306,228.49299198076494,243.54257403389317,221.3973430910211
523,229.99074403285266,249.43915966110902,228.73040171924967,243.9795938253927,220.44856782104955
524,230.23666562489495,249.83889586250163,228.89458415403573,243.7770972519048,220.79273325314537
525,229.74388170187666,250.06809956373846,228.72108346041404,243.42448755491895,220.48317575399022
526,230.06938779410402,249.8405658904947,228.4150244343514,243.28965482003645,220.8087687124406
527,230.11561587741093,249.75016050981438,226.41178803911663,243.23476046150293,219.48952799556253
528,227.42613123286898,249.60951936812046,221.14054969773483,243.52426642524003,220.10476008342152
529,227.37729738465424,250.1394746758247,221.2242166570942,246.2612204729895,220.52391115238532
530,227.8213437994405,250.26467788119203,222.2568576859558,246.46874294663124,220.9841722210125
531,227.74677153512,251.3314822387689,220.3936234109432,246.58908977800428,220.2559025455438
532,228.57758085135183,251.9309988461937,220.83814351582515,244.03213638715198,219.61932624729178
533,228.48858294794496,244.3772987903336,220.5386576511927,244.12217933088465,216.9125099390114
534,228.13945356572052,244.34381765991665,222.45947687008538,243.48557728057608,216.4846397404385
535,227.6612373235183,244.11153083583386,222.91217428782286,243.76281167377624,218.00649944838608
536,230.4386014539933,244.41960348706328,222.95218273506507,240.66880070864875,217.85360065190477
537,230.5743706432452,244.48558311893004,222.95602225661932,237.29173799792633,217.13740425542193
538,230.7424987234886,244.2576165570711,223.33299710808657,237.40778563807865,214.8227477121756
539,230.70497934780053,243.7210203008405,222.9840404101537,234.71896955821504,214.69912881437614
540,227.64690367575656,239.3226881599436,222.77997719515514,233.8980461385992,214.6895920514734
541,227.14501038469814,239.39458785347233,222.5635073089495,234.05297522041644,215.26613031518397
542,226.66528730554302,239.21960174352233,221.55420482594633,233.8796075401364,218.28634936024184
543,226.89770295385924,239.3669569427154,221.7793559399637,233.81816666995047,218.41253708780562
544,227.24215995174833,239.9421096001358,222.05517995725074,233.44043982026574,217.7225543615832
545,227.52839111168097,239.93103787267543,221.618824885651,231.13839535583594,217.96220356102248
546,228.04772564742575,240.27583748168152,220.7034578425547,228.88509836765695,216.96185123370114
547,225.66430237088042,240.37717434110394,221.27798275783266,228.49160804171512,216.6357520632135
548,225.45550972535858,240.65479133252032,221.1028767686651,228.0417307263919,216.65130123289032
549,225.83838395601018,239.65793367131226,221.25177137998872,227.68531967434475,216.66822149491534
550,225.77661802979387,239.66591974297765,220.92460244755443,227.61754685291288,213.77402556442368
551,226.45491962003106,239.7698157978084,221.44422870336695,228.02733850266534,213.27283488277888
552,226.38745224925202,239.7508398955153,220.82455654740667,227.90694488483922,213.27349535249326
553,228.85844033221431,239.65863319755158,221.00873078961516,227.58003250913663,215.01592604088245
554,227.7028927172214,239.94369436936464,221.1583423855226,227.04696132040522,215.1333561474684
555,227.50861618755798,239.48988820025053,221.019082569734,226.66245104900563,215.6871873405688
556,228.37936474207822,240.4509882154699,221.2107695135965,226.15169152441268,215.84586125863018
557,228.26501223620863,237.5081295911651,222.28781725977274,226.5845971305167,215.76799898497663
558,228.0959975027783,237.16322094942595,222.69259368820622,226.404109134236,212.73490347528778
559,227.87087111577497,237.2846506680315,222.68625430468438,226.55977466315144,212.36199445331283
560,228.0040665596858,236.59772303175907,223.2971317252906,225.50791025758681,208.9573053313048
561,228.22182717755214,236.8856859722359,223.87370672815032,225.50224074890355,209.2312769732463
562,228.44690034481323,236.6258278260671,224.22477631104087,229.80079978788902,208.844383000392
563,232.8464897581345,237.63285191309694,224.7059635580855,230.07964217423057,208.49548913868665
564,232.60075431973405,237.65009641092186,224.8913741015545,229.33825097677342,208.3297512820984
565,235.53294391350195,233.34726176583663,224.8961607468769,226.9713544722494,207.57236536868916
566,235.87262333080807,228.3899504644413,224.947037580854,226.69136651964243,209.3549494735336
567,235.8935216838149,228.902839621875,224.67407282841359,225.95543777255477,209.5071566117358
568,233.405964982818,229.24347419221937,225.85956245968026,224.6874877674922,209.43984298095364
569,233.88659066363215,229.2966209191885,223.10193524658516,225.24997965403253,209.59616135854895
570,233.91574852532673,229.7724332004825,223.5789024267807,225.05313887595514,210.0699199427225
571,234.49123012310054,229.2646944823446,224.28258506256753,225.28806627402585,210.18841639657447
572,234.44050727968377,229.68693970709617,223.6177768361316,224.6239972271173,210.4567753939661
573,234.90754156750026,229.70028556658824,226.0090315531751,221.47241164741388,209.9820454054948
574,233.99486202284723,229.7696459577404,226.00581295705067,221.76852408728556,207.72806219735577
575,235.2130123619908,229.9345503735568,226.08661045715127,221.625140616195,210.35603789528045
576,235.0046856917159,229.31246634003884,226.342538495108,224.96253971511868,210.48929415622032
577,235.40054126563868,229.3377528518398,225.95081642724415,225.1394539870201,207.6269320649471
578,237.5091834937209,235.76647984665385,226.09434095143132,224.92203408942854,207.6278451860763
579,237.9758848987358,235.5350705476077,226.46143744325863,225.1211429517342,207.68455062581714
580,240.16161008564202,235.6744866749299,226.16869502354876,223.1639814119461,207.4280140975623
581,240.34733451027935,234.80284926382893,225.75082870484482,222.35650198949287,204.5001041736141
582,242.85302752789167,234.551864784161,226.3145253293409,222.61935275729414,204.5539768829103
583,245.0501041277204,241.81647683445235,225.81716768077425,222.52299921319107,201.693373084186
584,244.63874728088672,242.06339617790385,225.85406821669082,222.18744449519247,201.45940173714644
585,245.13940741513227,241.4807294220873,229.184336964022,222.56554963065545,202.04622797410323
586,245.0609936220188,241.34027675168073,228.61357514339096,222.41289365694905,202.59307679679105
587,247.5003779913734,241.28770113108433,228.29697864242644,222.40916559230837,202.9703509468352
588,247.70003916849848,240.77742619020353,227.3192953057702,221.88088876670864,203.64771214891346
589,245.71050767589463,240.98782113624154,227.2238197930727,219.96857239706537,204.12481339229092
590,245.61141895397398,241.25701954039283,226.8516577330911,220.48954061063162,204.0943365595874
591,244.92588256117003,241.26635304506257,226.82189925221965,220.57516334865338,203.53721495715467
592,244.72844712209252,241.57769992111074,226.9637725932891,221.04868599636455,204.3301414354637
593,244.5800603774496,241.2546675752428,227.1831906384189,220.5986808861517,204.31944120595003
594,244.87247665634564,240.74770564262542,221.45832937157644,220.50480125348366,204.0451926458007
595,244.7309664950499,240.4263071139134,220.4035282080947,220.68428232651965,204.72468264067473
596,245.07810861565665,240.5243276523461,220.79313752801616,219.64726442819833,204.71715704031968
597,245.44778376096224,239.93682754755372,221.5059311580946,221.40790247082757,204.90444732646003
598,246.12530803202569,239.99847758081262,221.34421910562688,221.046551416227,206.67453030964606
599,246.35747746604662,239.666151380211,222.19603589102363,220.95146203843734,206.57298742902168
600,245.98267537101893,235.48229971393133,223.85539929724357,222.4589648113826,206.47025569686647
601,246.07252871043463,235.59557811097872,223.6915240566368,225.05384744093547,210.12371201516106
602,246.1947594433634,235.79191872330566,223.32674759112615,224.94325510722865,209.597366529439
603,242.32699006408936,235.69361741755017,223.16441428349714,225.15380121543626,209.2750538252834
604,242.47633860644174,235.7263208148957,223.45242739372065,224.52874172667916,209.66275749431313
605,242.44014596223067,232.26120350627116,223.62905361040214,224.63466935763964,209.7081263128573
606,243.06933962653034,231.63591292299142,224.15427721088201,223.738384358828,208.85804842355864
607,242.54418814035125,226.64091437000891,224.72858761646614,221.94884746743733,208.3237886923331
608,242.98405558513295,226.13772025703656,224.47291102790612,221.73900828042832,211.46037148255513
609,242.06337853058932,226.5330803638843,224.74864683448936,218.31214480012136,211.64288097740152
610,242.5028595676498,226.58836747749137,224.72555963329364,218.23469140443743,211.68236972630658
611,242.62045486887496,226.33345798596773,225.65281778338786,218.21565766184239,211.9736782609558
612,242.65887055044487,226.40926201805402,226.4267600092476,218.11315583450013,214.32224712947183
613,242.7548299797043,226.14969227521198,227.5480127883158,217.7966158193692,214.43519060497462
614,242.85145097024318,226.26737994347997,227.86594850877114,217.59857046253256,213.7141461575137
615,242.361413108896,226.52421149644545,227.54279989989013,217.1473119837048,213.7516675546596
616,241.9133617377026,226.62200963829542,228.15005165645312,216.99875460269988,213.8384063215091
617,241.62278596254765,225.96421457505664,228.37873517488595,217.05582670049733,214.21017164733374
618,241.9387693571996,226.30225099806674,228.0639813942731,216.52576131789087,214.66124915989218
619,241.91822384494364,226.14424971914477,230.53726999889545,216.69827873571614,215.06437580254615
620,242.0791077441406,224.88757483063455,228.19943468784658,216.1521357717541,214.58407277257314
621,242.23981992236176,224.93550141405078,228.480021333168,216.75996815240137,214.23999910316553
622,242.87109244244618,224.84999094128838,228.92528776558348,216.7214992242421,218.88549446904003
623,242.81734085198826,225.95988397744904,228.92864758914052,215.8892289978641,219.5683869794312
624,242.34491846447517,226.29308628543484,229.4885205502691,215.71147954209792,216.932613003337
625,242.64305432910086,226.33429164337124,229.6933811152435,215.47968255864834,217.05817617250557
626,242.34463242483514,226.34494655926756,230.0566617689309,215.66540890076328,218.02433413077776
627,242.18818936538628,226.43631773913944,231.33879159937706,215.1295850316398,217.63173246349209
628,245.06090420128726,221.60485730225884,236.82228434712073,214.66541728648465,217.1259581554251
629,245.13247874597752,222.14428020171258,239.93750601965672,214.03944458718482,216.43832425632598
630,244.86603608082652,221.3794412471759,238.9786174689926,213.86874296382064,216.003819973823
631,244.89655863696225,221.58073598334758,241.64159011433551,213.55296440758272,216.4104124159403
632,244.4064672994563,221.5159357379351,241.45908443410605,216.24247493019627,216.78767022385074
633,244.10907271344465,229.1238648951521,241.5933346709652,215.99535434450937,219.8675826916911
634,242.19334571727575,229.14409240155604,241.90434565379027,216.51313013242552,220.1395782639737
635,242.6356832212163,228.88417928417184,242.19170536155926,215.8506051816114,219.81101148568257
636,242.37969860125676,229.02864930611952,242.1001931107416,219.0985480655182,219.03647866577575
637,242.1772027257295,229.11037818524414,240.89837463829818,222.0564532779844,219.74114669717292
638,241.72821699504792,229.00359413685013,241.0140993238365,225.21219721267423,221.7447996500059
639,241.46419505031315,228.90638038246914,241.21215463866022,228.07552086046815,221.464537085256
640,244.38198545767796,233.1481855939581,240.74378863100605,228.8743018189337,220.68323148398392
641,244.3182934986784,233.47980451934268,240.82358542404364,228.5210076583049,219.73773920608707
642,244.27269069953707,234.2089119331501,241.5662478544825,228.6131305073172,218.89861003890294
643,244.13660159659906,233.34765066126866,240.03702370186988,229.00071437815362,218.40395628078207
644,243.92904565840425,232.75890361371174,239.57968288032924,229.06797338469406,215.93936924617353
645,244.04268342144505,232.33200993611993,239.40207474361696,231.57520761489585,215.7418879036313
646,243.8643379089359,232.41646409684546,243.22806477780458,234.0068718846638,216.25341320022454
647,246.26481647474935,231.9881371251375,243.43706759314588,234.8612999334043,216.528288203982
648,246.5259178465167,231.738412233651,239.46788347962786,234.83790555457134,216.37631091578905
649,246.37986115818256,232.20525999962308,236.70097470399742,232.43912274639573,216.71525550501937
650,246.45000119653386,232.0137925869555,236.8411638878901,232.58646916993098,219.2788799318575
651,245.99433814835967,231.67157252297824,237.14756043774082,232.1358269825143,219.57431397939214
652,246.10212788617523,231.742512372692,237.3490631367025,232.08383489304654,219.4592387458962
653,246.79758159076025,231.2346115147063,234.76904506765277,230.0185078562302,219.78191265637622
654,247.20738315374967,231.15608981664138,234.44128462827146,230.5234687444215,219.63781766372517
655,247.30066913228916,230.75000313486535,234.49097538614416,230.57735059781317,219.6525759528313
656,246.85005038812483,230.31053808588405,234.965250020927,231.22641485757683,219.32681817210008
657,247.0736550347766,233.0684462102873,235.0509376705292,231.06252394537623,219.54597317923088
658,247.1712300246767,229.8853001570789,234.95187582738393,230.4357080935084,222.4398092344853
659,246.98671115973096,229.8449576568616,234.76052320104125,230.7369448643162,222.64678604492542
660,246.31934141307872,230.44213580442258,234.48015111816,231.70691090448975,224.46173806681915
661,246.66926380018273,230.39943279574518,234.54704375787114,231.86546972695956,224.87886524905957
662,247.00037586972485,230.7307446800805,234.36996697293173,231.47621563064698,225.4725021297915
663,247.2705883919575,229.97846601741384,233.96125979891997,231.12100449528668,226.0300237496983
664,247.15887930802836,230.2314615171949,236.0777203001891,231.63072286748263,226.96117467778603
665,247.1216977047364,235.0010264525037,236.5344024063059,234.37159450605745,227.947583991196
666,246.70302420120308,239.35852688586326,236.8001849012816,234.30271504192038,229.13257464813717
667,247.1198117239477,239.92465789201236,231.96752299869237,234.87116736148295,228.7729484879207
668,250.52887996596124,239.64916172970004,231.90770807254458,235.6748022615388,228.39782694725582
669,250.73984302963706,239.90708925750772,234.52610263541513,235.49783132645902,228.18834191065253
670,250.80325117502355,239.45038559934247,234.19037326850975,235.47688932781898,228.16444856558246
671,250.41621681951477,237.61067364617102,233.36028244088396,235.01602443199306,228.07211006138957
672,250.5283532270072,237.22415081488714,233.8190862248692,235.05667249457034,227.98505783009125
673,250.33317275620655,236.6004970063276,233.4771170694556,238.18088345174675,228.11425241681593
674,251.14719359117066,236.6988615924498,233.2886436786089,237.80877544450016,230.73378540272867
675,250.9883049718145,235.63214782197898,233.3232751175478,238.35333407609505,231.3267175250637
676,250.91263276686445,235.98048298640003,233.24393163333605,238.35969239120098,230.93353668202283
677,251.1356057530233,236.01288542116802,232.64938817456132,238.5305808309367,234.08905974423513
678,251.4254404287038,233.04887187558722,232.40827069709314,238.7366964149034,234.91992795049273
679,251.56739095796763,233.3174199579715,232.13355328218233,238.74783869619256,234.96987785886526
680,251.6039060392815,233.39666321034872,232.84355890693016,240.53782112179556,235.0631240881282
681,252.07875701992748,233.85627211629784,233.62375092122033,241.13114789796253,237.74952173303436
682,252.44551844116012,233.95179869579297,233.9436203501028,240.82184437732002,237.81751661818188
683,253.0618973850604,234.08852079636222,233.97109650500494,239.94733664455157,241.63226595493623
684,253.1102410260378,233.95863816210206,233.82921791792012,239.60518313080414,242.61039853086493
685,253.19822823137451,233.8794534668306,234.5861146986225,239.55825158040975,242.63962932665748
686,252.829501432625,233.85513785330676,235.87754134335253,239.47071692687598,242.70901711025098
687,253.1613010651555,233.99692462560654,236.44985450181733,239.7546688167587,242.89826210385505
688,253.2667860071693,233.60449437386225,237.1436027840616,240.12178693440993,242.74965184129178
689,255.26073141195727,233.18039763294996,237.83129130676843,242.7332809580257,242.46987916974416
690,255.4943940012258,232.86822502723885,238.21163983192085,242.7924601290289,242.26103128510115
691,255.97275347223734,232.42974778086463,237.4228625134078,242.91863151824657,242.7026124184838
692,255.90606855743872,232.0218530966384,237.52475551450553,242.49340180957498,243.27419336014347
693,256.127552390162,232.20097902666254,237.0815339681942,243.105181787713,243.3042114754246
694,255.73383618982498,232.120339146898,242.57504116069063,243.45694052021528,243.56299240148027
695,256.25946455853244,232.21725638693385,243.72857925014182,243.42968872812327,243.68922790797072
696,256.2593430047169,229.35643667020534,243.57433445697836,244.12763499376715,243.07194751194243
697,256.1385604641557,226.8513806195393,243.95530161216615,244.49927496045248,243.36303280570294
698,256.3181504131992,226.55857404783265,243.7849908001112,244.64561962967585,242.39499955286882
699,256.49898199376526,226.82090408053685,243.6249903972381,244.27710160560227,239.5620121132589
700,256.497159662424,231.39259940723215,244.18200286164182,244.35509859616835,239.4203577171007
701,256.13006311871027,227.67640569702598,244.07691561896806,244.2940236167925,240.2755919327657
702,255.7617562375317,227.38898957549804,244.38737357501807,244.57613492248896,240.67509766835843
703,259.340646997938,227.18555831554804,241.9579404341817,244.85174555329547,240.78098949068578
704,259.21238123312287,227.25093696303549,241.44235755643084,245.17483549502361,240.30191765560778
705,259.084425261575,230.5180891753156,240.9650460120907,245.25920571678657,240.16167048754903
706,258.8102738763658,230.9590893342471,241.06357443520244,246.0738393500373,240.9571086138671
707,259.86569955211985,235.9884676370487,241.3036525886728,248.14421542695308,241.4198148300155
708,259.69754502852373,236.35549986027942,241.13042933699336,248.43257253837575,241.14534356186348
709,260.4293180700998,236.65923229505373,240.391904122292,251.44941484891632,240.6381259119229
710,260.45596511781764,236.67179774243425,240.87394339860987,251.51905631147758,240.62671890176375
711,260.1053124719215,234.00097527770214,240.55922893871283,252.06055113970135,238.12447954845757
712,260.177522473923,229.7620117011355,240.1118160621847,252.13149358622582,237.9298750701186
713,260.2047348907566,230.06956219526882,240.01654926944866,252.19079090691875,238.34366137478264
714,260.7647885294733,230.12481169546157,239.42337247792082,252.49316920354545,238.5828882488303
715,261.50845768904014,229.6894876274564,239.92463865309998,252.28692930032776,238.08541994263277
716,261.9664258567602,229.76729350997863,239.66154774322953,252.31529108805498,237.94236924822366
717,262.24168791882136,230.1273480123118,239.8972361236746,252.23891261779625,238.116667784169
718,261.76036400669966,229.9221633168593,239.87603240688262,252.57721415881934,237.4853387383877
719,259.1681751806844,229.56868813244117,240.41627112204682,252.69009732348175,237.39310866986844
720,259.15875983223805,230.5879108436719,242.6577185616248,252.86011854524637,237.1755805596035
721,258.9231013569173,231.04499715410242,242.2896436630661,252.25813912001573,237.20709573675657
722,258.74955059100495,231.0649803187215,241.8869940376074,252.20782567128808,237.26703951861026
723,258.8893073904212,231.5683780773721,241.91849999971194,252.92369889019486,237.34272237542308
724,259.6532421847222,231.4985805110144,241.7590758087569,253.09383218485797,239.60554620014614
725,260.06203492783743,231.4448965040161,241.8309490058608,253.45975065976464,240.14395144057903
726,260.7137390506865,231.1902938312336,241.5392736066789,253.3233629633176,239.87778126292596
727,260.41006614027515,231.2636693009261,242.6797445546721,253.88994636627856,241.12836744680345
728,260.02075578624533,235.98052462231098,242.82528690795348,254.2878098276455,241.53557288031308
729,259.8188532252232,235.74650854680974,242.49366544305585,254.75829955157,241.71668020263687
730,260.063863650008,236.10714206964786,242.90731293849205,254.7485607930633,242.06938528929547
731,260.20440225729806,236.22193949823472,242.79678800338604,255.10619890920646,241.74268959695135
732,258.25494182455685,235.95073778035126,242.87807430137713,254.80379479263246,241.83939072830785
733,258.52874366156334,236.14291332857815,243.14752022272188,255.08276510928988,241.16243169909387
734,260.63861358360003,236.01237890815983,242.925270995559,255.3542630212291,241.23180410316178
735,260.2115056802335,236.26672146856242,242.92964838884066,255.8684838152832,241.91706371444525
736,260.9009226808579,236.0616182175285,242.76757473055181,255.1509648224427,242.96935160093042
737,260.4989302052124,235.86299681077037,243.52356847871903,255.38183189950539,242.81890057736555
738,260.2613481935054,235.23862880868194,242.65896915906404,255.48640814490628,243.35236729191885
739,260.24198817540736,235.74787375311826,242.60081218738753,255.41751785307773,244.01616366591395
740,259.61475334199326,235.41737646629906,242.95855040723234,255.0828417999424,244.705869303851
741,259.62697473997804,235.7973409869819,243.14040164255846,255.62617000628896,245.42967586692492
742,259.86390313386966,235.2953293643358,243.28746461087707,255.79029436237107,246.28012521321048
743,259.9795493609149,235.86038177104533,241.5580811157392,255.49622581042019,246.1752902179691
744,259.861375933013,236.4433643389735,241.94680121946917,255.7713429843162,249.1705098644839
745,259.58731405866604,236.70743718291266,237.5272765586581,255.97994368025397,249.25548124505661
746,259.43873341018065,236.5525532228956,237.02813536133144,256.277910550256,249.78181094148655
747,257.6818218544572,236.49832901636924,236.49981294992432,255.8200019820629,249.38875086782772
748,257.8012414161185,236.04776128146776,240.37621168053636,256.1373514309429,249.538525657786
749,257.89084353010475,235.94988911289045,242.82286636616521,259.3496906392263,249.2120492158074
750,257.92380337596006,236.399233265186,242.4449708122015,259.0161860983606,249.35029501652264
751,258.1856014379375,236.6653229885022,241.28311302391592,259.24013018939945,249.32682726921098
752,258.383144729067,236.4554859906969,241.43513960274183,251.61941105921645,250.1229305388927
753,258.17145706901124,237.07884887037213,244.0793625545144,254.3844709851037,250.680398378684
754,258.7083000831427,236.6555673300035,244.09232105393585,254.68844602184166,251.14251370611493
755,258.94104501811637,236.9701239502652,243.79459699653654,254.84760461493534,250.89141372637607
756,259.3544430246434,237.07200565790933,243.23271659852972,254.41157436397629,250.90889794146088
757,259.39229003756344,237.04315046180065,243.15613127024,254.51400781138872,250.75510363592576
758,259.70938581178456,240.24347850220715,243.06473260607825,255.32307698067495,251.41931611516654
759,259.8695950272099,240.5127233082133,242.52408530978357,255.30093025217374,251.7159640368634
760,260.4287477839047,240.33132507110892,242.58081122703632,255.43884593906424,252.93736380249413
761,259.9343137399368,240.26434873696013,242.35513629410121,255.65661546342002,253.05700864853148
762,259.633302467889,240.39971589009866,242.55200904089608,255.9845703283016,252.95963285247385
763,257.1598256351973,240.59606676913103,242.50434787187598,256.43100976439257,252.51166598360908
764,257.2751243456334,240.5335750998177,242.99631028081163,256.38929236317495,252.26761765655942
765,257.0544960111475,240.81284806425177,242.64578222111896,256.1307599957156,252.03016662315125
766,257.1085709180063,241.18272074556745,242.39764473782748,256.6701132799784,252.03361146822473
767,256.74561374246895,241.14449845922096,247.31203575292304,256.6384242002891,252.09542131782408
768,256.84738592943506,241.27500500050047,247.15906683580778,256.94839328005406,252.6243709619878
769,256.4102286325012,241.74109521243957,246.9469771115545,256.98498903513473,252.5420291779461
770,256.6879106229209,242.01217972697617,247.54459228804689,257.22863569502834,252.61675735911598
771,257.171082775436,244.01629327430518,247.89797431015631,257.33095373551805,252.65142958288834
772,257.3700915198169,244.34774767920345,247.74146435306346,257.3761386337885,252.74819882079035
773,257.51679279106145,245.11932532614455,248.12682776299843,257.2754547663454,252.63027239488983
774,257.4667506547701,244.7984434645349,248.49212844350444,257.55323725749327,252.58433088914228
775,257.5139034936265,245.87735993482184,248.29475736802553,257.54662038791014,252.5869127582583
776,257.42686999698213,245.84693782678593,248.6618076809314,257.88635731327975,252.75588034384188
777,257.35259959277363,246.09765338644473,249.37619149289105,257.5022258644705,252.03231938798254
778,257.1967447839135,249.24010468199123,249.54648570344983,251.48471796786632,251.7475605196879
779,256.94397179085166,249.08780807396207,250.27639854001154,251.43509798855368,250.85583510230828
780,257.40383830226295,248.70366217401298,250.02845263626983,251.27092353738365,250.5237189319786
781,256.84455744325146,248.72850351112587,249.72270650788673,251.60947481725424,248.03520794986468
782,256.8815970773398,249.29921513114124,248.4969494655885,251.52493717527057,247.87146086774501
783,256.85387104292636,249.2519651314419,245.52214298028397,252.33109449539847,247.7379183610615
784,256.6406863791384,249.18670520798048,245.3779119543824,252.68378576250157,247.6413501207782
785,257.45265546254655,244.0818285226807,244.51026845869714,252.94065747135,247.7071545455666
786,257.72916569253226,244.19263879062171,243.65852146120267,252.72292972814614,247.39572268978083
787,257.42898652305826,244.5268105537454,243.49279784859525,252.92652509514076,247.37318627045835
788,254.62843757459166,245.19479687754097,243.62336595825644,252.5941354853565,246.93695678102296
789,254.98687754794588,245.58418551462495,243.50684369731732,252.2849282800407,246.73169367229258
790,254.81270249316043,245.89810605406282,243.26791078371306,252.05256852461807,247.03339478955496
791,255.39746791425057,246.60953386959682,244.06006413051125,251.92045520171442,247.02985491869495
792,255.6690333013913,247.14330345013192,239.30593984463286,251.97311802997774,245.02628728527299
793,255.7244710621254,246.9929913728387,239.22107650512626,251.967727717325,245.42663505592316
794,255.9713345128097,247.1846182706111,236.99526296522123,251.46385147302556,245.4037233629905
795,256.3893882448296,247.23145456567894,237.45983462677228,251.71665098177684,245.44981755412482
796,256.34735341057944,250.30077089349197,237.15315543992415,252.27075682755643,245.9039958877437
797,256.3289193159328,252.98693337430143,236.61598504317874,252.25945666100532,246.0051343243098
798,255.7726071259206,253.37733084654997,236.1815378502519,251.661054011854,246.93379471217781
799,255.6066432857697,253.13328242162476,236.41174601349599,251.87568260415793,250.25670243476827
800,255.5477971602282,246.01784690224852,236.55474374357343,252.0341068678637,250.38487334279426
801,256.11604090098206,249.39290555912766,236.12169149602155,252.06966839712754,250.5542945846565
802,255.72662497537476,249.59744207947386,236.03572002283917,251.90863597137817,251.10391432468458
803,255.80753614506267,249.68998363441912,238.9584230345589,251.82711764865115,251.1227431127535
804,255.59426726673377,249.87105281392408,239.5855074292368,251.69638788006515,251.28178271965228
805,255.4696465289942,250.21782469391667,239.8554257696794,251.75255587706334,251.49867378885628
806,253.48741560044803,250.17244265035544,237.70844794264815,251.62591436438706,251.2084129995629
807,253.54104093501982,250.36669971313546,237.66793242077136,251.93175351228052,251.20016939070004
808,253.01406973459282,250.2845559186993,237.44192417768897,252.05777393212836,251.34307369397303
809,253.2326700602935,249.95871850466926,237.98306511506536,252.433473854923,251.94413351648677
810,253.94610505483487,249.57403376969378,237.55992519764416,252.164278559988,252.05765284256046
811,254.0590497624643,252.4063916406423,237.42559991150858,252.62859780219117,255.05106322804576
812,253.9699704974191,256.3550161064653,237.2167830892539,252.6809937371511,255.51394233850698
813,253.471036607921,256.2486536616801,236.7056904520476,252.88571094362848,255.46077176459497
814,252.66093173262445,256.3052934116998,237.2952154858389,252.96336657096992,255.40024364390104
815,252.5092696835236,256.6709404833452,237.23457641333997,253.5003627844173,255.8642007559223
816,252.3071090409375,256.45269066786705,237.0181534219384,253.4054630295412,255.88140602073676
817,252.298570872637,256.8336723562594,237.1655906133684,253.250886095786,255.57190677007148
818,252.8523154641477,256.5476547876153,237.0136762099881,253.054472065796,255.6803759552069
819,253.18407475586017,256.7183383824529,236.64874672130853,253.12309685023817,255.55249815999025
820,250.51832315080603,256.91482700900764,236.63912162569068,253.41541981088724,256.25967767552663
821,249.94811011743093,254.32822022978533,236.79292397332765,253.6657965270928,256.7725823345282
822,247.5232401951814,254.16042522235404,237.00661969965884,253.4698478243888,256.76224837742603
823,247.94311651922283,253.79017961615855,236.642222946062,253.15412078909935,256.88777386571627
824,247.76611025798576,253.90956318077406,237.041549208605,253.2190227386105,257.37220695643447
825,246.99790992171125,254.18323259709516,236.76050308701303,253.17822231753178,257.47064578819345
826,246.9443263532972,254.20827255756086,236.66503756637337,252.96249409857043,258.0129080526614
827,246.87390595741098,254.2599804043538,236.9131796794758,252.99369991230677,258.2740656264365
828,247.69191250167285,254.51570675316788,233.9338078626005,252.91307281218857,258.10726507298614
829,247.80936061475805,254.56306437618176,233.92898035668028,252.53555695464715,258.4988372527008
830,247.77883787004043,254.57997439996944,234.10569830813967,252.58162433500812,258.3817529421976
831,247.64298928562988,254.76509341873887,234.1508428409091,252.3557110963719,259.42919722024845
832,249.7015776704852,255.12330124458455,234.34849546085846,252.3848703529957,259.8012185700274
833,250.05332473722726,255.51978480214802,233.40056377732503,252.0422701963253,260.37425927304787
834,246.84021754602264,255.67539097218224,233.09784383618114,252.12028603597363,260.1297364597501
835,247.069286197764,256.24402684098595,232.89673162871426,251.72515918242686,260.5049192275433
836,246.8435097860134,256.43560519232756,232.88483865655496,252.27161669486247,260.2693332698216
837,247.1242270929664,256.2838167364736,233.1520074200408,252.23125580781993,260.5388247702843
838,247.71526528933956,257.3996801522451,233.9913849803787,251.88937614322978,260.259357785272
839,247.87109050083902,257.46052202337074,233.97830869003653,247.85980282485812,260.14080623474365
840,248.57703361942077,258.2438518720403,234.48459388894406,245.76118243847606,260.4345992853897
841,248.4439031062808,255.41305260695964,234.40306487585087,246.04969019953202,260.85917948572643
842,248.6902411019063,255.90399307086355,232.1415951104963,245.36667942105902,260.7253587799252
843,246.44440898215657,255.9686968565255,235.37971540479367,245.3801682319242,261.51259772818344
844,246.99136076149694,255.79273514332363,231.22300913114768,240.50168039598964,261.22903533987994
845,247.46605821083233,255.63353184361154,236.148747138323,240.32102802159682,261.3279605374818
846,245.15307524092458,255.5807606451724,236.7683428106636,240.43079309290508,261.61832910668204
847,246.7184847580257,256.03708877338266,237.16756005251423,240.14570590538878,262.2297507488517
848,246.65070509281398,256.3392292054889,236.92747889536952,240.31859616239453,261.7185500941013
849,246.29599171110803,256.8673481687345,237.04847560224775,240.2673020117555,261.83794597634636
850,246.47191932737675,256.5183779606197,235.27159253072517,240.3725185944169,262.06040671320824
851,246.1621678621799,256.5452381711831,236.08528529055727,240.3731599872246,262.43244193344015
852,245.9771236618309,256.67765160773047,236.07487722965922,247.8838679656997,261.8048492810833
853,246.04935387644437,256.4042409665189,235.89648745824684,247.7707703229941,261.70722298325273
854,245.66913030392033,256.55520633050963,236.48234854612593,247.92889408869166,261.5371929575829
855,246.01726769944042,256.73163211624774,233.32033442381086,246.45418343320907,261.8497859968492
856,246.10321239827462,256.92440838724434,233.41662036945922,246.82527433252625,262.31711698146376
857,246.170895267099,256.8877100454033,232.9055312990273,246.93052777061123,262.49891734445276
858,246.17186170866785,256.60162409785136,232.764878119134,246.9993527553005,262.2933333877497
859,246.5020708902126,256.2781181870742,232.74614984310287,246.78316726074144,262.2286788818192
860,246.28445811568704,256.07981475027117,231.98835639960635,246.64654401232394,259.13881527425104
861,246.13610955073466,256.2538142426188,231.78502155229205,246.8114695585781,258.5442955191431
862,246.55049474363474,255.83852873473617,231.65842950972507,246.56564845714348,258.61224041405194
863,249.03309604480052,256.06196096517823,231.9745765520615,246.5630057871206,259.01180213467865
864,248.8972000857932,255.8039261206023,228.6122153994338,246.67263719495884,259.1298630174551
865,249.24553619531113,255.6904601313407,228.88902102477203,246.6439757582417,259.253836838184
866,249.06205213966808,255.71347609773042,229.0590363811326,245.96255123735648,259.4078747945065
867,249.02613757156178,255.34240639670125,227.04876413723989,246.12673823219163,260.04860773956136
868,248.83236415475577,254.72832839042977,224.43562843186902,246.33623465763355,260.17106096144664
869,249.47288896100102,254.4258748112964,224.92546642472237,245.91446549654668,260.34330209119736
870,249.17153462170478,254.04856186913582,224.56728191365121,245.73907308040006,256.717648537692
871,248.969982496426,253.9997986625147,224.58934721618812,245.8408334255389,256.6994020517896
872,248.76386055439644,253.85031908389777,224.01609437662626,246.13303344631143,251.7025052331111
873,248.72603205435723,253.620961572446,223.73432853720243,246.08720705110613,251.77868468453718
874,248.9627011083278,253.78593672310603,223.02298707871003,245.8284799873818,251.64640836552536
875,248.61981871944647,253.5440109054918,223.22658201163293,246.10159280445296,251.4674070497491
876,249.21605556855985,253.48817995328304,223.2981786711614,246.06877226207868,251.86686271736303
877,249.02102103904747,253.27435574734022,222.70502209814148,246.16140289431453,252.18394347876307
878,248.8148648541298,253.1513653961621,220.33842215865272,252.01100191598292,252.54358168253086
879,248.67754258754994,253.61229959984135,219.85917991681305,246.63834159083828,252.7439710487802
880,244.1881149952556,254.08074438060464,216.67006247053254,246.20751087468545,253.3496841738126
881,244.21391940537097,254.41044435165594,214.27901278528782,245.98163025471138,255.63244691813765
882,239.32290248211652,253.8782432446183,214.49155292048405,245.91811041382206,255.37935466889357
883,239.15659220397066,253.94484985325641,214.61192875488155,245.5484529456394,255.14953765789767
884,239.9345660160859,253.97022229608473,211.37535516269486,245.6674731685176,254.80194331368352
885,239.61215230298546,259.600618560549,211.39036796428593,245.12902898308803,254.94821122644123
886,239.86919825046982,259.12965335957523,211.401218557544,245.56412419915873,255.44805158652764
887,240.1193687185371,259.36950785344123,211.43730252821152,245.01971711163185,255.0454648553433
888,242.89175381191384,259.4669971196549,211.63290959361404,245.09848793223904,255.9725716283259
889,240.67522847290155,259.2130206335503,211.36981350274036,245.34841318371568,256.442980677559
890,240.37289791044182,259.3962436373624,211.78723666070945,245.94704374879132,256.17826296555586
891,240.10703829608192,259.42979799977013,212.11706789261646,246.15950888365495,256.6597454085315
892,240.03809851639565,258.8504687062512,217.35082104390997,246.3464264393156,258.14826962356153
893,239.44539577084063,258.7960393184891,217.18093671572635,246.507710349797,258.06527186256085
894,236.8225524596417,259.24049355102557,219.99147617215934,245.4426129089253,257.8776533216715
895,236.60541524337222,258.9480448961684,217.52981863632016,245.53995711881973,253.2974014928999
896,236.67942225529802,258.94376536887125,215.15693883770282,245.01194686999406,253.68829144509849
897,236.66165128778218,258.88671115933244,215.05864104955205,244.88906234928731,254.04621357733365
898,232.2736162204662,258.9681385917467,212.79096071935234,245.16799804651026,254.1107817678715
899,229.4299863006528,259.0215252071928,212.52614458697695,245.07128578125466,254.1917069409544
900,226.45618052800353,266.1962245469284,212.7769002280707,245.1112337218111,253.697822602005
901,226.04943510135797,265.80337486605526,209.8989040392162,245.48066340698028,253.49941243599963
902,221.4253566197956,265.63791312610704,210.07308296260734,245.65980559493673,253.4234075533107
903,221.4296711899127,265.9870994338286,209.95927235190007,245.65688064258512,253.84556951439285
904,219.00127685466123,266.2293814743411,208.85678820737235,245.91910477713623,254.06829283249002
905,219.13694244182,266.0761217761014,208.21722649138505,246.10763896416066,254.20676823201202
906,220.93804480891936,266.25857119928594,209.80702353811293,246.31431981698236,254.4433478324101
907,220.7095048237395,266.37232233486236,209.70595863952315,246.00290908560575,254.62582476348558
908,221.28081665163245,266.5907688410929,207.51069083891468,246.01632029203807,254.664623005905
909,221.16055003333943,266.34968142482387,207.5608746007505,244.0990225784789,252.03712042494996
910,220.8138120926565,266.6263228556412,207.3189874811064,244.07795475635893,252.08996392735725
911,218.49009502249046,266.9511317167484,207.11096329715497,243.87998837923288,252.0156829017111
912,218.53487299902753,266.77792760232677,207.20610598115775,244.1658626679594,251.96626672707754
913,218.928812022655,266.65002169382734,204.21857729859886,244.0802907850333,252.13596908913524
914,216.27212139963234,266.9359574257633,204.15884832360453,244.062045551913,252.27395173376715
915,216.21509496984544,266.814907836596,204.51588097831817,239.3263878290657,252.59419180999933
916,216.04905542275253,266.77874352901637,204.4597782157107,239.08067975357218,253.16693359782016
917,216.53505815193066,266.4646977697091,204.60675852342268,239.2901919502287,253.62293325132669
918,215.89916032485243,266.7518385910396,205.0438883715076,239.7520757754977,253.8643322310501
919,213.56575183669912,267.11070367158567,204.95039882565234,239.65511039272357,254.17725829703272
920,216.12966678139324,267.42465570521426,205.0064078302816,239.68981740863262,253.87070812948332
921,214.2277389682347,269.94979552003565,204.80422571991107,239.4286521369042,253.7637315137257
922,213.9779360214791,270.2000573182574,204.9522187378276,239.58125351126952,254.05556819914963
923,214.00668547698743,270.31372552098065,202.36335335249052,239.6173009817239,253.66405617515144
924,210.46226720475067,270.2588060818955,201.92425653340294,239.53656313810993,253.31945151681262
925,211.05050759080055,270.072271974629,202.3094482798082,239.8874830572212,253.49469868865535
926,210.61348763923496,270.2696698373716,202.4975165254789,239.85728928930448,252.88783616889862
927,210.83887260772485,269.9483652540884,202.7473694106701,239.71203630945493,252.86244600762956
928,210.01510850050724,269.46741607345774,201.22363847020287,239.6587028990292,253.00052952130773
929,209.86356477324588,269.49541699472104,201.40193820183268,240.19223268685866,252.96365283839128
930,209.8348434786346,269.3980181815316,201.08108439208726,240.23240136237106,253.3259177073979
931,209.922299418111,269.0223067063148,200.79228729408183,240.75373592732782,253.24509933483958
932,207.4474637809807,268.8690327224294,196.51064500986377,240.8599522983259,252.63839176616094
933,207.64815444752657,268.83597647323995,196.7239647205792,241.3791438767743,252.18774643071936
934,211.07152267843168,268.85433741845105,197.29910168453765,241.37403406111102,249.79921678576102
935,211.52719563269093,268.6259900451186,197.42391616854923,241.67787077302037,249.89301436935224
936,208.74487771035888,268.62041780155187,197.72890786684232,237.24424861354694,249.59070485491503
937,208.56004747656942,268.8330571431133,197.6819247912273,237.42247932426446,249.67433109492876
938,208.3002166212214,268.58517506652424,197.6716440877817,237.87635021245296,249.33144697701158
939,208.08544480851435,268.5753218044654,197.22997923687836,242.07249364255665,249.74440648936093
940,207.8760756533669,268.52122504168057,197.1038318293226,244.52912857766668,249.6910035617954
941,208.19957154352835,270.6682836929274,197.27065839417838,244.4588481649544,249.6508937092451
942,207.80851475048746,270.42277838485495,199.31697152775666,245.0975022254565,249.92984609645032
943,210.37327168252787,270.21876879906665,198.2162190941522,245.30969346373217,249.5487887329358
944,210.0277871701377,270.3049279225343,198.65838830964174,250.20128007320608,249.7269803151296
945,209.923254974262,270.39955856494925,198.2637454488589,250.5213224647197,250.0909787307234
946,212.13341533053986,270.42139141845576,198.3023848782164,250.44139563562393,249.59071901049347
947,212.28955834452398,270.3625421338245,197.78724053531516,250.71727623836767,249.2733685879115
948,212.5296093370156,270.5354140260045,197.96061284823958,250.37112947670926,245.48674181061165
949,213.07946836107843,270.360608182113,194.11607901156773,250.0695893238173,245.53017170296062
950,212.99669253451938,270.91013804663476,195.61149392170407,249.91220416318663,245.34557230325558
951,213.2680087292206,270.6072927494045,195.39553020633232,250.35985468986678,244.839357235713
952,213.4668127527545,270.49309772340916,195.64463181098026,250.3192972339899,244.93276170071175
953,213.47419405705995,270.1246137523649,195.99400385708938,250.40115451173708,244.9387754430961
954,212.50491426888368,270.5732981136235,195.7382944058278,250.13710697070977,244.96466552290636
955,209.8884639263481,270.6680477504712,199.29081991133066,251.65316358957247,244.9523668127679
956,209.49583934117362,271.02831007233175,199.7997595094672,251.06145644068593,245.33471070049444
957,209.46821647015906,271.1766129734983,200.52834041951462,251.0104013875371,245.5165498690764
958,209.36589402803997,271.3858389184111,200.18327928593243,250.65411259503145,245.2161682379563
959,209.0137855056331,271.58274927198255,200.6234522077288,250.89388892372813,245.15620283861386
960,205.4587375991884,271.5910748404517,200.9568242310708,250.8353240115982,248.47159982924165
961,205.7955947133521,271.5182691862722,200.9601594960597,250.61630906370465,248.72750752177996
962,205.51245332121448,271.7894084474959,201.0005319002739,250.76479241855893,248.61536496515433
963,202.62641144842738,271.5797479714965,200.68205345503577,250.5816768685712,244.89944426010607
964,203.09876874511735,271.8539016434729,203.6635477336102,250.81344393818262,245.1307296857761
965,199.45845636022244,271.88505736119606,202.7874833107527,250.70556051646864,244.84784993819952
966,199.2401793345933,272.07839797258197,202.01511486379448,251.06119160654237,244.68962910053312
967,199.25322173727415,272.1291110579621,203.55899916407873,250.8659076329535,244.46100729331812
968,199.59470435603754,272.44008705017035,206.23828611167863,248.72484543462636,244.2272595804991
969,199.19005256887667,272.4220247497738,206.3242295138678,248.92965227380253,241.7595077068227
970,199.04612344700286,272.49416283305584,206.51974110606238,248.7315658591798,245.15278157232046
971,199.04934205011813,272.73745707501035,205.90215570265306,248.4824909342039,244.99112711474854
972,199.3291398061748,272.8324270467658,206.64816376516822,248.61976052576694,250.12705928869985
973,196.72249198329365,273.14801715705636,206.58334273421067,248.9173568675152,250.23310324334085
974,196.76278364983037,272.7436170700496,206.4158946745711,248.67751784222048,248.1542859557069
975,197.1409946205809,272.5197793417443,206.20142823051944,248.3361755134223,248.15077999233802
976,197.0942612546434,272.4096900293096,205.73830193006017,248.23156777784556,247.91210796320414
977,197.07947546389352,272.3704197187955,203.21737299746528,248.71190764584745,248.0765961740326
978,196.73668940617551,272.78450998584674,205.4432471978623,248.4478697436671,247.89925540613902
979,196.70553063420488,273.030960741512,205.72113262340395,253.81394916413228,248.40819831750798
980,196.0687411813277,272.73881162608836,209.11035174558484,254.4971812568861,248.04613097708557
981,196.18876464217348,272.40893422536396,211.79437834610272,254.7831089928021,248.40067581858793
982,201.12019823124672,272.9445859024141,211.7308980785113,254.56073177327198,248.95163276034236
983,200.89685348770504,273.0156612479834,214.09602103209298,254.94437602713185,248.82024472502667
984,197.7737106929849,273.04062514540936,217.05669890961738,255.16478406577534,247.88377128000386
985,197.58769396282983,272.82302577473604,217.70517849332893,255.66253902900164,247.48034353072842
986,197.61664423089488,272.85354729329214,217.92833950607607,255.41328513074552,244.78899296673794
987,194.93757780008426,272.69345373791185,217.27575511812475,255.94076308487357,244.33086845304967
988,194.41775932432427,272.59668633927816,217.3879654564936,256.2031879030707,243.60731768464683
989,196.38696518360533,272.91083565634426,217.00761289223723,256.222087981288,243.6185791957871
990,192.7802299940723,272.5954987305594,216.94954642277835,256.0792752522553,241.2351613468101
991,192.73721110276247,272.52526571415575,215.90920699940258,255.73391343097458,241.0087721688179
992,193.06059397647576,272.86338924834797,215.6739294106539,255.69399133144398,240.83157382586722
993,190.84598669541748,273.0023189509629,216.39801939465826,255.49166746175808,241.0247046219322
994,193.5298397600583,272.97988569546766,216.06573056449298,256.5488233957239,241.40825897154718
995,193.12706440572805,273.4309750925164,215.47570032435942,256.43590203394064,245.66919538033852
996,193.25391968538986,273.0909435665116,217.91843071724816,256.7228363820753,245.62081794026562
997,192.97146748952235,273.54135548708183,218.38078515603974,256.65471860110137,245.4241512890069
998,197.57832945054218,273.4852663137736,220.75235771053255,256.8933828043309,245.16063923660022
999,199.8216122049068,273.7089473000228,220.19383807114406,257.30752454163763,245.15210298318357
1000,202.93696248844768,273.63640899545305,220.16077419728612,257.11065943768017,245.44808284426415
1001,203.21125452007777,273.7708806906921,220.99525480338446,256.68649803828987,242.9519297199204
1002,205.40736692712886,274.0416209961871,220.8611215527739,256.7375988176472,242.7460757288934
1003,202.76676922084542,273.88269737029395,217.43395690071554,256.42288929388246,242.80284961090126
1004,200.18288903272452,273.40998867620726,218.23237717016548,256.6758906688893,242.43749467301686
1005,200.06427629185313,273.03960615053165,218.65118345881896,256.7676618890115,241.70772902549922
1006,200.19081110915076,273.2684681814394,219.54205166266746,256.935787816275,241.23251618010374
1007,200.3478591823407,273.19500839825696,218.82145702362084,257.18961666534665,241.00099090528536
1008,196.9288775869096,273.4037159010501,221.3515843185745,256.97435598213707,241.1924176078066
1009,196.92734650824926,273.7420397211807,221.18422267647531,258.59617378064763,243.5717451881493
1010,196.67254875739332,273.81752916189487,221.18115515024664,259.0976845913579,243.76155285637975
1011,196.0682596604422,273.6853064130014,220.40090395827988,259.1387123981993,243.6920643874513
1012,195.81080469895215,273.6874635138939,217.5498696327764,258.89410939115714,243.6970594972878
1013,191.3246239490455,274.1496531916555,220.94717910119851,258.8473660569341,243.27150917378657
1014,194.17840032149047,273.98691814117535,221.01311875917682,259.11783575436345,243.44920385379788
1015,193.82870414224982,273.79051419031657,220.49015138925955,264.2858174155499,243.07651147775073
1016,193.48512496068196,273.6238415698142,220.54059121304022,264.8756783142152,242.58077077369595
1017,192.83700091644016,273.10513634500603,219.78794116501143,265.10459621334854,242.00688539421247
1018,190.15403704130225,269.8814639577195,219.60427805707477,265.16673561236826,241.66137105953055
1019,192.27290891449263,269.6390563864267,219.72997815042407,265.3254455698998,241.86845855026206
1020,192.48179150586907,269.37906682985835,219.87850658243025,264.98873030141306,241.23494269657647
1021,194.42827871620145,269.44998027480204,219.98967518575395,265.43275738449285,241.22695466463102
1022,196.22772909241618,269.53613005358466,219.45838593519014,265.27316613729704,240.84701422201942
1023,195.93976822094794,269.51481292095394,222.75042046735012,265.56795556362454,240.84935635027784
